{"learner":{"attributes":{"scikit_learn":"{\"_estimator_type\": \"classifier\"}"},"feature_names":[],"feature_types":[],"gradient_booster":{"model":{"gbtree_model_param":{"num_parallel_tree":"1","num_trees":"750"},"iteration_indptr":[0,5,10,15,20,25,30,35,40,45,50,55,60,65,70,75,80,85,90,95,100,105,110,115,120,125,130,135,140,145,150,155,160,165,170,175,180,185,190,195,200,205,210,215,220,225,230,235,240,245,250,255,260,265,270,275,280,285,290,295,300,305,310,315,320,325,330,335,340,345,350,355,360,365,370,375,380,385,390,395,400,405,410,415,420,425,430,435,440,445,450,455,460,465,470,475,480,485,490,495,500,505,510,515,520,525,530,535,540,545,550,555,560,565,570,575,580,585,590,595,600,605,610,615,620,625,630,635,640,645,650,655,660,665,670,675,680,685,690,695,700,705,710,715,720,725,730,735,740,745,750],"tree_info":[0,1,2,3,4,0,1,2,3,4,0,1,2,3,4,0,1,2,3,4,0,1,2,3,4,0,1,2,3,4,0,1,2,3,4,0,1,2,3,4,0,1,2,3,4,0,1,2,3,4,0,1,2,3,4,0,1,2,3,4,0,1,2,3,4,0,1,2,3,4,0,1,2,3,4,0,1,2,3,4,0,1,2,3,4,0,1,2,3,4,0,1,2,3,4,0,1,2,3,4,0,1,2,3,4,0,1,2,3,4,0,1,2,3,4,0,1,2,3,4,0,1,2,3,4,0,1,2,3,4,0,1,2,3,4,0,1,2,3,4,0,1,2,3,4,0,1,2,3,4,0,1,2,3,4,0,1,2,3,4,0,1,2,3,4,0,1,2,3,4,0,1,2,3,4,0,1,2,3,4,0,1,2,3,4,0,1,2,3,4,0,1,2,3,4,0,1,2,3,4,0,1,2,3,4,0,1,2,3,4,0,1,2,3,4,0,1,2,3,4,0,1,2,3,4,0,1,2,3,4,0,1,2,3,4,0,1,2,3,4,0,1,2,3,4,0,1,2,3,4,0,1,2,3,4,0,1,2,3,4,0,1,2,3,4,0,1,2,3,4,0,1,2,3,4,0,1,2,3,4,0,1,2,3,4,0,1,2,3,4,0,1,2,3,4,0,1,2,3,4,0,1,2,3,4,0,1,2,3,4,0,1,2,3,4,0,1,2,3,4,0,1,2,3,4,0,1,2,3,4,0,1,2,3,4,0,1,2,3,4,0,1,2,3,4,0,1,2,3,4,0,1,2,3,4,0,1,2,3,4,0,1,2,3,4,0,1,2,3,4,0,1,2,3,4,0,1,2,3,4,0,1,2,3,4,0,1,2,3,4,0,1,2,3,4,0,1,2,3,4,0,1,2,3,4,0,1,2,3,4,0,1,2,3,4,0,1,2,3,4,0,1,2,3,4,0,1,2,3,4,0,1,2,3,4,0,1,2,3,4,0,1,2,3,4,0,1,2,3,4,0,1,2,3,4,0,1,2,3,4,0,1,2,3,4,0,1,2,3,4,0,1,2,3,4,0,1,2,3,4,0,1,2,3,4,0,1,2,3,4,0,1,2,3,4,0,1,2,3,4,0,1,2,3,4,0,1,2,3,4,0,1,2,3,4,0,1,2,3,4,0,1,2,3,4,0,1,2,3,4,0,1,2,3,4,0,1,2,3,4,0,1,2,3,4,0,1,2,3,4,0,1,2,3,4,0,1,2,3,4,0,1,2,3,4,0,1,2,3,4,0,1,2,3,4,0,1,2,3,4,0,1,2,3,4,0,1,2,3,4,0,1,2,3,4,0,1,2,3,4,0,1,2,3,4,0,1,2,3,4,0,1,2,3,4,0,1,2,3,4,0,1,2,3,4,0,1,2,3,4,0,1,2,3,4,0,1,2,3,4,0,1,2,3,4,0,1,2,3,4,0,1,2,3,4,0,1,2,3,4,0,1,2,3,4,0,1,2,3,4,0,1,2,3,4,0,1,2,3,4,0,1,2,3,4,0,1,2,3,4,0,1,2,3,4,0,1,2,3,4,0,1,2,3,4,0,1,2,3,4,0,1,2,3,4,0,1,2,3,4,0,1,2,3,4,0,1,2,3,4,0,1,2,3,4,0,1,2,3,4,0,1,2,3,4,0,1,2,3,4],"trees":[{"base_weights":[2.9608885E-2,-8.7529145E-2,1.192501E-1,-1.7490077E-1,-3.264763E-2,1.6281335E-1,2.4351189E-2,1.2820512E-1,-1.8437302E-1,-5.1157433E-3,-1.2380145E-1,1.9027182E-1,1.0215106E-1,-1.6709954E-2,1.3784964E-1,-6.5913363E-3,6.585788E-2,9.504132E-2,-1.8632216E-2,-7.2754786E-4,1.4341085E-1,2.9739777E-2,-1.4665909E-2,1.2162162E-1,1.8853707E-2,1.5986925E-2,-2.6992697E-3,-2.4560043E-3,4.4133477E-2,1.1552514E-2,9.9009894E-2],"categories":[],"categories_nodes":[],"categories_segments":[],"categories_sizes":[],"default_left":[0,0,0,0,0,0,0,0,0,0,0,0,0,0,0,0,0,0,0,0,0,0,0,0,0,0,0,0,0,0,0],"id":0,"left_children":[1,3,5,7,9,11,13,15,17,19,21,23,25,27,29,-1,-1,-1,-1,-1,-1,-1,-1,-1,-1,-1,-1,-1,-1,-1,-1],"loss_changes":[1.7654855E2,3.4945694E1,3.93714E1,8.096809E0,1.1237819E1,1.08537445E1,1.397318E1,8.876978E0,6.2090073E0,1.0704252E1,1.0044401E1,7.766266E0,1.5182039E1,7.929558E0,1.5040246E1,0E0,0E0,0E0,0E0,0E0,0E0,0E0,0E0,0E0,0E0,0E0,0E0,0E0,0E0,0E0,0E0],"parents":[2147483647,0,0,1,1,2,2,3,3,4,4,5,5,6,6,7,7,8,8,9,9,10,10,11,11,12,12,13,13,14,14],"right_children":[2,4,6,8,10,12,14,16,18,20,22,24,26,28,30,-1,-1,-1,-1,-1,-1,-1,-1,-1,-1,-1,-1,-1,-1,-1,-1],"split_conditions":[1.986166E-1,1.215415E-1,4.8481658E-1,3.8476917E-1,5.1265645E-1,1.3800421E-1,3.4140316E-1,9.585928E-1,1.2547617E-1,4.140811E-1,1.5978219E-1,1.5348238E-1,6.15875E-1,8.80035E-1,7.9359317E-1,-6.5913363E-3,6.585788E-2,9.504132E-2,-1.8632216E-2,-7.2754786E-4,1.4341085E-1,2.9739777E-2,-1.4665909E-2,1.2162162E-1,1.8853707E-2,1.5986925E-2,-2.6992697E-3,-2.4560043E-3,4.4133477E-2,1.1552514E-2,9.9009894E-2],"split_indices":[24,24,10,11,11,21,24,1,0,21,2,23,3,19,19,0,0,0,0,0,0,0,0,0,0,0,0,0,0,0,0],"split_type":[0,0,0,0,0,0,0,0,0,0,0,0,0,0,0,0,0,0,0,0,0,0,0,0,0,0,0,0,0,0,0],"sum_hessian":[1.6811521E4,7.2880005E3,9.5235205E3,2.8108801E3,4.47712E3,6.5267207E3,2.9968003E3,8.48E1,2.72608E3,3.4393604E3,1.0377601E3,4.4915205E3,2.0352002E3,2.2012803E3,7.955201E2,6.2720005E1,2.2080002E1,3.8400002E0,2.7222402E3,3.4352002E3,4.1600003E0,5.2800003E1,9.849601E2,6.4000006E0,4.48512E3,1.4064001E3,6.2880005E2,2.16512E3,3.6160004E1,7.7632007E2,1.92E1],"tree_param":{"num_deleted":"0","num_feature":"27","num_nodes":"31","size_leaf_vector":"1"}},{"base_weights":[-8.827944E-2,-9.651353E-2,-4.8940503E-3,-8.759762E-2,-1.6432188E-1,-1.378341E-2,3.9393938E-1,-8.9932516E-2,1.2469503E-1,-1.6773973E-1,6.7567563E-1,-5.7750758E-2,-8.720058E-3,-1.6620497E-1,7.8732103E-1,-9.443502E-3,2.0590255E-3,-1.3346043E-2,2.2514071E-2,-1.5279305E-2,-3.4711964E-2,-3.8461536E-2,1.0344827E-1,2.9318035E-2,-2.2188718E-3,4.6511628E-2,-4.6692606E-2,9.31677E-3,1.0481586E-1],"categories":[],"categories_nodes":[],"categories_segments":[],"categories_sizes":[],"default_left":[0,0,0,0,0,0,0,0,0,0,0,0,0,0,0,0,0,0,0,0,0,0,0,0,0,0,0,0,0],"id":1,"left_children":[1,3,5,7,9,11,13,15,17,19,21,-1,23,25,27,-1,-1,-1,-1,-1,-1,-1,-1,-1,-1,-1,-1,-1,-1],"loss_changes":[1.1543045E1,9.236465E0,5.3661776E0,6.715523E0,5.2150955E0,4.219493E0,7.4024243E0,6.6596756E0,3.8563664E0,4.6941833E0,3.2131336E0,0E0,5.9751897E0,2.958632E0,3.4439049E0,0E0,0E0,0E0,0E0,0E0,0E0,0E0,0E0,0E0,0E0,0E0,0E0,0E0,0E0],"parents":[2147483647,0,0,1,1,2,2,3,3,4,4,5,5,6,6,7,7,8,8,9,9,10,10,12,12,13,13,14,14],"right_children":[2,4,6,8,10,12,14,16,18,20,22,-1,24,26,28,-1,-1,-1,-1,-1,-1,-1,-1,-1,-1,-1,-1,-1,-1],"split_conditions":[7.8061944E-1,5.5245054E-1,6.167994E-1,6.1195236E-1,9.423929E-1,1.14912465E-1,8.0388653E-1,9.671927E-1,3.8865003E-1,2.8981724E-1,1.4546883E-1,-5.7750758E-2,3.8184598E-1,3.6065575E-2,1.83161E-1,-9.443502E-3,2.0590255E-3,-1.3346043E-2,2.2514071E-2,-1.5279305E-2,-3.4711964E-2,-3.8461536E-2,1.0344827E-1,2.9318035E-2,-2.2188718E-3,4.6511628E-2,-4.6692606E-2,9.31677E-3,1.0481586E-1],"split_indices":[19,23,11,10,3,5,19,0,23,26,22,0,9,14,0,0,0,0,0,0,0,0,0,0,0,0,0,0,0],"split_type":[0,0,0,0,0,0,0,0,0,0,0,0,0,0,0,0,0,0,0,0,0,0,0,0,0,0,0,0,0],"sum_hessian":[1.6811521E4,1.5300481E4,1.5110402E3,1.3524481E4,1.7760001E3,1.4790402E3,3.2000004E1,1.3377921E4,1.4656001E2,1.7696001E3,6.4000006E0,1.2160001E1,1.4668801E3,1.3440001E1,1.8560001E1,1.2854401E4,5.2352E2,4.0960003E1,1.05600006E2,1.6352001E3,1.3440001E2,1.6000001E0,4.8E0,6.1760006E1,1.4051201E3,4.1600003E0,9.280001E0,5.4400005E0,1.3120001E1],"tree_param":{"num_deleted":"0","num_feature":"27","num_nodes":"29","size_leaf_vector":"1"}},{"base_weights":[-2.0710755E-2,2.576951E-1,-2.0086128E-1,4.317289E-1,1.12484306E-1,-1.5363236E-1,-3.4573746E-1,3.4830594E-1,5.694793E-1,7.7067623E-3,2.285761E-1,-2.0146388E-1,-2.9969657E-2,-3.6678106E-1,-2.3410201E-1,6.299409E-2,2.7174354E-2,3.7973862E-2,6.4002916E-2,6.2378164E-2,9.600409E-5,1.7040905E-2,4.4503488E-2,-1.3938603E-2,-2.4427367E-2,5.8685448E-2,-4.242516E-3,-3.0286381E-2,-3.909093E-2,-1.3842215E-2,-3.9019246E-2],"categories":[],"categories_nodes":[],"categories_segments":[],"categories_sizes":[],"default_left":[0,0,0,0,0,0,0,0,0,0,0,0,0,0,0,0,0,0,0,0,0,0,0,0,0,0,0,0,0,0,0],"id":2,"left_children":[1,3,5,7,9,11,13,15,17,19,21,23,25,27,29,-1,-1,-1,-1,-1,-1,-1,-1,-1,-1,-1,-1,-1,-1,-1,-1],"loss_changes":[8.4328314E2,1.6688235E2,6.979379E1,3.4324524E1,4.3815697E1,4.554045E1,5.8079224E0,4.022946E1,1.4904205E1,7.8736153E0,2.1439774E1,1.4721542E1,1.6534124E1,3.134369E0,5.930027E0,0E0,0E0,0E0,0E0,0E0,0E0,0E0,0E0,0E0,0E0,0E0,0E0,0E0,0E0,0E0,0E0],"parents":[2147483647,0,0,1,1,2,2,3,3,4,4,5,5,6,6,7,7,8,8,9,9,10,10,11,11,12,12,13,13,14,14],"right_children":[2,4,6,8,10,12,14,16,18,20,22,24,26,28,30,-1,-1,-1,-1,-1,-1,-1,-1,-1,-1,-1,-1,-1,-1,-1,-1],"split_conditions":[1.8725297E-1,1.25E-1,3.3448616E-1,5.2265775E-1,4.6842802E-1,4.914568E-1,7.5891054E-1,7.566638E-2,4.777166E-1,1.16841696E-1,5.899361E-1,2.3764822E-1,2.16681E-1,2.9508196E-2,4.0859684E-1,6.299409E-2,2.7174354E-2,3.7973862E-2,6.4002916E-2,6.2378164E-2,9.600409E-5,1.7040905E-2,4.4503488E-2,-1.3938603E-2,-2.4427367E-2,5.8685448E-2,-4.242516E-3,-3.0286381E-2,-3.909093E-2,-1.3842215E-2,-3.9019246E-2],"split_indices":[24,24,24,9,11,10,5,23,11,2,9,24,23,14,24,0,0,0,0,0,0,0,0,0,0,0,0,0,0,0,0],"split_type":[0,0,0,0,0,0,0,0,0,0,0,0,0,0,0,0,0,0,0,0,0,0,0,0,0,0,0,0,0,0,0],"sum_hessian":[1.6811521E4,6.6044805E3,1.0207041E4,3.0032002E3,3.6012803E3,7.6992007E3,2.50784E3,1.8726401E3,1.13056E3,1.8934402E3,1.7078401E3,5.5513604E3,2.14784E3,2.1081602E3,3.9968002E2,3.9872003E2,1.47392E3,3.0816003E2,8.224001E2,1.952E1,1.8739202E3,1.3475201E3,3.6032004E2,2.2675203E3,3.2838403E3,4.1600002E1,2.1062402E3,5.8144006E2,1.5267201E3,2.4896002E2,1.5072002E2],"tree_param":{"num_deleted":"0","num_feature":"27","num_nodes":"31","size_leaf_vector":"1"}},{"base_weights":[3.081037E-3,-7.601001E-2,1.6332561E-2,1.1575496E-1,-9.285134E-2,-1.3635446E-3,5.816398E-2,-3.1604537E-1,1.7719747E-1,-9.954029E-2,3.2058492E-1,-1.5431025E-2,3.8437672E-2,2.0927953E-2,9.920439E-2,1.3071895E-2,-4.3967277E-2,-5.728314E-3,3.4864973E-2,4.2884987E-2,-1.0450354E-2,1.5384614E-1,2.179034E-2,1.8238721E-2,-2.045483E-3,2.1774411E-2,2.7800477E-3,-9.119435E-3,6.2877694E-3,1.5468058E-2,5.5557503E-3],"categories":[],"categories_nodes":[],"categories_segments":[],"categories_sizes":[],"default_left":[0,0,0,0,0,0,0,0,0,0,0,0,0,0,0,0,0,0,0,0,0,0,0,0,0,0,0,0,0,0,0],"id":3,"left_children":[1,3,5,7,9,11,13,15,17,19,21,23,25,27,29,-1,-1,-1,-1,-1,-1,-1,-1,-1,-1,-1,-1,-1,-1,-1,-1],"loss_changes":[1.7622059E1,7.8032017E0,1.0660227E1,5.2358947E0,6.1673546E0,5.667191E0,6.5400724E0,1.4206073E0,6.917067E0,5.7725163E0,4.1116624E0,7.4358087E0,5.035446E0,1.0568857E1,4.9217873E0,0E0,0E0,0E0,0E0,0E0,0E0,0E0,0E0,0E0,0E0,0E0,0E0,0E0,0E0,0E0,0E0],"parents":[2147483647,0,0,1,1,2,2,3,3,4,4,5,5,6,6,7,7,8,8,9,9,10,10,11,11,12,12,13,13,14,14],"right_children":[2,4,6,8,10,12,14,16,18,20,22,24,26,28,30,-1,-1,-1,-1,-1,-1,-1,-1,-1,-1,-1,-1,-1,-1,-1,-1],"split_conditions":[1.6122098E-1,2.0278576E-1,2.875494E-1,3.9711934E-1,2.1795903E-1,1.9060053E-1,5.066722E-1,3.1332082E-1,1.00296445E-1,4.7207952E-1,6.66996E-2,3.2655796E-1,1.7497851E-1,1.4712684E-1,4.858032E-1,1.3071895E-2,-4.3967277E-2,-5.728314E-3,3.4864973E-2,4.2884987E-2,-1.0450354E-2,1.5384614E-1,2.179034E-2,1.8238721E-2,-2.045483E-3,2.1774411E-2,2.7800477E-3,-9.119435E-3,6.2877694E-3,1.5468058E-2,5.5557503E-3],"split_indices":[23,6,24,12,21,26,9,11,24,19,24,19,23,22,2,0,0,0,0,0,0,0,0,0,0,0,0,0,0,0,0],"split_type":[0,0,0,0,0,0,0,0,0,0,0,0,0,0,0,0,0,0,0,0,0,0,0,0,0,0,0,0,0,0,0],"sum_hessian":[1.6811521E4,2.41184E3,1.4399681E4,1.9424002E2,2.2176E3,1.0119681E4,4.2800005E3,2.3680002E1,1.7056001E2,2.18304E3,3.456E1,7.4774404E3,2.6422402E3,2.2448E3,2.0352002E3,5.1200004E0,1.8560001E1,7.232001E1,9.8240005E1,1.952E1,2.1635203E3,1.6000001E0,3.2960003E1,1.8432E2,7.2931206E3,1.4688E2,2.49536E3,6.1088007E2,1.6339202E3,8.9504004E2,1.14016E3],"tree_param":{"num_deleted":"0","num_feature":"27","num_nodes":"31","size_leaf_vector":"1"}},{"base_weights":[7.630028E-2,-8.247898E-2,1.563926E-1,-2.4539012E-1,-5.3444427E-2,1.05551E-1,2.545939E-1,2.3689665E-2,-2.9564053E-1,-3.3912354E-3,-1.5287657E-1,1.3059376E-1,-2.948829E-2,2.69923E-1,-1.526058E-1,1.7001228E-2,-3.485952E-2,-3.0767923E-2,4.67128E-2,1.5646508E-2,-2.8729362E-3,1.11111104E-1,-1.599147E-2,6.8618306E-3,1.6222997E-2,1.516854E-1,-3.4247765E-3,2.6408315E-2,7.299911E-2,1.516854E-1,-1.9507186E-2],"categories":[],"categories_nodes":[],"categories_segments":[],"categories_sizes":[],"default_left":[0,0,0,0,0,0,0,0,0,0,0,0,0,0,0,0,0,0,0,0,0,0,0,0,0,0,0,0,0,0,0],"id":4,"left_children":[1,3,5,7,9,11,13,15,17,19,21,23,25,27,29,-1,-1,-1,-1,-1,-1,-1,-1,-1,-1,-1,-1,-1,-1,-1,-1],"loss_changes":[2.1381772E2,2.6653973E1,5.5770264E1,1.1534245E1,2.3820297E1,2.4911049E1,2.3832947E1,7.4175725E0,6.7409744E0,1.29039135E1,1.4434601E1,1.21708145E1,8.537771E0,9.677338E0,1.014468E1,0E0,0E0,0E0,0E0,0E0,0E0,0E0,0E0,0E0,0E0,0E0,0E0,0E0,0E0,0E0,0E0],"parents":[2147483647,0,0,1,1,2,2,3,3,4,4,5,5,6,6,7,7,8,8,9,9,10,10,11,11,12,12,13,13,14,14],"right_children":[2,4,6,8,10,12,14,16,18,20,22,24,26,28,30,-1,-1,-1,-1,-1,-1,-1,-1,-1,-1,-1,-1,-1,-1,-1,-1],"split_conditions":[1.7094861E-1,7.806324E-2,4.638865E-1,3.9266336E-1,4.7574702E-1,5.1915133E-1,7.972787E-1,1.3701162E-1,1.8582836E-1,4.9936715E-1,3.8539574E-1,3.4323117E-1,2.0837986E-1,4.9282256E-1,4.3675553E-2,1.7001228E-2,-3.485952E-2,-3.0767923E-2,4.67128E-2,1.5646508E-2,-2.8729362E-3,1.11111104E-1,-1.599147E-2,6.8618306E-3,1.6222997E-2,1.516854E-1,-3.4247765E-3,2.6408315E-2,7.299911E-2,1.516854E-1,-1.9507186E-2],"split_indices":[24,24,23,10,10,10,19,21,22,19,19,6,19,22,22,0,0,0,0,0,0,0,0,0,0,0,0,0,0,0,0],"split_type":[0,0,0,0,0,0,0,0,0,0,0,0,0,0,0,0,0,0,0,0,0,0,0,0,0,0,0,0,0,0,0],"sum_hessian":[1.6811521E4,5.6368003E3,1.1174721E4,8.515201E2,4.7852803E3,7.3641606E3,3.8105603E3,1.3408002E2,7.1744006E2,3.1836802E3,1.6016001E3,6.2121606E3,1.1520001E3,3.6726404E3,1.3792001E2,9.664001E1,3.7440002E1,7.0688007E2,1.056E1,4.3488004E2,2.7488003E3,8.000001E0,1.5936001E3,2.1004802E3,4.11168E3,2.5600002E0,1.1494401E3,3.6281602E3,4.4480003E1,2.5600002E0,1.3536002E2],"tree_param":{"num_deleted":"0","num_feature":"27","num_nodes":"31","size_leaf_vector":"1"}},{"base_weights":[2.7733652E-2,-8.261751E-2,1.1089246E-1,-1.5990224E-1,-2.6707197E-2,1.5343817E-1,2.7598813E-2,-2.5306803E-1,-1.3235329E-1,-2.8425645E-2,1.2867198E0,1.8153667E-1,9.414349E-2,-1.1212378E-2,1.3633272E-1,-3.6780972E-2,-1.908833E-2,-9.707618E-3,-2.134657E-2,-3.3804213E-4,-1.1277634E-2,1.5135303E-1,1.6057586E-2,1.7413558E-2,4.672418E-2,6.0404636E-2,8.111102E-3,-1.8173365E-3,3.918227E-2,1.1725996E-2,8.613642E-2],"categories":[],"categories_nodes":[],"categories_segments":[],"categories_sizes":[],"default_left":[0,0,0,0,0,0,0,0,0,0,0,0,0,0,0,0,0,0,0,0,0,0,0,0,0,0,0,0,0,0,0],"id":5,"left_children":[1,3,5,7,9,11,13,15,17,19,21,23,25,27,29,-1,-1,-1,-1,-1,-1,-1,-1,-1,-1,-1,-1,-1,-1,-1,-1],"loss_changes":[1.5461993E2,3.128386E1,3.4045593E1,7.767151E0,9.522203E0,1.0578552E1,1.3715765E1,4.870983E0,6.6971817E0,8.868536E0,1.1651144E0,9.040237E0,1.3552568E1,6.7286954E0,1.1720993E1,0E0,0E0,0E0,0E0,0E0,0E0,0E0,0E0,0E0,0E0,0E0,0E0,0E0,0E0,0E0,0E0],"parents":[2147483647,0,0,1,1,2,2,3,3,4,4,5,5,6,6,7,7,8,8,9,9,10,10,11,11,12,12,13,13,14,14],"right_children":[2,4,6,8,10,12,14,16,18,20,22,24,26,28,30,-1,-1,-1,-1,-1,-1,-1,-1,-1,-1,-1,-1,-1,-1,-1,-1],"split_conditions":[1.986166E-1,1.2648222E-1,4.7744757E-1,8.684437E-2,4.140811E-1,1.3800421E-1,3.4140316E-1,4.1323185E-1,1.8013757E-1,5.1265645E-1,2.2771074E-1,9.3158466E-1,1.8529893E-1,8.80035E-1,7.9359317E-1,-3.6780972E-2,-1.908833E-2,-9.707618E-3,-2.134657E-2,-3.3804213E-4,-1.1277634E-2,1.5135303E-1,1.6057586E-2,1.7413558E-2,4.672418E-2,6.0404636E-2,8.111102E-3,-1.8173365E-3,3.918227E-2,1.1725996E-2,8.613642E-2],"split_indices":[24,24,10,23,21,21,24,10,23,11,10,1,19,19,19,0,0,0,0,0,0,0,0,0,0,0,0,0,0,0,0],"split_type":[0,0,0,0,0,0,0,0,0,0,0,0,0,0,0,0,0,0,0,0,0,0,0,0,0,0,0,0,0,0,0],"sum_hessian":[1.6847244E4,7.2399233E3,9.60732E3,3.0382686E3,4.201655E3,6.3585723E3,3.2487478E3,6.915111E2,2.3467573E3,4.1971416E3,4.5130553E0,4.3127764E3,2.045796E3,2.394838E3,8.539101E2,2.4131964E2,4.501915E2,1.6369972E3,7.0976025E2,3.2370452E3,9.600964E2,3.470157E0,1.0428987E0,4.2054453E3,1.0733114E2,4.9854664E1,1.9959413E3,2.3551165E3,3.9721283E1,8.331548E2,2.0755335E1],"tree_param":{"num_deleted":"0","num_feature":"27","num_nodes":"31","size_leaf_vector":"1"}},{"base_weights":[-8.327587E-2,-1.0978967E-1,-5.9532046E-2,-1.11216284E-1,6.932632E-1,-5.046056E-2,-1.366885E-1,-1.071485E-1,-3.193065E-1,-5.026577E-4,1.0507363E0,-5.427731E-2,1.738069E-1,4.5661446E-1,-1.4229767E-1,-6.537204E-3,-1.1933176E-2,6.914409E-5,-3.7080582E-2,-2.6600813E-2,5.267039E-2,1.8430686E-2,1.2991358E-1,-6.4289495E-3,-7.7230233E-4,-9.927347E-3,3.608801E-2,8.757318E-2,-2.3260212E-2,-7.6802345E-3,-1.8012663E-2],"categories":[],"categories_nodes":[],"categories_segments":[],"categories_sizes":[],"default_left":[0,0,0,0,0,0,0,0,0,0,0,0,0,0,0,0,0,0,0,0,0,0,0,0,0,0,0,0,0,0,0],"id":6,"left_children":[1,3,5,7,9,11,13,15,17,19,21,23,25,27,29,-1,-1,-1,-1,-1,-1,-1,-1,-1,-1,-1,-1,-1,-1,-1,-1],"loss_changes":[1.050663E1,9.114571E0,6.16103E0,6.632019E0,3.5041313E0,6.7603035E0,3.148304E0,3.924469E0,2.4803257E0,9.5245856E-1,1.76723E0,3.6144543E0,6.7901654E0,2.778851E0,2.262066E0,0E0,0E0,0E0,0E0,0E0,0E0,0E0,0E0,0E0,0E0,0E0,0E0,0E0,0E0,0E0,0E0],"parents":[2147483647,0,0,1,1,2,2,3,3,4,4,5,5,6,6,7,7,8,8,9,9,10,10,11,11,12,12,13,13,14,14],"right_children":[2,4,6,8,10,12,14,16,18,20,22,24,26,28,30,-1,-1,-1,-1,-1,-1,-1,-1,-1,-1,-1,-1,-1,-1,-1,-1],"split_conditions":[5.801876E-1,9.753557E-1,5.128977E-1,5.2272725E-1,4.218107E-1,6.665277E-1,5.813789E-1,1.6393442E-2,3.3942E-1,5.296935E-1,9.66443E-2,7.8061944E-1,1.5916924E-1,5.1265645E-1,9.103139E-1,-6.537204E-3,-1.1933176E-2,6.914409E-5,-3.7080582E-2,-2.6600813E-2,5.267039E-2,1.8430686E-2,1.2991358E-1,-6.4289495E-3,-7.7230233E-4,-9.927347E-3,3.608801E-2,8.757318E-2,-2.3260212E-2,-7.6802345E-3,-1.8012663E-2],"split_indices":[19,3,23,24,12,9,19,14,19,6,4,19,22,11,13,0,0,0,0,0,0,0,0,0,0,0,0,0,0,0,0],"split_type":[0,0,0,0,0,0,0,0,0,0,0,0,0,0,0,0,0,0,0,0,0,0,0,0,0,0,0,0,0,0,0],"sum_hessian":[1.6698783E4,7.8874995E3,8.811284E3,7.874372E3,1.3127278E1,7.8857856E3,9.2549866E2,7.72488E3,1.4949246E2,4.803493E0,8.323785E0,7.754571E3,1.3121504E2,7.9148064E0,9.1758386E2,1.7455938E3,5.979286E3,2.0860374E1,1.2863208E2,3.5241442E0,1.2793489E0,2.2427936E0,6.0809917E0,6.381709E3,1.3728617E3,5.353564E1,7.7679405E1,4.753532E0,3.1612744E0,3.37054E2,5.805299E2],"tree_param":{"num_deleted":"0","num_feature":"27","num_nodes":"31","size_leaf_vector":"1"}},{"base_weights":[-1.9601787E-2,2.1665567E-1,-2.0638508E-1,3.920064E-1,9.053775E-2,-1.6167022E-1,-3.3311176E-1,4.9615362E-1,3.0356285E-1,-9.85812E-3,2.0293115E-1,-2.0646511E-1,-4.549165E-2,-3.541623E-1,-2.2227612E-1,6.173196E-2,4.2298745E-2,1.7971845E-2,4.2917814E-2,4.2718584E-3,-7.8948755E-3,1.4387719E-2,3.8929686E-2,-2.2827674E-2,-1.2865889E-2,2.0520804E-2,-6.6573643E-3,-2.9072776E-2,-3.7825104E-2,-1.2875627E-2,-3.7725676E-2],"categories":[],"categories_nodes":[],"categories_segments":[],"categories_sizes":[],"default_left":[0,0,0,0,0,0,0,0,0,0,0,0,0,0,0,0,0,0,0,0,0,0,0,0,0,0,0,0,0,0,0],"id":7,"left_children":[1,3,5,7,9,11,13,15,17,19,21,23,25,27,29,-1,-1,-1,-1,-1,-1,-1,-1,-1,-1,-1,-1,-1,-1,-1,-1],"loss_changes":[7.408034E2,1.638807E2,5.307132E1,2.8408478E1,4.866407E1,3.606578E1,5.6240845E0,1.2347626E1,2.6046173E1,8.281257E0,2.2337646E1,8.460541E0,1.0215592E1,3.0262756E0,5.644842E0,0E0,0E0,0E0,0E0,0E0,0E0,0E0,0E0,0E0,0E0,0E0,0E0,0E0,0E0,0E0,0E0],"parents":[2147483647,0,0,1,1,2,2,3,3,4,4,5,5,6,6,7,7,8,8,9,9,10,10,11,11,12,12,13,13,14,14],"right_children":[2,4,6,8,10,12,14,16,18,20,22,24,26,28,30,-1,-1,-1,-1,-1,-1,-1,-1,-1,-1,-1,-1,-1,-1,-1,-1],"split_conditions":[1.986166E-1,1.25E-1,3.3448616E-1,9.1403164E-2,4.6842802E-1,4.9356222E-1,7.5891054E-1,7.566638E-2,5.066722E-1,2.300086E-1,5.859049E-1,6.71694E-1,2.9750645E-1,2.9508196E-2,4.0859684E-1,6.173196E-2,4.2298745E-2,1.7971845E-2,4.2917814E-2,4.2718584E-3,-7.8948755E-3,1.4387719E-2,3.8929686E-2,-2.2827674E-2,-1.2865889E-2,2.0520804E-2,-6.6573643E-3,-2.9072776E-2,-3.7825104E-2,-1.2875627E-2,-3.7725676E-2],"split_indices":[24,24,24,24,11,10,5,23,9,23,9,0,23,14,24,0,0,0,0,0,0,0,0,0,0,0,0,0,0,0,0],"split_type":[0,0,0,0,0,0,0,0,0,0,0,0,0,0,0,0,0,0,0,0,0,0,0,0,0,0,0,0,0,0,0],"sum_hessian":[1.6785232E4,7.4110376E3,9.374194E3,3.099489E3,4.3115483E3,6.930928E3,2.4432659E3,1.421263E3,1.6782261E3,2.2778035E3,2.033745E3,5.001663E3,1.9292648E3,2.0514475E3,3.918184E2,5.323061E2,8.889568E2,8.4629376E2,8.319323E2,1.2937019E3,9.841016E2,1.545722E3,4.8802298E2,3.9050242E3,1.0966392E3,1.489748E2,1.78029E3,5.682101E2,1.4832374E3,2.4550455E2,1.4631384E2],"tree_param":{"num_deleted":"0","num_feature":"27","num_nodes":"31","size_leaf_vector":"1"}},{"base_weights":[2.9602698E-3,-7.181492E-2,1.5405606E-2,1.1066461E-1,-8.803106E-2,-1.2414992E-3,5.4594442E-2,7.647861E-2,8.569537E-1,-9.44785E-2,3.0110982E-1,7.2711585E-3,-6.476772E-2,1.9355068E-2,9.325848E-2,-3.0571714E-2,1.3184242E-2,2.7727146E-2,1.691858E-1,3.9969884E-2,-9.926396E-3,1.4049877E-1,2.0406364E-2,-6.1750587E-4,4.6214936E-3,-3.895195E-3,-2.1695722E-2,-8.723359E-3,5.8844257E-3,1.4516464E-2,5.2181385E-3],"categories":[],"categories_nodes":[],"categories_segments":[],"categories_sizes":[],"default_left":[0,0,0,0,0,0,0,0,0,0,0,0,0,0,0,0,0,0,0,0,0,0,0,0,0,0,0,0,0,0,0],"id":8,"left_children":[1,3,5,7,9,11,13,15,17,19,21,23,25,27,29,-1,-1,-1,-1,-1,-1,-1,-1,-1,-1,-1,-1,-1,-1,-1,-1],"loss_changes":[1.5648917E1,7.109948E0,9.404966E0,4.9417806E0,5.558628E0,5.4726677E0,5.854391E0,4.0346293E0,3.6441646E0,5.169079E0,3.5873494E0,4.673455E0,4.6899285E0,9.475258E0,4.3616753E0,0E0,0E0,0E0,0E0,0E0,0E0,0E0,0E0,0E0,0E0,0E0,0E0,0E0,0E0,0E0,0E0],"parents":[2147483647,0,0,1,1,2,2,3,3,4,4,5,5,6,6,7,7,8,8,9,9,10,10,11,11,12,12,13,13,14,14],"right_children":[2,4,6,8,10,12,14,16,18,20,22,24,26,28,30,-1,-1,-1,-1,-1,-1,-1,-1,-1,-1,-1,-1,-1,-1,-1,-1],"split_conditions":[1.6122098E-1,2.0278576E-1,2.875494E-1,4.8559672E-1,2.1795903E-1,7.8061944E-1,5.066722E-1,3.9711934E-1,1.600979E-1,4.7207952E-1,6.66996E-2,1.9321148E-1,1.927222E-1,1.4712684E-1,4.858032E-1,-3.0571714E-2,1.3184242E-2,2.7727146E-2,1.691858E-1,3.9969884E-2,-9.926396E-3,1.4049877E-1,2.0406364E-2,-6.1750587E-4,4.6214936E-3,-3.895195E-3,-2.1695722E-2,-8.723359E-3,5.8844257E-3,1.4516464E-2,5.2181385E-3],"split_indices":[23,6,24,12,21,19,9,12,21,19,24,26,22,22,2,0,0,0,0,0,0,0,0,0,0,0,0,0,0,0,0],"split_type":[0,0,0,0,0,0,0,0,0,0,0,0,0,0,0,0,0,0,0,0,0,0,0,0,0,0,0,0,0,0,0],"sum_hessian":[1.681371E4,2.3984368E3,1.4415274E4,1.9526816E2,2.2031687E3,1.0118139E4,4.297136E3,1.877693E2,7.498856E0,2.1680054E3,3.516317E1,8.923283E3,1.1948549E3,2.2489172E3,2.048219E3,2.3186033E1,1.6458328E2,5.2121253E0,2.2867305E0,2.0001463E1,2.148004E3,1.7524086E0,3.3410763E1,6.633693E3,2.2895906E3,1.0226411E3,1.7221375E2,6.0762244E2,1.6412947E3,9.0371967E2,1.1444994E3],"tree_param":{"num_deleted":"0","num_feature":"27","num_nodes":"31","size_leaf_vector":"1"}},{"base_weights":[7.1134105E-2,-7.795383E-2,1.4503007E-1,-1.6354504E-1,-2.6450427E-2,9.867503E-2,2.3625398E-1,-4.8354E-2,-2.2708112E-1,2.8324757E-2,-1.4347221E-1,1.2567203E-1,-1.0135088E-2,2.5060335E-1,-1.5738979E-1,1.766101E-2,-7.7712163E-3,3.9406817E-2,-2.3538899E-2,3.9646477E-3,-2.378222E-2,9.1214545E-2,-1.5234596E-2,6.4894743E-3,1.5882395E-2,1.4553799E-1,-1.4183329E-3,1.1982554E-2,2.705496E-2,1.2812297E-1,-1.9375337E-2],"categories":[],"categories_nodes":[],"categories_segments":[],"categories_sizes":[],"default_left":[0,0,0,0,0,0,0,0,0,0,0,0,0,0,0,0,0,0,0,0,0,0,0,0,0,0,0,0,0,0,0],"id":9,"left_children":[1,3,5,7,9,11,13,15,17,19,21,23,25,27,29,-1,-1,-1,-1,-1,-1,-1,-1,-1,-1,-1,-1,-1,-1,-1,-1],"loss_changes":[1.8627963E2,2.4698044E1,4.7780655E1,1.5394962E1,2.2436728E1,2.2025429E1,2.1550308E1,4.964326E0,7.092415E0,7.1951013E0,1.0592819E1,1.2093346E1,8.868408E0,9.55304E0,7.287087E0,0E0,0E0,0E0,0E0,0E0,0E0,0E0,0E0,0E0,0E0,0E0,0E0,0E0,0E0,0E0,0E0],"parents":[2147483647,0,0,1,1,2,2,3,3,4,4,5,5,6,6,7,7,8,8,9,9,10,10,11,11,12,12,13,13,14,14],"right_children":[2,4,6,8,10,12,14,16,18,20,22,24,26,28,30,-1,-1,-1,-1,-1,-1,-1,-1,-1,-1,-1,-1,-1,-1,-1,-1],"split_conditions":[1.7094861E-1,1.5477215E-1,4.6646604E-1,4.1226012E-1,4.8578832E-1,5.05628E-1,7.972787E-1,5.299121E-1,5.039833E-1,7.639285E-1,3.8991883E-1,3.4323117E-1,2.0837986E-1,2.1322453E-1,4.3675553E-2,1.766101E-2,-7.7712163E-3,3.9406817E-2,-2.3538899E-2,3.9646477E-3,-2.378222E-2,9.1214545E-2,-1.5234596E-2,6.4894743E-3,1.5882395E-2,1.4553799E-1,-1.4183329E-3,1.1982554E-2,2.705496E-2,1.2812297E-1,-1.9375337E-2],"split_indices":[24,23,23,10,10,10,19,19,19,7,19,6,19,5,22,0,0,0,0,0,0,0,0,0,0,0,0,0,0,0,0],"split_type":[0,0,0,0,0,0,0,0,0,0,0,0,0,0,0,0,0,0,0,0,0,0,0,0,0,0,0,0,0,0,0],"sum_hessian":[1.6906361E4,5.6026816E3,1.1303681E4,2.1039858E3,3.4986956E3,7.4964653E3,3.8072146E3,7.4857635E2,1.3554095E3,2.3836992E3,1.1149965E3,6.0061245E3,1.4903411E3,3.673663E3,1.3355159E2,8.58343E1,6.6274207E2,1.7276468E1,1.338133E3,2.287252E3,9.644719E1,8.44622E0,1.1065502E3,2.1208804E3,3.8852441E3,3.1178849E0,1.4872231E3,4.8708524E2,3.186578E3,2.4485345E0,1.3110304E2],"tree_param":{"num_deleted":"0","num_feature":"27","num_nodes":"31","size_leaf_vector":"1"}},{"base_weights":[2.5986278E-2,-7.782891E-2,1.0308147E-1,-1.5781966E-1,-2.8625207E-2,1.4014223E-1,2.0818148E-2,1.3710104E-1,-1.6719957E-1,-4.078913E-3,-1.1124289E-1,1.6412759E-1,8.6672954E-2,-1.5717188E-2,1.1983659E-1,-5.0815186E-3,6.3042425E-2,8.974235E-2,-1.6913874E-2,-6.068899E-4,1.1711273E-1,2.895618E-2,-1.3357463E-2,1.0656508E-1,1.6252954E-2,1.396703E-2,-3.337937E-3,-2.2857802E-3,3.805349E-2,-2.0716075E-2,1.6374841E-2],"categories":[],"categories_nodes":[],"categories_segments":[],"categories_sizes":[],"default_left":[0,0,0,0,0,0,0,0,0,0,0,0,0,0,0,0,0,0,0,0,0,0,0,0,0,0,0,0,0,0,0],"id":10,"left_children":[1,3,5,7,9,11,13,15,17,19,21,23,25,27,29,-1,-1,-1,-1,-1,-1,-1,-1,-1,-1,-1,-1,-1,-1,-1,-1],"loss_changes":[1.3511157E2,2.8310333E1,2.9530624E1,7.6017075E0,9.035015E0,8.550491E0,1.0890685E1,7.911628E0,5.634323E0,8.042577E0,9.17283E0,6.4670258E0,1.3176013E1,6.2322316E0,1.1684301E1,0E0,0E0,0E0,0E0,0E0,0E0,0E0,0E0,0E0,0E0,0E0,0E0,0E0,0E0,0E0,0E0],"parents":[2147483647,0,0,1,1,2,2,3,3,4,4,5,5,6,6,7,7,8,8,9,9,10,10,11,11,12,12,13,13,14,14],"right_children":[2,4,6,8,10,12,14,16,18,20,22,24,26,28,30,-1,-1,-1,-1,-1,-1,-1,-1,-1,-1,-1,-1,-1,-1,-1,-1],"split_conditions":[1.986166E-1,1.215415E-1,4.8481658E-1,3.8476917E-1,5.1265645E-1,1.3800421E-1,3.4140316E-1,9.585928E-1,1.2547617E-1,4.140811E-1,1.5978219E-1,1.5348238E-1,6.15875E-1,8.80035E-1,3.1315613E-1,-5.0815186E-3,6.3042425E-2,8.974235E-2,-1.6913874E-2,-6.068899E-4,1.1711273E-1,2.895618E-2,-1.3357463E-2,1.0656508E-1,1.6252954E-2,1.396703E-2,-3.337937E-3,-2.2857802E-3,3.805349E-2,-2.0716075E-2,1.6374841E-2],"split_indices":[24,24,10,11,11,21,24,1,0,21,2,23,3,19,19,0,0,0,0,0,0,0,0,0,0,0,0,0,0,0,0],"split_type":[0,0,0,0,0,0,0,0,0,0,0,0,0,0,0,0,0,0,0,0,0,0,0,0,0,0,0,0,0,0,0],"sum_hessian":[1.6879238E4,7.193105E3,9.686132E3,2.738653E3,4.454452E3,6.6772407E3,3.0088918E3,8.399785E1,2.654655E3,3.434953E3,1.0194992E3,4.6080723E3,2.0691682E3,2.1985303E3,8.103615E2,6.147706E1,2.252079E1,3.986931E0,2.6506682E3,3.4301394E3,4.8134456E0,5.317427E1,9.6632495E2,6.9757113E0,4.6010967E3,1.4353616E3,6.3380664E2,2.1605388E3,3.7991413E1,9.549833E1,7.148632E2],"tree_param":{"num_deleted":"0","num_feature":"27","num_nodes":"31","size_leaf_vector":"1"}},{"base_weights":[-7.8507714E-2,-1.0387892E-1,-5.5865757E-2,-1.0526394E-1,6.454708E-1,-4.7296025E-2,-1.292477E-1,-1.0134393E-1,-3.0851525E-1,3.4382888E-3,9.579961E-1,-5.8721554E-2,2.222588E-2,4.293684E-1,-1.3470383E-1,-1.1143264E-2,-5.1634274E-3,2.0223996E-4,-3.5966735E-2,5.302858E-2,-2.6334492E-2,1.7766258E-2,1.1688842E-1,-4.4658952E-3,-1.0266698E-2,1.6047431E-2,-6.2516716E-4,8.059215E-2,-2.2492299E-2,-7.1534785E-3,-1.7142773E-2],"categories":[],"categories_nodes":[],"categories_segments":[],"categories_sizes":[],"default_left":[0,0,0,0,0,0,0,0,0,0,0,0,0,0,0,0,0,0,0,0,0,0,0,0,0,0,0,0,0,0,0],"id":11,"left_children":[1,3,5,7,9,11,13,15,17,19,21,23,25,27,29,-1,-1,-1,-1,-1,-1,-1,-1,-1,-1,-1,-1,-1,-1,-1,-1],"loss_changes":[9.526085E0,8.187897E0,5.5091667E0,6.191437E0,2.9210124E0,6.240488E0,2.8513174E0,3.8377075E0,2.340395E0,9.5137554E-1,1.4048643E0,4.164543E0,4.368673E0,2.4243178E0,2.0951176E0,0E0,0E0,0E0,0E0,0E0,0E0,0E0,0E0,0E0,0E0,0E0,0E0,0E0,0E0,0E0,0E0],"parents":[2147483647,0,0,1,1,2,2,3,3,4,4,5,5,6,6,7,7,8,8,9,9,10,10,11,11,12,12,13,13,14,14],"right_children":[2,4,6,8,10,12,14,16,18,20,22,24,26,28,30,-1,-1,-1,-1,-1,-1,-1,-1,-1,-1,-1,-1,-1,-1,-1,-1],"split_conditions":[5.801876E-1,9.753557E-1,5.128977E-1,5.2272725E-1,4.218107E-1,5.2384806E-1,5.813789E-1,9.10774E-1,3.3942E-1,1.3114754E-2,9.66443E-2,4.784193E-1,4.1775458E-2,5.1265645E-1,9.103139E-1,-1.1143264E-2,-5.1634274E-3,2.0223996E-4,-3.5966735E-2,5.302858E-2,-2.6334492E-2,1.7766258E-2,1.1688842E-1,-4.4658952E-3,-1.0266698E-2,1.6047431E-2,-6.2516716E-4,8.059215E-2,-2.2492299E-2,-7.1534785E-3,-1.7142773E-2],"split_indices":[19,3,23,24,12,10,19,2,19,14,4,10,26,11,13,0,0,0,0,0,0,0,0,0,0,0,0,0,0,0,0],"split_type":[0,0,0,0,0,0,0,0,0,0,0,0,0,0,0,0,0,0,0,0,0,0,0,0,0,0,0,0,0,0,0],"sum_hessian":[1.6591936E4,7.8227017E3,8.769233E3,7.8091274E3,1.3574063E1,7.853702E3,9.155309E2,7.6628364E3,1.4629105E2,4.7751975E0,8.798866E0,6.745305E3,1.108397E3,8.104186E0,9.074267E2,6.36899E3,1.2938463E3,2.08251E1,1.2546595E2,1.2731864E0,3.5020108E0,2.2640007E0,6.5348654E0,5.1116016E3,1.6337036E3,1.8852751E2,9.198695E2,4.996747E0,3.1074388E0,3.346833E2,5.727434E2],"tree_param":{"num_deleted":"0","num_feature":"27","num_nodes":"31","size_leaf_vector":"1"}},{"base_weights":[-1.8619271E-2,1.9977415E-1,-1.9678435E-1,3.3954483E-1,6.847729E-2,-1.535755E-1,-3.2087928E-1,2.6068324E-1,4.654399E-1,3.0648895E-2,3.0066657E-1,-1.9668512E-1,-4.3210097E-2,-3.41918E-1,-2.1096645E-1,5.084417E-2,2.0027013E-2,2.999009E-2,5.2768942E-2,-2.613519E-3,1.1075625E-2,5.558243E-2,2.5651136E-2,-2.1807618E-2,-1.2083362E-2,1.9199224E-2,-6.332724E-3,-2.7876366E-2,-3.660344E-2,-1.196389E-2,-3.647495E-2],"categories":[],"categories_nodes":[],"categories_segments":[],"categories_sizes":[],"default_left":[0,0,0,0,0,0,0,0,0,0,0,0,0,0,0,0,0,0,0,0,0,0,0,0,0,0,0,0,0,0,0],"id":12,"left_children":[1,3,5,7,9,11,13,15,17,19,21,23,25,27,29,-1,-1,-1,-1,-1,-1,-1,-1,-1,-1,-1,-1,-1,-1,-1,-1],"loss_changes":[6.520503E2,1.3814465E2,4.9435974E1,3.6082764E1,3.4100296E1,3.256961E1,5.4374237E0,3.349156E1,1.4301239E1,1.5198193E1,5.9857407E0,7.9625244E0,9.118679E0,2.9412994E0,5.369131E0,0E0,0E0,0E0,0E0,0E0,0E0,0E0,0E0,0E0,0E0,0E0,0E0,0E0,0E0,0E0,0E0],"parents":[2147483647,0,0,1,1,2,2,3,3,4,4,5,5,6,6,7,7,8,8,9,9,10,10,11,11,12,12,13,13,14,14],"right_children":[2,4,6,8,10,12,14,16,18,20,22,24,26,28,30,-1,-1,-1,-1,-1,-1,-1,-1,-1,-1,-1,-1,-1,-1,-1,-1],"split_conditions":[1.986166E-1,1.333992E-1,3.3448616E-1,5.2265775E-1,5.859049E-1,4.9356222E-1,7.5891054E-1,7.566638E-2,4.777166E-1,4.6842802E-1,1.4575098E-1,6.71694E-1,2.9750645E-1,2.9508196E-2,4.0859684E-1,5.084417E-2,2.0027013E-2,2.999009E-2,5.2768942E-2,-2.613519E-3,1.1075625E-2,5.558243E-2,2.5651136E-2,-2.1807618E-2,-1.2083362E-2,1.9199224E-2,-6.332724E-3,-2.7876366E-2,-3.660344E-2,-1.196389E-2,-3.647495E-2],"split_indices":[24,24,24,9,9,10,5,23,11,11,24,0,23,14,24,0,0,0,0,0,0,0,0,0,0,0,0,0,0,0,0],"split_type":[0,0,0,0,0,0,0,0,0,0,0,0,0,0,0,0,0,0,0,0,0,0,0,0,0,0,0,0,0,0,0],"sum_hessian":[1.6755865E4,7.5279907E3,9.227876E3,3.6455608E3,3.8824297E3,6.84629E3,2.3815854E3,2.2433687E3,1.4021923E3,3.3394902E3,5.4293933E2,4.922672E3,1.9236183E3,1.9971877E3,3.843978E2,4.3833E2,1.8050386E3,3.8477774E2,1.01741455E3,1.954627E3,1.3848633E3,7.838597E1,4.6455338E2,3.8383384E3,1.0843334E3,1.5089264E2,1.7727257E3,5.553734E2,1.4418143E3,2.4228769E2,1.421101E2],"tree_param":{"num_deleted":"0","num_feature":"27","num_nodes":"31","size_leaf_vector":"1"}},{"base_weights":[2.879091E-3,-2.1358445E-2,3.745848E-2,4.8619175E-1,-2.2866191E-2,-2.4381958E-2,5.27749E-2,8.1153977E-1,-3.3500868E-1,-6.7921296E-2,-8.471129E-3,-8.3020404E-2,6.8893686E-2,5.504571E-2,-4.1453826E-1,1.5330964E-1,5.0584655E-2,2.7114896E-2,-5.376777E-2,-1.8605978E-3,-1.2505943E-2,-2.2026775E-3,2.8860208E-3,2.0167701E-2,-1.0138113E-2,-1.2498467E-2,1.25562055E-2,5.2202446E-3,3.9477877E-2,-5.647971E-3,-5.8802564E-2],"categories":[],"categories_nodes":[],"categories_segments":[],"categories_sizes":[],"default_left":[0,0,0,0,0,0,0,0,0,0,0,0,0,0,0,0,0,0,0,0,0,0,0,0,0,0,0,0,0,0,0],"id":13,"left_children":[1,3,5,7,9,11,13,15,17,19,21,23,25,27,29,-1,-1,-1,-1,-1,-1,-1,-1,-1,-1,-1,-1,-1,-1,-1,-1],"loss_changes":[1.4094446E1,7.5771365E0,6.5651026E0,8.107689E0,6.3934155E0,7.5336556E0,5.917197E0,3.9223404E0,1.2551327E0,6.723671E0,3.7821481E0,4.440238E0,5.8585625E0,5.319723E0,1.6426172E0,0E0,0E0,0E0,0E0,0E0,0E0,0E0,0E0,0E0,0E0,0E0,0E0,0E0,0E0,0E0,0E0],"parents":[2147483647,0,0,1,1,2,2,3,3,4,4,5,5,6,6,7,7,8,8,9,9,10,10,11,11,12,12,13,13,14,14],"right_children":[2,4,6,8,10,12,14,16,18,20,22,24,26,28,30,-1,-1,-1,-1,-1,-1,-1,-1,-1,-1,-1,-1,-1,-1,-1,-1],"split_conditions":[3.7317282E-1,2.4116507E-1,1.1697718E-1,9.4618833E-1,1.6122098E-1,5.321101E-1,8.80035E-1,7.93722E-1,3.8539574E-1,5.20971E-1,1.9321148E-1,2.789751E-1,1.8809801E-1,8.7973845E-1,1.7748581E-1,1.5330964E-1,5.0584655E-2,2.7114896E-2,-5.376777E-2,-1.8605978E-3,-1.2505943E-2,-2.2026775E-3,2.8860208E-3,2.0167701E-2,-1.0138113E-2,-1.2498467E-2,1.25562055E-2,5.2202446E-3,3.9477877E-2,-5.647971E-3,-5.8802564E-2],"split_indices":[23,11,22,13,23,9,19,13,19,7,26,6,2,7,3,0,0,0,0,0,0,0,0,0,0,0,0,0,0,0,0],"split_type":[0,0,0,0,0,0,0,0,0,0,0,0,0,0,0,0,0,0,0,0,0,0,0,0,0,0,0,0,0,0,0],"sum_hessian":[1.6814803E4,9.88591E3,6.9288936E3,2.83283E1,9.857582E3,1.3753384E3,5.553555E3,2.0298203E1,8.030097E0,2.3859807E3,7.471601E3,8.445288E2,5.308096E2,5.527577E3,2.5977882E1,4.845578E0,1.5452625E1,1.927449E0,6.1026483E0,1.2813698E3,1.1046111E3,5.481562E3,1.9900387E3,5.056075E1,7.939681E2,1.1978522E2,4.1102432E2,5.482844E3,4.473287E1,8.911369E0,1.7066515E1],"tree_param":{"num_deleted":"0","num_feature":"27","num_nodes":"31","size_leaf_vector":"1"}},{"base_weights":[6.6352695E-2,-7.363474E-2,1.3461292E-1,-2.2696912E-1,-4.6931677E-2,9.1071464E-2,2.1711893E-1,3.0528447E-2,-2.7642664E-1,-2.2057984E-3,-1.3766524E-1,1.1292362E-1,-2.901939E-2,2.2762705E-1,-2.2420794E-1,1.6959276E-2,-3.3433482E-2,-2.8854487E-2,4.5720514E-2,1.432583E-2,-2.5662917E-3,9.2997134E-2,-1.4436059E-2,5.7941144E-3,1.4071718E-2,2.1953748E-3,-1.5693627E-2,3.0142052E-2,2.001792E-2,1.2187815E-1,-2.6113257E-2],"categories":[],"categories_nodes":[],"categories_segments":[],"categories_sizes":[],"default_left":[0,0,0,0,0,0,0,0,0,0,0,0,0,0,0,0,0,0,0,0,0,0,0,0,0,0,0,0,0,0,0],"id":14,"left_children":[1,3,5,7,9,11,13,15,17,19,21,23,25,27,29,-1,-1,-1,-1,-1,-1,-1,-1,-1,-1,-1,-1,-1,-1,-1,-1],"loss_changes":[1.6239844E2,2.2799974E1,4.102043E1,1.0528133E1,1.9259657E1,1.9631302E1,1.8348679E1,6.85546E0,6.2932777E0,1.0854345E1,1.1335588E1,9.662392E0,7.5165906E0,7.74646E0,5.2342668E0,0E0,0E0,0E0,0E0,0E0,0E0,0E0,0E0,0E0,0E0,0E0,0E0,0E0,0E0,0E0,0E0],"parents":[2147483647,0,0,1,1,2,2,3,3,4,4,5,5,6,6,7,7,8,8,9,9,10,10,11,11,12,12,13,13,14,14],"right_children":[2,4,6,8,10,12,14,16,18,20,22,24,26,28,30,-1,-1,-1,-1,-1,-1,-1,-1,-1,-1,-1,-1,-1,-1,-1,-1],"split_conditions":[1.7094861E-1,7.806324E-2,4.638865E-1,3.9266336E-1,4.7574702E-1,5.1915133E-1,8.075348E-1,1.3701162E-1,1.8582836E-1,4.9936715E-1,3.8539574E-1,3.4323117E-1,6.560678E-1,1.4970112E-1,4.3675553E-2,1.6959276E-2,-3.3433482E-2,-2.8854487E-2,4.5720514E-2,1.432583E-2,-2.5662917E-3,9.2997134E-2,-1.4436059E-2,5.7941144E-3,1.4071718E-2,2.1953748E-3,-1.5693627E-2,3.0142052E-2,2.001792E-2,1.2187815E-1,-2.6113257E-2],"split_indices":[24,24,23,10,10,10,19,21,22,19,19,6,3,22,22,0,0,0,0,0,0,0,0,0,0,0,0,0,0,0,0],"split_type":[0,0,0,0,0,0,0,0,0,0,0,0,0,0,0,0,0,0,0,0,0,0,0,0,0,0,0,0,0,0,0],"sum_hessian":[1.6993113E4,5.570043E3,1.142307E4,8.2503375E2,4.7450093E3,7.4784966E3,3.944574E3,1.3299355E2,6.9204016E2,3.1789922E3,1.5660168E3,6.327231E3,1.1512655E3,3.8533098E3,9.126416E1,9.668002E1,3.631352E1,6.8139154E2,1.0648637E1,4.4073914E2,2.7382532E3,8.900177E0,1.5571167E3,2.1255186E3,4.2017124E3,8.238149E2,3.2745062E2,1.0419772E3,2.8113328E3,1.4784896E0,8.9785675E1],"tree_param":{"num_deleted":"0","num_feature":"27","num_nodes":"31","size_leaf_vector":"1"}},{"base_weights":[2.43658E-2,-7.326903E-2,9.588228E-2,-1.4971378E-1,-2.6711999E-2,1.3230498E-1,2.3389999E-2,1.3184232E-1,-1.5883222E-1,5.2008855E-1,-3.0096212E-2,1.5688522E-1,7.997075E-2,2.0336641E-2,1.1673869E0,-4.653755E-3,5.824855E-2,-2.3699531E-2,-1.3333591E-2,9.1998324E-2,1.6112706E-3,-8.529547E-4,-1.0901026E-2,1.5001126E-2,4.188461E-2,1.2898489E-2,-3.202249E-3,-6.8608946E-3,5.5398317E-3,1.8078092E-2,1.4855887E-1],"categories":[],"categories_nodes":[],"categories_segments":[],"categories_sizes":[],"default_left":[0,0,0,0,0,0,0,0,0,0,0,0,0,0,0,0,0,0,0,0,0,0,0,0,0,0,0,0,0,0,0],"id":15,"left_children":[1,3,5,7,9,11,13,15,17,19,21,23,25,27,29,-1,-1,-1,-1,-1,-1,-1,-1,-1,-1,-1,-1,-1,-1,-1,-1],"loss_changes":[1.1807129E2,2.5441193E1,2.576725E1,6.967945E0,8.240252E0,8.343826E0,1.1381507E1,6.894482E0,5.19265E0,5.50596E0,7.5183916E0,7.8944473E0,1.1410926E1,1.0162487E1,2.4544926E0,0E0,0E0,0E0,0E0,0E0,0E0,0E0,0E0,0E0,0E0,0E0,0E0,0E0,0E0,0E0,0E0],"parents":[2147483647,0,0,1,1,2,2,3,3,4,4,5,5,6,6,7,7,8,8,9,9,10,10,11,11,12,12,13,13,14,14],"right_children":[2,4,6,8,10,12,14,16,18,20,22,24,26,28,30,-1,-1,-1,-1,-1,-1,-1,-1,-1,-1,-1,-1,-1,-1,-1,-1],"split_conditions":[1.986166E-1,1.215415E-1,4.7744757E-1,3.8476917E-1,2.2771074E-1,1.3800421E-1,2.4327007E-1,9.585928E-1,8.684437E-2,6.6975045E-1,2.0887728E-1,9.3158466E-1,6.15875E-1,1.3438632E-1,3.512846E-1,-4.653755E-3,5.824855E-2,-2.3699531E-2,-1.3333591E-2,9.1998324E-2,1.6112706E-3,-8.529547E-4,-1.0901026E-2,1.5001126E-2,4.188461E-2,1.2898489E-2,-3.202249E-3,-6.8608946E-3,5.5398317E-3,1.8078092E-2,1.4855887E-1],"split_indices":[24,24,10,11,10,21,21,1,23,3,26,1,3,22,24,0,0,0,0,0,0,0,0,0,0,0,0,0,0,0,0],"split_type":[0,0,0,0,0,0,0,0,0,0,0,0,0,0,0,0,0,0,0,0,0,0,0,0,0,0,0,0,0,0,0],"sum_hessian":[1.6907596E4,7.148452E3,9.759145E3,2.7049001E3,4.443552E3,6.495E3,3.264144E3,8.443033E1,2.6204697E3,2.6393366E1,4.4171587E3,4.417976E3,2.077024E3,3.2564702E3,7.673824E0,6.112981E1,2.3300522E1,6.424968E2,1.9779729E3,1.4256038E1,1.2137329E1,3.4699526E3,9.47206E2,4.3065435E3,1.1143279E2,1.4446272E3,6.3239667E2,9.2046027E2,2.33601E3,2.253824E0,5.42E0],"tree_param":{"num_deleted":"0","num_feature":"27","num_nodes":"31","size_leaf_vector":"1"}},{"base_weights":[-7.397151E-2,-8.1412494E-2,3.1833758E-4,-1.9087464E-1,-7.703734E-2,-8.279723E-3,3.7895837E-1,-1.6587059E-1,-4.7147664E-1,-8.091511E-2,2.6584234E-2,5.9123233E-2,-4.9367003E-2,-1.4787386E-1,7.239016E-1,-2.0305654E-2,5.09852E-4,-4.8983585E-2,1.2278475E-2,-7.092035E-3,-1.1355584E-2,-7.502912E-4,3.5848856E-2,2.44162E-2,1.7009128E-3,-8.509613E-3,8.459694E-3,4.4681963E-2,-4.5016002E-2,9.508695E-3,9.4622284E-2],"categories":[],"categories_nodes":[],"categories_segments":[],"categories_sizes":[],"default_left":[0,0,0,0,0,0,0,0,0,0,0,0,0,0,0,0,0,0,0,0,0,0,0,0,0,0,0,0,0,0,0],"id":16,"left_children":[1,3,5,7,9,11,13,15,17,19,21,23,25,27,29,-1,-1,-1,-1,-1,-1,-1,-1,-1,-1,-1,-1,-1,-1,-1,-1],"loss_changes":[9.1165085E0,7.16436E0,4.894465E0,3.9592648E0,5.794716E0,4.07413E0,6.173297E0,3.3700285E0,5.678978E-1,4.5253525E0,5.894481E0,4.337941E0,4.3813615E0,2.72482E0,2.7538862E0,0E0,0E0,0E0,0E0,0E0,0E0,0E0,0E0,0E0,0E0,0E0,0E0,0E0,0E0,0E0,0E0],"parents":[2147483647,0,0,1,1,2,2,3,3,4,4,5,5,6,6,7,7,8,8,9,9,10,10,11,11,12,12,13,13,14,14],"right_children":[2,4,6,8,10,12,14,16,18,20,22,24,26,28,30,-1,-1,-1,-1,-1,-1,-1,-1,-1,-1,-1,-1,-1,-1,-1,-1],"split_conditions":[7.8061944E-1,7.136749E-2,6.167994E-1,5.578063E-1,9.671927E-1,3.2786883E-2,8.0388653E-1,4.1996047E-1,9.284802E-1,4.617369E-1,7.9964525E-1,9.731544E-2,6.498484E-1,3.6065575E-2,1.83161E-1,-2.0305654E-2,5.09852E-4,-4.8983585E-2,1.2278475E-2,-7.092035E-3,-1.1355584E-2,-7.502912E-4,3.5848856E-2,2.44162E-2,1.7009128E-3,-8.509613E-3,8.459694E-3,4.4681963E-2,-4.5016002E-2,9.508695E-3,9.4622284E-2],"split_indices":[19,3,11,24,0,14,19,24,6,23,7,4,3,14,0,0,0,0,0,0,0,0,0,0,0,0,0,0,0,0,0],"split_type":[0,0,0,0,0,0,0,0,0,0,0,0,0,0,0,0,0,0,0,0,0,0,0,0,0,0,0,0,0,0,0],"sum_hessian":[1.6490756E4,1.4989308E4,1.5014487E3,5.7445135E2,1.4414855E4,1.4690676E3,3.2381077E1,5.289119E2,4.5539436E1,1.3895089E4,5.197674E2,5.5619714E2,9.128705E2,1.30385685E1,1.934251E1,4.3427008E2,9.464183E1,4.4345154E1,1.194281E0,1.0640183E4,3.254906E3,4.7224445E2,4.7522926E1,1.0222938E2,4.5396774E2,7.209523E2,1.9191823E2,4.232922E0,8.805647E0,5.425288E0,1.3917221E1],"tree_param":{"num_deleted":"0","num_feature":"27","num_nodes":"31","size_leaf_vector":"1"}},{"base_weights":[-1.7731454E-2,1.8444301E-1,-1.875673E-1,3.106462E-1,6.368119E-2,-1.472982E-1,-3.1403738E-1,2.3933572E-1,4.2306167E-1,2.8192323E-2,2.7789912E-1,-1.8698718E-1,-3.98176E-2,-3.3359578E-1,-1.9315334E-1,3.5122614E-2,1.262002E-2,2.7409866E-2,4.783624E-2,-2.5177721E-3,1.0277131E-2,6.8310976E-2,2.5239632E-2,-1.5769301E-2,-2.404669E-2,1.7962433E-2,-5.833849E-3,-2.7524365E-2,-3.5596017E-2,-9.88433E-3,-3.426289E-2],"categories":[],"categories_nodes":[],"categories_segments":[],"categories_sizes":[],"default_left":[0,0,0,0,0,0,0,0,0,0,0,0,0,0,0,0,0,0,0,0,0,0,0,0,0,0,0,0,0,0,0],"id":17,"left_children":[1,3,5,7,9,11,13,15,17,19,21,23,25,27,29,-1,-1,-1,-1,-1,-1,-1,-1,-1,-1,-1,-1,-1,-1,-1,-1],"loss_changes":[5.743039E2,1.1635614E2,4.6246704E1,2.9828735E1,2.966684E1,2.941127E1,5.123749E0,2.8903244E1,1.1795807E1,1.3335399E1,5.559246E0,7.852188E0,7.574518E0,2.3651276E0,4.3076363E0,0E0,0E0,0E0,0E0,0E0,0E0,0E0,0E0,0E0,0E0,0E0,0E0,0E0,0E0,0E0,0E0],"parents":[2147483647,0,0,1,1,2,2,3,3,4,4,5,5,6,6,7,7,8,8,9,9,10,10,11,11,12,12,13,13,14,14],"right_children":[2,4,6,8,10,12,14,16,18,20,22,24,26,28,30,-1,-1,-1,-1,-1,-1,-1,-1,-1,-1,-1,-1,-1,-1,-1,-1],"split_conditions":[1.986166E-1,1.333992E-1,3.389328E-1,5.2265775E-1,5.859049E-1,4.9728724E-1,7.7463907E-1,1.4058469E-1,4.777166E-1,4.6842802E-1,1.6466036E-1,4.2132416E-1,2.9750645E-1,2.9508196E-2,4.0859684E-1,3.5122614E-2,1.262002E-2,2.7409866E-2,4.783624E-2,-2.5177721E-3,1.0277131E-2,6.8310976E-2,2.5239632E-2,-1.5769301E-2,-2.404669E-2,1.7962433E-2,-5.833849E-3,-2.7524365E-2,-3.5596017E-2,-9.88433E-3,-3.426289E-2],"split_indices":[24,24,24,9,9,10,5,23,11,11,23,23,23,14,24,0,0,0,0,0,0,0,0,0,0,0,0,0,0,0,0],"split_type":[0,0,0,0,0,0,0,0,0,0,0,0,0,0,0,0,0,0,0,0,0,0,0,0,0,0,0,0,0,0,0],"sum_hessian":[1.6723764E4,7.634949E3,9.088814E3,3.7325952E3,3.902354E3,6.8954214E3,2.1933928E3,2.2857585E3,1.4468367E3,3.3487139E3,5.536402E2,5.0353105E3,1.860111E3,1.8864203E3,3.069726E2,1.1481451E3,1.1376134E3,3.933176E2,1.053519E3,1.9522859E3,1.396428E3,3.1254593E1,5.223856E2,3.2558352E3,1.7794755E3,1.440973E2,1.7160135E3,5.263632E2,1.360057E3,1.8923686E2,1.1773573E2],"tree_param":{"num_deleted":"0","num_feature":"27","num_nodes":"31","size_leaf_vector":"1"}},{"base_weights":[2.8140238E-3,-2.0001996E-2,3.5227973E-2,4.5022634E-1,-2.1439457E-2,3.7067387E-2,-4.182773E-1,7.40046E-1,-3.2670975E-1,-6.406433E-2,-7.88049E-3,-2.191832E-2,5.1638976E-2,-7.014862E-2,-5.82965E-2,1.3608582E-1,4.6586234E-2,2.5803743E-2,-5.299299E-2,1.0817329E-2,-7.958616E-3,-2.6833382E-3,1.9429481E-3,-7.837527E-3,6.7217224E-3,7.7135786E-3,1.5129087E-3,-5.1982254E-2,4.7606792E-2],"categories":[],"categories_nodes":[],"categories_segments":[],"categories_sizes":[],"default_left":[0,0,0,0,0,0,0,0,0,0,0,0,0,0,0,0,0,0,0,0,0,0,0,0,0,0,0,0,0],"id":18,"left_children":[1,3,5,7,9,11,13,15,17,19,21,23,25,27,-1,-1,-1,-1,-1,-1,-1,-1,-1,-1,-1,-1,-1,-1,-1],"loss_changes":[1.2437456E1,6.681178E0,5.810919E0,7.025235E0,5.6870627E0,5.9492044E0,1.5727992E0,3.152895E0,1.1917827E0,6.3574924E0,3.8655396E0,6.907579E0,5.16494E0,2.7468362E0,0E0,0E0,0E0,0E0,0E0,0E0,0E0,0E0,0E0,0E0,0E0,0E0,0E0,0E0,0E0],"parents":[2147483647,0,0,1,1,2,2,3,3,4,4,5,5,6,6,7,7,8,8,9,9,10,10,11,11,12,12,13,13],"right_children":[2,4,6,8,10,12,14,16,18,20,22,24,26,28,-1,-1,-1,-1,-1,-1,-1,-1,-1,-1,-1,-1,-1,-1,-1],"split_conditions":[3.7317282E-1,2.4116507E-1,8.80035E-1,9.4618833E-1,1.6122098E-1,1.1697718E-1,1.7748581E-1,7.93722E-1,3.8539574E-1,2.0278576E-1,3.5269585E-2,5.321101E-1,5.335667E-1,4.5061728E-1,-5.82965E-2,1.3608582E-1,4.6586234E-2,2.5803743E-2,-5.299299E-2,1.0817329E-2,-7.958616E-3,-2.6833382E-3,1.9429481E-3,-7.837527E-3,6.7217224E-3,7.7135786E-3,1.5129087E-3,-5.1982254E-2,4.7606792E-2],"split_indices":[23,11,19,13,23,22,3,13,19,6,20,9,2,12,0,0,0,0,0,0,0,0,0,0,0,0,0,0,0],"split_type":[0,0,0,0,0,0,0,0,0,0,0,0,0,0,0,0,0,0,0,0,0,0,0,0,0,0,0,0,0],"sum_hessian":[1.681548E4,9.869072E3,6.9464087E3,2.912574E1,9.839946E3,6.9192627E3,2.714621E1,2.1247347E1,7.8783946E0,2.3737964E3,7.46615E3,1.3705957E3,5.548667E3,9.175768E0,1.7970442E1,5.294997E0,1.5952349E1,1.9623034E0,5.916091E0,1.9574522E2,2.1780513E3,4.4074404E3,3.0587092E3,8.3918854E2,5.314072E2,3.2664304E3,2.2822363E3,5.0591407E0,4.1166267E0],"tree_param":{"num_deleted":"0","num_feature":"27","num_nodes":"29","size_leaf_vector":"1"}},{"base_weights":[6.1918322E-2,-6.94875E-2,1.2501821E-1,-1.5029837E-1,-2.15332E-2,8.471579E-2,2.0074703E-1,-4.235417E-2,-2.1099907E-1,2.7257813E-2,-1.2827028E-1,1.0843511E-1,-1.3345564E-2,2.1040672E-1,-2.1676323E-1,1.652127E-2,-7.003616E-3,-2.1929352E-2,3.7932295E-2,1.7223553E-3,3.0287627E-2,7.6832816E-2,-1.3664073E-2,5.420869E-3,1.3783126E-2,1.3084061E-1,-1.7295616E-3,4.8557986E-2,2.0331623E-2,1.1383629E-1,-2.5325868E-2],"categories":[],"categories_nodes":[],"categories_segments":[],"categories_sizes":[],"default_left":[0,0,0,0,0,0,0,0,0,0,0,0,0,0,0,0,0,0,0,0,0,0,0,0,0,0,0,0,0,0,0],"id":19,"left_children":[1,3,5,7,9,11,13,15,17,19,21,23,25,27,29,-1,-1,-1,-1,-1,-1,-1,-1,-1,-1,-1,-1,-1,-1,-1,-1],"loss_changes":[1.4157672E2,2.1463493E1,3.518843E1,1.3507294E1,1.8114435E1,1.751619E1,1.6201279E1,4.284931E0,6.5469055E0,6.5977025E0,8.2940235E0,9.658211E0,7.684658E0,7.541382E0,4.7926364E0,0E0,0E0,0E0,0E0,0E0,0E0,0E0,0E0,0E0,0E0,0E0,0E0,0E0,0E0,0E0,0E0],"parents":[2147483647,0,0,1,1,2,2,3,3,4,4,5,5,6,6,7,7,8,8,9,9,10,10,11,11,12,12,13,13,14,14],"right_children":[2,4,6,8,10,12,14,16,18,20,22,24,26,28,30,-1,-1,-1,-1,-1,-1,-1,-1,-1,-1,-1,-1,-1,-1,-1,-1],"split_conditions":[1.7094861E-1,1.5477215E-1,4.638865E-1,4.1226012E-1,4.8578832E-1,5.05628E-1,8.075348E-1,5.299121E-1,2.6715395E-1,9.6172696E-1,3.8991883E-1,3.4323117E-1,2.0837986E-1,7.219731E-1,4.3675553E-2,1.652127E-2,-7.003616E-3,-2.1929352E-2,3.7932295E-2,1.7223553E-3,3.0287627E-2,7.6832816E-2,-1.3664073E-2,5.420869E-3,1.3783126E-2,1.3084061E-1,-1.7295616E-3,4.8557986E-2,2.0331623E-2,1.1383629E-1,-2.5325868E-2],"split_indices":[24,23,23,10,10,10,19,19,20,2,19,6,19,13,22,0,0,0,0,0,0,0,0,0,0,0,0,0,0,0,0],"split_type":[0,0,0,0,0,0,0,0,0,0,0,0,0,0,0,0,0,0,0,0,0,0,0,0,0,0,0,0,0,0,0],"sum_hessian":[1.7072477E4,5.5384756E3,1.1534001E4,2.061826E3,3.4766497E3,7.5291514E3,4.0048503E3,7.427282E2,1.3190977E3,2.3864944E3,1.0901553E3,6.0626074E3,1.4665437E3,3.9147727E3,9.007773E1,8.681303E1,6.559152E2,1.30144E3,1.7657654E1,2.303688E3,8.280637E1,9.243548E0,1.0809117E3,2.1322102E3,3.9303972E3,3.3857303E0,1.463158E3,9.664424E1,3.8181284E3,1.5705136E0,8.850721E1],"tree_param":{"num_deleted":"0","num_feature":"27","num_nodes":"31","size_leaf_vector":"1"}},{"base_weights":[2.2859534E-2,-6.895394E-2,8.925624E-2,-1.4193587E-1,-2.4933303E-2,1.2746532E-1,2.704236E-2,1.2769774E-1,-1.5081121E-1,-2.073187E-3,-1.0263097E-1,1.230245E-1,4.4322935E-1,4.1923726E-1,2.0166552E-2,4.7292258E-3,1.0356797E-1,8.421443E-2,-1.5272993E-2,-1.0477668E-3,2.6649987E-2,2.774635E-2,-1.243326E-2,5.259058E-3,1.37122935E-2,5.619438E-4,6.4470075E-2,5.4964956E-2,-5.512311E-2,-6.883364E-3,4.7725704E-3],"categories":[],"categories_nodes":[],"categories_segments":[],"categories_sizes":[],"default_left":[0,0,0,0,0,0,0,0,0,0,0,0,0,0,0,0,0,0,0,0,0,0,0,0,0,0,0,0,0,0,0],"id":20,"left_children":[1,3,5,7,9,11,13,15,17,19,21,23,25,27,29,-1,-1,-1,-1,-1,-1,-1,-1,-1,-1,-1,-1,-1,-1,-1,-1],"loss_changes":[1.03239E2,2.2830517E1,2.3358551E1,6.418026E0,7.8763485E0,8.482712E0,1.0078562E1,6.2113533E0,5.06139E0,7.7393055E0,8.349987E0,5.955971E0,7.4068584E0,8.453216E0,9.022527E0,0E0,0E0,0E0,0E0,0E0,0E0,0E0,0E0,0E0,0E0,0E0,0E0,0E0,0E0,0E0,0E0],"parents":[2147483647,0,0,1,1,2,2,3,3,4,4,5,5,6,6,7,7,8,8,9,9,10,10,11,11,12,12,13,13,14,14],"right_children":[2,4,6,8,10,12,14,16,18,20,22,24,26,28,30,-1,-1,-1,-1,-1,-1,-1,-1,-1,-1,-1,-1,-1,-1,-1,-1],"split_conditions":[1.986166E-1,1.215415E-1,4.777166E-1,3.8476917E-1,5.1265645E-1,5.578063E-1,6.474977E-2,9.805644E-1,1.2547617E-1,9.6182853E-1,1.5978219E-1,9.917536E-2,2.2108294E-1,8.075348E-1,2.3567194E-1,4.7292258E-3,1.0356797E-1,8.421443E-2,-1.5272993E-2,-1.0477668E-3,2.6649987E-2,2.774635E-2,-1.243326E-2,5.259058E-3,1.37122935E-2,5.619438E-4,6.4470075E-2,5.4964956E-2,-5.512311E-2,-6.883364E-3,4.7725704E-3],"split_indices":[24,24,11,11,11,24,22,0,0,0,2,22,22,19,24,0,0,0,0,0,0,0,0,0,0,0,0,0,0,0,0],"split_type":[0,0,0,0,0,0,0,0,0,0,0,0,0,0,0,0,0,0,0,0,0,0,0,0,0,0,0,0,0,0,0],"sum_hessian":[1.6933209E4,7.106412E3,9.826796E3,2.6728547E3,4.4335576E3,6.0872324E3,3.739564E3,8.4750084E1,2.5881047E3,3.4264563E3,1.0071012E3,6.0041807E3,8.305156E1,6.3397682E1,3.6761663E3,7.882215E1,5.927934E0,4.1468697E0,2.5839578E3,3.3234175E3,1.0303901E2,5.375852E1,9.5334265E2,1.0021745E3,5.0020063E3,2.6506186E1,5.6545376E1,5.626974E1,7.127944E0,8.688342E2,2.807332E3],"tree_param":{"num_deleted":"0","num_feature":"27","num_nodes":"31","size_leaf_vector":"1"}},{"base_weights":[-6.9666244E-2,-7.677963E-2,9.6777646E-4,-7.439889E-2,-2.6884273E-1,-7.2514513E-3,3.5633087E-1,-8.33316E-2,-2.955623E-2,-1.5705937E-1,-4.1390213E-1,-5.6858726E-2,-2.3552356E-3,-1.3950455E-1,6.6469705E-1,-8.551679E-3,9.932183E-3,4.4851037E-4,-9.287684E-3,-2.6206424E-2,1.1609247E-2,-4.4687156E-2,4.385665E-2,2.7638907E-2,-1.5093633E-3,4.2216863E-2,-4.397694E-2,3.3655338E-2,1.05453424E-1],"categories":[],"categories_nodes":[],"categories_segments":[],"categories_sizes":[],"default_left":[0,0,0,0,0,0,0,0,0,0,0,0,0,0,0,0,0,0,0,0,0,0,0,0,0,0,0,0,0],"id":21,"left_children":[1,3,5,7,9,11,13,15,17,19,21,-1,23,25,27,-1,-1,-1,-1,-1,-1,-1,-1,-1,-1,-1,-1,-1,-1],"loss_changes":[8.238289E0,6.7912445E0,4.38711E0,5.8918915E0,2.8861961E0,4.0338345E0,5.2843986E0,4.9058914E0,5.2725763E0,3.0249217E0,2.4050522E0,0E0,5.1758027E0,2.5208516E0,2.3453598E0,0E0,0E0,0E0,0E0,0E0,0E0,0E0,0E0,0E0,0E0,0E0,0E0,0E0,0E0],"parents":[2147483647,0,0,1,1,2,2,3,3,4,4,5,5,6,6,7,7,8,8,9,9,10,10,12,12,13,13,14,14],"right_children":[2,4,6,8,10,12,14,16,18,20,22,-1,24,26,28,-1,-1,-1,-1,-1,-1,-1,-1,-1,-1,-1,-1,-1,-1],"split_conditions":[7.8061944E-1,5.2272725E-1,6.167994E-1,9.097914E-1,4.485283E-1,1.14912465E-1,8.0388653E-1,1.6308725E-1,1.0805369E-1,5.0854087E-1,9.390565E-1,-5.6858726E-2,3.8184598E-1,3.6065575E-2,5.359004E-1,-8.551679E-3,9.932183E-3,4.4851037E-4,-9.287684E-3,-2.6206424E-2,1.1609247E-2,-4.4687156E-2,4.385665E-2,2.7638907E-2,-1.5093633E-3,4.2216863E-2,-4.397694E-2,3.3655338E-2,1.05453424E-1],"split_indices":[19,24,11,1,11,5,19,4,4,6,6,0,9,14,2,0,0,0,0,0,0,0,0,0,0,0,0,0,0],"split_type":[0,0,0,0,0,0,0,0,0,0,0,0,0,0,0,0,0,0,0,0,0,0,0,0,0,0,0,0,0],"sum_hessian":[1.6395197E4,1.4895064E4,1.5001337E3,1.47140625E4,1.8100194E2,1.4671787E3,3.2954926E1,1.2269173E4,2.44489E3,1.03402374E2,7.7599556E1,1.1691202E1,1.4554875E3,1.2846339E1,2.0108587E1,1.212465E4,1.445218E2,1.5906703E3,8.542195E2,7.471938E1,2.868299E1,7.5168205E1,2.431354E0,6.2703304E1,1.3927843E3,4.3337226E0,8.512617E0,1.1929935E1,8.178652E0],"tree_param":{"num_deleted":"0","num_feature":"27","num_nodes":"29","size_leaf_vector":"1"}},{"base_weights":[-1.6927032E-2,1.7047171E-1,-1.7871934E-1,2.847499E-1,5.9300203E-2,-1.3820976E-1,-2.9800007E-1,2.1970725E-1,3.862573E-1,2.5931654E-2,2.5776795E-1,-1.7830129E-1,-3.7919555E-2,-3.187835E-1,-1.913676E-1,4.279429E-2,1.6757792E-2,2.5945408E-2,4.403359E-2,-2.4597251E-3,9.59929E-3,-3.3078918E-3,2.907748E-2,-1.9931357E-2,-1.0440165E-2,5.2240748E-2,-4.520918E-3,-2.5582239E-2,-3.4307424E-2,-1.0435035E-2,-3.4245472E-2],"categories":[],"categories_nodes":[],"categories_segments":[],"categories_sizes":[],"default_left":[0,0,0,0,0,0,0,0,0,0,0,0,0,0,0,0,0,0,0,0,0,0,0,0,0,0,0,0,0,0,0],"id":22,"left_children":[1,3,5,7,9,11,13,15,17,19,21,23,25,27,29,-1,-1,-1,-1,-1,-1,-1,-1,-1,-1,-1,-1,-1,-1,-1,-1],"loss_changes":[5.06089E2,9.8238556E1,4.3243256E1,2.5092438E1,2.5963833E1,2.6887238E1,4.9699707E0,2.5182701E1,1.0088974E1,1.189076E1,5.4270287E0,7.3988495E0,7.831294E0,2.8154602E0,4.8653955E0,0E0,0E0,0E0,0E0,0E0,0E0,0E0,0E0,0E0,0E0,0E0,0E0,0E0,0E0,0E0,0E0],"parents":[2147483647,0,0,1,1,2,2,3,3,4,4,5,5,6,6,7,7,8,8,9,9,10,10,11,11,12,12,13,13,14,14],"right_children":[2,4,6,8,10,12,14,16,18,20,22,24,26,28,30,-1,-1,-1,-1,-1,-1,-1,-1,-1,-1,-1,-1,-1,-1,-1,-1],"split_conditions":[1.986166E-1,1.333992E-1,3.3448616E-1,5.2265775E-1,5.859049E-1,4.9356222E-1,7.5891054E-1,7.566638E-2,4.8226863E-1,4.6842802E-1,9.66443E-2,6.71694E-1,2.16681E-1,2.9508196E-2,4.0859684E-1,4.279429E-2,1.6757792E-2,2.5945408E-2,4.403359E-2,-2.4597251E-3,9.59929E-3,-3.3078918E-3,2.907748E-2,-1.9931357E-2,-1.0440165E-2,5.2240748E-2,-4.520918E-3,-2.5582239E-2,-3.4307424E-2,-1.0435035E-2,-3.4245472E-2],"split_indices":[24,24,24,9,9,10,5,23,11,11,4,0,23,14,24,0,0,0,0,0,0,0,0,0,0,0,0,0,0,0,0],"split_type":[0,0,0,0,0,0,0,0,0,0,0,0,0,0,0,0,0,0,0,0,0,0,0,0,0,0,0,0,0,0,0],"sum_hessian":[1.6689766E4,7.7329214E3,8.956844E3,3.8124111E3,3.9205103E3,6.687741E3,2.2691023E3,2.3254822E3,1.486929E3,3.357193E3,5.633171E2,4.777238E3,1.9105035E3,1.8973129E3,3.717894E2,4.641563E2,1.8613259E3,4.4628342E2,1.0406455E3,1.9508607E3,1.4063324E3,5.7412502E1,5.0590457E2,3.7182976E3,1.05894E3,2.3628155E1,1.8868754E3,5.314185E2,1.3658943E3,2.369886E2,1.3480078E2],"tree_param":{"num_deleted":"0","num_feature":"27","num_nodes":"31","size_leaf_vector":"1"}},{"base_weights":[2.7681468E-3,-6.059526E-2,1.3130875E-2,-1.4051996E-2,-1.14998214E-1,-9.89887E-4,4.604599E-2,-2.09316E-2,7.5231975E-1,-2.2127362E-1,-8.031707E-2,6.772309E-3,-5.9362683E-2,4.8071E-2,-5.7991862E-2,-5.382342E-3,8.130349E-3,4.9947603E-3,1.1877576E-1,-5.8038253E-2,-1.9815352E-2,2.0663003E-2,-9.984195E-3,-5.459677E-4,4.2000106E-3,-3.9073504E-3,-2.6051262E-2,1.5566761E-3,8.352661E-3],"categories":[],"categories_nodes":[],"categories_segments":[],"categories_sizes":[],"default_left":[0,0,0,0,0,0,0,0,0,0,0,0,0,0,0,0,0,0,0,0,0,0,0,0,0,0,0,0,0],"id":23,"left_children":[1,3,5,7,9,11,13,15,17,19,21,23,25,27,-1,-1,-1,-1,-1,-1,-1,-1,-1,-1,-1,-1,-1,-1,-1],"loss_changes":[1.1042852E1,5.983906E0,6.71793E0,6.738486E0,3.9988422E0,4.5837445E0,5.5281935E0,4.2572665E0,3.4185548E0,2.1064339E0,4.63275E0,3.847852E0,4.8355856E0,4.9843864E0,0E0,0E0,0E0,0E0,0E0,0E0,0E0,0E0,0E0,0E0,0E0,0E0,0E0,0E0,0E0],"parents":[2147483647,0,0,1,1,2,2,3,3,4,4,5,5,6,6,7,7,8,8,9,9,10,10,11,11,12,12,13,13],"right_children":[2,4,6,8,10,12,14,16,18,20,22,24,26,28,-1,-1,-1,-1,-1,-1,-1,-1,-1,-1,-1,-1,-1,-1,-1],"split_conditions":[1.6122098E-1,5.20971E-1,2.875494E-1,5.763758E-1,1.49015E-2,7.8061944E-1,9.4092464E-1,1.0318949E-1,5.3876214E-2,4.0173292E-1,5.252773E-1,1.9321148E-1,4.5227858E-1,5.066722E-1,-5.7991862E-2,-5.382342E-3,8.130349E-3,4.9947603E-3,1.1877576E-1,-5.8038253E-2,-1.9815352E-2,2.0663003E-2,-9.984195E-3,-5.459677E-4,4.2000106E-3,-3.9073504E-3,-2.6051262E-2,1.5566761E-3,8.352661E-3],"split_indices":[23,7,24,5,20,19,1,22,20,10,19,26,23,9,0,0,0,0,0,0,0,0,0,0,0,0,0,0,0],"split_type":[0,0,0,0,0,0,0,0,0,0,0,0,0,0,0,0,0,0,0,0,0,0,0,0,0,0,0,0,0],"sum_hessian":[1.6815564E4,2.362865E3,1.44527E4,1.2740973E3,1.0887678E3,1.0114496E4,4.338204E3,1.2637257E3,1.0371589E1,2.665582E2,8.2220966E2,8.928148E3,1.1863478E3,4.3251353E3,1.3068728E1,9.564751E2,3.0725058E2,4.395785E0,5.975804E0,1.4665538E1,2.5189267E2,5.177126E1,7.704384E2,6.6276904E3,2.3004578E3,1.0787345E3,1.0761333E2,2.2572344E3,2.067901E3],"tree_param":{"num_deleted":"0","num_feature":"27","num_nodes":"29","size_leaf_vector":"1"}},{"base_weights":[5.7804808E-2,-5.168569E-2,1.2360613E-1,-1.4128411E-1,-9.655261E-3,8.611887E-2,1.869961E-1,-3.5724003E-2,-2.0197111E-1,3.2364797E-2,-1.2221741E-1,1.0439002E-1,-9.0742605E-3,1.9804677E-1,-1.4031158E-1,3.3073317E-2,-5.254814E-3,3.848067E-2,-2.1020627E-2,2.162452E-3,2.6497094E-2,4.5054933E-4,-1.6752832E-2,5.997715E-2,1.0153546E-2,1.127994E-1,-1.3504606E-3,1.8504925E-2,3.821366E-2,6.6671126E-2,-2.0312404E-2],"categories":[],"categories_nodes":[],"categories_segments":[],"categories_sizes":[],"default_left":[0,0,0,0,0,0,0,0,0,0,0,0,0,0,0,0,0,0,0,0,0,0,0,0,0,0,0,0,0,0,0],"id":24,"left_children":[1,3,5,7,9,11,13,15,17,19,21,23,25,27,29,-1,-1,-1,-1,-1,-1,-1,-1,-1,-1,-1,-1,-1,-1,-1,-1],"loss_changes":[1.2353763E2,2.4239626E1,2.5434387E1,1.315955E1,2.0733555E1,1.1709709E1,1.4420242E1,4.6506076E0,6.3861427E0,7.969054E0,6.8426E0,7.92585E0,5.4808426E0,9.140274E0,6.752778E0,0E0,0E0,0E0,0E0,0E0,0E0,0E0,0E0,0E0,0E0,0E0,0E0,0E0,0E0,0E0,0E0],"parents":[2147483647,0,0,1,1,2,2,3,3,4,4,5,5,6,6,7,7,8,8,9,9,10,10,11,11,12,12,13,13,14,14],"right_children":[2,4,6,8,10,12,14,16,18,20,22,24,26,28,30,-1,-1,-1,-1,-1,-1,-1,-1,-1,-1,-1,-1,-1,-1,-1,-1],"split_conditions":[1.8626483E-1,1.5477215E-1,4.6646604E-1,4.1226012E-1,4.925905E-1,5.16722E-1,7.972787E-1,3.402639E-1,5.039833E-1,1.6590068E-1,5.677909E-1,7.219731E-1,2.0837986E-1,7.285757E-1,8.0980845E-2,3.3073317E-2,-5.254814E-3,3.848067E-2,-2.1020627E-2,2.162452E-3,2.6497094E-2,4.5054933E-4,-1.6752832E-2,5.997715E-2,1.0153546E-2,1.127994E-1,-1.3504606E-3,1.8504925E-2,3.821366E-2,6.6671126E-2,-2.0312404E-2],"split_indices":[24,23,23,10,10,10,19,11,19,20,19,13,19,19,22,0,0,0,0,0,0,0,0,0,0,0,0,0,0,0,0],"split_type":[0,0,0,0,0,0,0,0,0,0,0,0,0,0,0,0,0,0,0,0,0,0,0,0,0,0,0,0,0,0,0],"sum_hessian":[1.7145113E4,6.4360405E3,1.0709072E4,2.054339E3,4.381701E3,6.7309277E3,3.9781453E3,7.50498E2,1.3038412E3,3.1911428E3,1.1905585E3,5.6469653E3,1.083962E3,3.8486023E3,1.2954279E2,3.2124107E1,7.183739E2,1.7412643E1,1.2864285E3,3.051344E3,1.3979878E2,3.1381094E2,8.767475E2,3.1155224E1,5.61581E3,3.2227483E0,1.0807394E3,3.5966677E3,2.5193466E2,8.66026E0,1.2088252E2],"tree_param":{"num_deleted":"0","num_feature":"27","num_nodes":"31","size_leaf_vector":"1"}},{"base_weights":[2.1461071E-2,-6.493344E-2,8.320206E-2,-1.2954326E-1,-1.9907605E-2,1.18769184E-1,2.4919903E-2,-2.1849416E-1,-1.037596E-1,1.7937681E-3,-9.925809E-2,1.14637434E-1,4.070009E-1,3.8712838E-1,1.8421467E-2,-3.5426382E-2,-1.6362598E-2,-7.961779E-3,-2.1499744E-2,4.555798E-3,-4.5717927E-3,-1.0361766E-2,1.2706785E-1,4.8566773E-3,1.2779774E-2,2.489238E-4,5.8692183E-2,5.0470192E-2,-5.4291278E-2,-6.666366E-3,4.460408E-3],"categories":[],"categories_nodes":[],"categories_segments":[],"categories_sizes":[],"default_left":[0,0,0,0,0,0,0,0,0,0,0,0,0,0,0,0,0,0,0,0,0,0,0,0,0,0,0,0,0,0,0],"id":25,"left_children":[1,3,5,7,9,11,13,15,17,19,21,23,25,27,29,-1,-1,-1,-1,-1,-1,-1,-1,-1,-1,-1,-1,-1,-1,-1,-1],"loss_changes":[9.045762E1,2.055958E1,2.0498749E1,6.634445E0,7.175066E0,7.267563E0,8.818335E0,4.7944984E0,6.0312347E0,6.807168E0,5.4757576E0,5.259842E0,6.28706E0,7.4947367E0,8.210985E0,0E0,0E0,0E0,0E0,0E0,0E0,0E0,0E0,0E0,0E0,0E0,0E0,0E0,0E0,0E0,0E0],"parents":[2147483647,0,0,1,1,2,2,3,3,4,4,5,5,6,6,7,7,8,8,9,9,10,10,11,11,12,12,13,13,14,14],"right_children":[2,4,6,8,10,12,14,16,18,20,22,24,26,28,30,-1,-1,-1,-1,-1,-1,-1,-1,-1,-1,-1,-1,-1,-1,-1,-1],"split_conditions":[1.986166E-1,1.2648222E-1,4.777166E-1,8.684437E-2,2.0887728E-1,5.578063E-1,6.474977E-2,4.056199E-1,2.0464316E-1,4.465139E-1,3.9205587E-1,9.917536E-2,2.2108294E-1,8.075348E-1,2.3567194E-1,-3.5426382E-2,-1.6362598E-2,-7.961779E-3,-2.1499744E-2,4.555798E-3,-4.5717927E-3,-1.0361766E-2,1.2706785E-1,4.8566773E-3,1.2779774E-2,2.489238E-4,5.8692183E-2,5.0470192E-2,-5.4291278E-2,-6.666366E-3,4.460408E-3],"split_indices":[24,24,11,23,26,24,22,10,23,10,21,22,22,19,24,0,0,0,0,0,0,0,0,0,0,0,0,0,0,0,0],"split_type":[0,0,0,0,0,0,0,0,0,0,0,0,0,0,0,0,0,0,0,0,0,0,0,0,0,0,0,0,0,0,0],"sum_hessian":[1.695641E4,7.0671934E3,9.889216E3,2.901627E3,4.1655664E3,6.140743E3,3.748473E3,6.5038684E2,2.25124E3,3.2717585E3,8.93808E2,6.0553384E3,8.540441E1,6.503425E1,3.6834387E3,1.856198E2,4.6476703E2,1.8511934E3,4.0004672E2,1.7030645E3,1.5686942E3,8.9189404E2,1.9139246E0,1.00657416E3,5.048764E3,2.6604351E1,5.8800064E1,5.8141483E1,6.89277E0,8.6639276E2,2.817046E3],"tree_param":{"num_deleted":"0","num_feature":"27","num_nodes":"31","size_leaf_vector":"1"}},{"base_weights":[-6.5582745E-2,-8.8878244E-2,-4.4931397E-2,-9.022919E-2,6.102086E-1,-3.3420432E-2,-9.02388E-2,-8.669663E-2,-2.8026813E-1,1.08335E-2,8.871803E-1,-4.34513E-2,2.3407863E-2,-1.8496984E-1,-6.590595E-2,-4.5659933E-3,-9.870614E-3,2.8961736E-3,-3.328087E-2,5.2328993E-2,-2.5539014E-2,1.7386936E-2,1.07054666E-1,1.9694543E-4,-6.3718706E-3,6.0371257E-2,1.5685717E-3,-3.7620556E-2,-1.1760042E-2,-7.241829E-3,3.6686063E-2],"categories":[],"categories_nodes":[],"categories_segments":[],"categories_sizes":[],"default_left":[0,0,0,0,0,0,0,0,0,0,0,0,0,0,0,0,0,0,0,0,0,0,0,0,0,0,0,0,0,0,0],"id":26,"left_children":[1,3,5,7,9,11,13,15,17,19,21,23,25,27,29,-1,-1,-1,-1,-1,-1,-1,-1,-1,-1,-1,-1,-1,-1,-1,-1],"loss_changes":[7.840523E0,7.290745E0,4.505907E0,5.1096535E0,2.4648614E0,3.931769E0,4.023839E0,3.69635E0,2.269844E0,9.144625E-1,1.1456757E0,5.395912E0,4.6294513E0,4.5587635E0,3.957141E0,0E0,0E0,0E0,0E0,0E0,0E0,0E0,0E0,0E0,0E0,0E0,0E0,0E0,0E0,0E0,0E0],"parents":[2147483647,0,0,1,1,2,2,3,3,4,4,5,5,6,6,7,7,8,8,9,9,10,10,11,11,12,12,13,13,14,14],"right_children":[2,4,6,8,10,12,14,16,18,20,22,24,26,28,30,-1,-1,-1,-1,-1,-1,-1,-1,-1,-1,-1,-1,-1,-1,-1,-1],"split_conditions":[5.801876E-1,9.753557E-1,2.667984E-1,5.2272725E-1,4.218107E-1,5.2028507E-1,1.6530533E-1,1.6393442E-2,3.3942E-1,1.8972331E-1,9.66443E-2,9.237668E-1,4.5240366E-1,4.4282028E-1,7.5966084E-1,-4.5659933E-3,-9.870614E-3,2.8961736E-3,-3.328087E-2,5.2328993E-2,-2.5539014E-2,1.7386936E-2,1.07054666E-1,1.9694543E-4,-6.3718706E-3,6.0371257E-2,1.5685717E-3,-3.7620556E-2,-1.1760042E-2,-7.241829E-3,3.6686063E-2],"split_indices":[19,3,24,24,12,10,2,14,19,24,4,13,11,23,9,0,0,0,0,0,0,0,0,0,0,0,0,0,0,0,0],"split_type":[0,0,0,0,0,0,0,0,0,0,0,0,0,0,0,0,0,0,0,0,0,0,0,0,0,0,0,0,0,0,0],"sum_hessian":[1.6304948E4,7.660412E3,8.644536E3,7.646507E3,1.3905569E1,6.8946055E3,1.7499313E3,7.5083926E3,1.3811426E2,4.723307E0,9.182262E0,5.8604087E3,1.0341965E3,3.5628073E2,1.3936505E3,1.7009647E3,5.8074277E3,2.0123756E1,1.179905E2,1.284725E0,3.4385824E0,2.276129E0,6.906133E0,1.8084474E3,4.0519612E3,1.2567838E1,1.0216287E3,9.162074E1,2.6466E2,1.3738098E3,1.9840635E1],"tree_param":{"num_deleted":"0","num_feature":"27","num_nodes":"31","size_leaf_vector":"1"}},{"base_weights":[-1.6212773E-2,1.5758143E-1,-1.7017822E-1,2.7549016E-1,6.676502E-2,-1.3249917E-1,-2.9157647E-1,3.51976E-1,2.0887925E-1,-1.2730938E-2,1.518216E-1,-1.6941008E-1,-3.4722827E-2,-3.1094956E-1,-1.7407729E-1,-3.1690463E-2,3.603229E-2,1.1819415E-2,2.986816E-2,1.4707106E-2,-3.1710253E-3,1.0665409E-2,2.8819202E-2,-1.4107274E-2,-2.2157287E-2,-1.3877938E-3,-2.2637054E-2,-6.418136E-3,-3.1642828E-2,-8.472371E-3,-3.202949E-2],"categories":[],"categories_nodes":[],"categories_segments":[],"categories_sizes":[],"default_left":[0,0,0,0,0,0,0,0,0,0,0,0,0,0,0,0,0,0,0,0,0,0,0,0,0,0,0,0,0,0,0],"id":27,"left_children":[1,3,5,7,9,11,13,15,17,19,21,23,25,27,29,-1,-1,-1,-1,-1,-1,-1,-1,-1,-1,-1,-1,-1,-1,-1,-1],"loss_changes":[4.4569135E2,8.376471E1,4.035988E1,1.7269348E1,2.9897026E1,2.4325333E1,4.705841E0,8.952789E0,1.4802055E1,6.938736E0,1.3126041E1,7.202759E0,7.38274E0,2.4049377E0,3.8694735E0,0E0,0E0,0E0,0E0,0E0,0E0,0E0,0E0,0E0,0E0,0E0,0E0,0E0,0E0,0E0,0E0],"parents":[2147483647,0,0,1,1,2,2,3,3,4,4,5,5,6,6,7,7,8,8,9,9,10,10,11,11,12,12,13,13,14,14],"right_children":[2,4,6,8,10,12,14,16,18,20,22,24,26,28,30,-1,-1,-1,-1,-1,-1,-1,-1,-1,-1,-1,-1,-1,-1,-1,-1],"split_conditions":[1.986166E-1,1.25E-1,3.389328E-1,9.1403164E-2,4.6842802E-1,4.9728724E-1,7.7463907E-1,1.2547892E-1,4.516965E-1,5.047034E-1,5.859049E-1,4.2132416E-1,3.7480512E-1,1.1829502E-1,4.0859684E-1,-3.1690463E-2,3.603229E-2,1.1819415E-2,2.986816E-2,1.4707106E-2,-3.1710253E-3,1.0665409E-2,2.8819202E-2,-1.4107274E-2,-2.2157287E-2,-1.3877938E-3,-2.2637054E-2,-6.418136E-3,-3.1642828E-2,-8.472371E-3,-3.202949E-2],"split_indices":[24,24,24,24,11,10,5,6,10,3,9,23,20,6,24,0,0,0,0,0,0,0,0,0,0,0,0,0,0,0,0],"split_type":[0,0,0,0,0,0,0,0,0,0,0,0,0,0,0,0,0,0,0,0,0,0,0,0,0,0,0,0,0,0,0],"sum_hessian":[1.6654188E4,7.823311E3,8.830876E3,3.4030415E3,4.4202695E3,6.7407915E3,2.0900845E3,1.582107E3,1.8209346E3,2.28526E3,2.1350095E3,4.8929526E3,1.8478389E3,1.792838E3,2.9724646E2,1.9043966E1,1.563063E3,9.071666E2,9.137679E2,2.4188533E2,2.0433746E3,1.6051477E3,5.298618E2,3.1729548E3,1.7199978E3,1.6675386E3,1.8030025E2,3.921609E1,1.7536218E3,1.8547943E2,1.1176704E2],"tree_param":{"num_deleted":"0","num_feature":"27","num_nodes":"31","size_leaf_vector":"1"}},{"base_weights":[2.739547E-3,-1.7826755E-2,3.1763446E-2,4.1957673E-1,-1.919783E-2,3.349844E-2,-4.0879962E-1,6.794608E-1,-3.1763172E-1,-2.7348312E-2,4.3361753E-2,-2.1868788E-2,4.7105446E-2,-6.856937E-2,-5.7529595E-2,7.854245E-2,-4.0491007E-2,2.4812842E-2,-5.2198466E-2,-4.8484285E-3,1.9173387E-4,7.7843115E-2,3.4121913E-3,-7.492505E-3,6.09425E-3,4.4395598E-3,3.6637783E-2,-5.1191866E-2,4.4278298E-2],"categories":[],"categories_nodes":[],"categories_segments":[],"categories_sizes":[],"default_left":[0,0,0,0,0,0,0,0,0,0,0,0,0,0,0,0,0,0,0,0,0,0,0,0,0,0,0,0,0],"id":28,"left_children":[1,3,5,7,9,11,13,15,17,19,21,23,25,27,-1,-1,-1,-1,-1,-1,-1,-1,-1,-1,-1,-1,-1,-1,-1],"loss_changes":[1.0038486E1,5.910935E0,5.3448496E0,6.1168475E0,5.004757E0,5.2355976E0,1.5146427E0,2.9712887E0,1.1364474E0,5.3707414E0,7.6584797E0,6.029934E0,4.8094597E0,2.5276546E0,0E0,0E0,0E0,0E0,0E0,0E0,0E0,0E0,0E0,0E0,0E0,0E0,0E0,0E0,0E0],"parents":[2147483647,0,0,1,1,2,2,3,3,4,4,5,5,6,6,7,7,8,8,9,9,10,10,11,11,12,12,13,13],"right_children":[2,4,6,8,10,12,14,16,18,20,22,24,26,28,-1,-1,-1,-1,-1,-1,-1,-1,-1,-1,-1,-1,-1,-1,-1],"split_conditions":[3.7317282E-1,2.4116507E-1,8.80035E-1,9.4618833E-1,1.5775332E-1,1.1697718E-1,1.7748581E-1,4.9282256E-1,3.8539574E-1,4.4097103E-2,4.616257E-2,5.321101E-1,8.7973845E-1,4.5061728E-1,-5.7529595E-2,7.854245E-2,-4.0491007E-2,2.4812842E-2,-5.2198466E-2,-4.8484285E-3,1.9173387E-4,7.7843115E-2,3.4121913E-3,-7.492505E-3,6.09425E-3,4.4395598E-3,3.6637783E-2,-5.1191866E-2,4.4278298E-2],"split_indices":[23,11,19,13,21,22,3,22,19,20,22,9,7,12,0,0,0,0,0,0,0,0,0,0,0,0,0,0,0],"split_type":[0,0,0,0,0,0,0,0,0,0,0,0,0,0,0,0,0,0,0,0,0,0,0,0,0,0,0,0,0],"sum_hessian":[1.6815352E4,9.841828E3,6.973523E3,2.980049E1,9.812027E3,6.9470884E3,2.643461E1,2.2091148E1,7.70934E0,8.68153E3,1.1304972E3,1.3703785E3,5.5767095E3,9.1495695E0,1.728504E1,2.0375738E1,1.7154106E0,1.9888644E0,5.7204757E0,5.0405405E3,3.6409897E3,1.300054E1,1.1174967E3,8.353039E2,5.3507465E2,5.530905E3,4.580496E1,4.9000516E0,4.249518E0],"tree_param":{"num_deleted":"0","num_feature":"27","num_nodes":"29","size_leaf_vector":"1"}},{"base_weights":[5.3995986E-2,-6.2964864E-2,1.0785133E-1,-2.038721E-1,-3.8824514E-2,7.313846E-2,1.726017E-1,8.617229E-2,-2.4483863E-1,-1.1502609E-3,-1.1784492E-1,9.435503E-2,-1.562869E-2,1.8088509E-1,-2.0388745E-1,2.9962549E-2,-2.9417887E-2,-2.5647068E-2,4.639804E-2,1.2988326E-2,-2.241372E-3,6.23986E-2,-1.2302208E-2,4.4299937E-3,1.2128075E-2,1.1167246E-1,-1.9267512E-3,1.7666465E-2,6.0906846E-2,1.0244675E-1,-2.3957968E-2],"categories":[],"categories_nodes":[],"categories_segments":[],"categories_sizes":[],"default_left":[0,0,0,0,0,0,0,0,0,0,0,0,0,0,0,0,0,0,0,0,0,0,0,0,0,0,0,0,0,0,0],"id":29,"left_children":[1,3,5,7,9,11,13,15,17,19,21,23,25,27,29,-1,-1,-1,-1,-1,-1,-1,-1,-1,-1,-1,-1,-1,-1,-1,-1],"loss_changes":[1.0842966E2,1.8454082E1,2.6479065E1,9.450874E0,1.3798166E1,1.4455269E1,1.2862755E1,8.122298E0,5.854664E0,8.750454E0,5.823612E0,8.343044E0,6.125253E0,7.165512E0,4.1478086E0,0E0,0E0,0E0,0E0,0E0,0E0,0E0,0E0,0E0,0E0,0E0,0E0,0E0,0E0,0E0,0E0],"parents":[2147483647,0,0,1,1,2,2,3,3,4,4,5,5,6,6,7,7,8,8,9,9,10,10,11,11,12,12,13,13,14,14],"right_children":[2,4,6,8,10,12,14,16,18,20,22,24,26,28,30,-1,-1,-1,-1,-1,-1,-1,-1,-1,-1,-1,-1,-1,-1,-1,-1],"split_conditions":[1.6996047E-1,7.806324E-2,4.638865E-1,2.891523E-1,4.7574702E-1,5.05628E-1,8.075348E-1,9.10774E-1,1.8582836E-1,4.9936715E-1,3.8991883E-1,3.4323117E-1,2.0837986E-1,9.390565E-1,4.3675553E-2,2.9962549E-2,-2.9417887E-2,-2.5647068E-2,4.639804E-2,1.2988326E-2,-2.241372E-3,6.23986E-2,-1.2302208E-2,4.4299937E-3,1.2128075E-2,1.1167246E-1,-1.9267512E-3,1.7666465E-2,6.0906846E-2,1.0244675E-1,-2.3957968E-2],"split_indices":[24,24,23,6,10,10,19,2,22,19,19,6,19,6,22,0,0,0,0,0,0,0,0,0,0,0,0,0,0,0,0],"split_type":[0,0,0,0,0,0,0,0,0,0,0,0,0,0,0,0,0,0,0,0,0,0,0,0,0,0,0,0,0,0,0],"sum_hessian":[1.7211803E4,5.426526E3,1.1785277E4,7.926108E2,4.633915E3,7.673579E3,4.1116987E3,9.795843E1,6.9465234E2,3.1385671E3,1.495348E3,6.193245E3,1.480334E3,4.0236904E3,8.800829E1,6.288153E1,3.5076893E1,6.840647E2,1.0587652E1,4.374885E2,2.7010786E3,9.535178E0,1.4858127E3,2.1671475E3,4.0260974E3,3.7619863E0,1.476572E3,3.9858164E3,3.7874126E1,1.7028141E0,8.630547E1],"tree_param":{"num_deleted":"0","num_feature":"27","num_nodes":"31","size_leaf_vector":"1"}},{"base_weights":[2.0139849E-2,-6.1064254E-2,7.752249E-2,-1.2747532E-1,-2.1721179E-2,1.0611881E-1,1.2456079E-2,4.6287563E-1,-1.3133146E-1,4.7829324E-1,-2.4931721E-2,1.2710464E-1,5.902366E-2,-7.987182E-2,4.611921E-2,1.257621E-1,-1.7705237E-2,2.582468E-2,-1.3695456E-2,8.330151E-2,1.1067999E-3,-9.543999E-3,-3.3204563E-4,9.430275E-3,1.6271498E-2,5.0118096E-2,4.7368286E-3,-6.277241E-3,-4.8928987E-2,-7.196579E-3,7.3993206E-3],"categories":[],"categories_nodes":[],"categories_segments":[],"categories_sizes":[],"default_left":[0,0,0,0,0,0,0,0,0,0,0,0,0,0,0,0,0,0,0,0,0,0,0,0,0,0,0,0,0,0,0],"id":30,"left_children":[1,3,5,7,9,11,13,15,17,19,21,23,25,27,29,-1,-1,-1,-1,-1,-1,-1,-1,-1,-1,-1,-1,-1,-1,-1,-1],"loss_changes":[7.911928E1,1.8366842E1,1.8510128E1,6.0145454E0,7.1013956E0,6.8230743E0,9.447905E0,8.966883E0,5.7291565E0,4.6686306E0,6.6875477E0,5.5680847E0,1.0964768E1,5.6556883E0,7.3367715E0,0E0,0E0,0E0,0E0,0E0,0E0,0E0,0E0,0E0,0E0,0E0,0E0,0E0,0E0,0E0,0E0],"parents":[2147483647,0,0,1,1,2,2,3,3,4,4,5,5,6,6,7,7,8,8,9,9,10,10,11,11,12,12,13,13,14,14],"right_children":[2,4,6,8,10,12,14,16,18,20,22,24,26,28,30,-1,-1,-1,-1,-1,-1,-1,-1,-1,-1,-1,-1,-1,-1,-1,-1],"split_conditions":[1.986166E-1,1.215415E-1,4.8481658E-1,8.269476E-2,2.2771074E-1,1.3800421E-1,1.3438632E-1,1.7797461E-1,1.5986924E-1,6.6975045E-1,1.6393442E-2,5.427194E-1,1.8529893E-1,3.9624506E-1,2.3666008E-1,1.257621E-1,-1.7705237E-2,2.582468E-2,-1.3695456E-2,8.330151E-2,1.1067999E-3,-9.543999E-3,-3.3204563E-4,9.430275E-3,1.6271498E-2,5.0118096E-2,4.7368286E-3,-6.277241E-3,-4.8928987E-2,-7.196579E-3,7.3993206E-3],"split_indices":[24,24,10,6,10,21,22,22,1,3,14,0,19,24,24,0,0,0,0,0,0,0,0,0,0,0,0,0,0,0,0],"split_type":[0,0,0,0,0,0,0,0,0,0,0,0,0,0,0,0,0,0,0,0,0,0,0,0,0,0,0,0,0,0,0],"sum_hessian":[1.6977441E4,7.029581E3,9.94786E3,2.614339E3,4.4152417E3,6.910224E3,3.0376365E3,1.6193401E1,2.5981458E3,2.7224882E1,4.388017E3,4.7789863E3,2.1312378E3,8.112494E2,2.226387E3,6.792429E0,9.400972E0,3.6328342E1,2.5618174E3,1.5030606E1,1.2194277E1,1.0286285E3,3.3593884E3,2.4894854E3,2.2895012E3,5.365837E1,2.0775793E3,7.798328E2,3.1416525E1,4.248742E2,1.8015128E3],"tree_param":{"num_deleted":"0","num_feature":"27","num_nodes":"31","size_leaf_vector":"1"}},{"base_weights":[-6.1701104E-2,-7.84481E-2,-3.510222E-2,-7.9973556E-2,4.6072954E-1,-3.6716662E-2,4.0674162E-1,-1.7311496E-1,-7.4425474E-2,1.6846304E-1,3.098579E-1,-2.6423108E-2,-1.2492419E-1,9.2690235E-1,-1.4984646E-1,-1.5001768E-2,-4.4634365E-2,-6.82455E-3,-1.4370607E-2,-9.472486E-3,7.401723E-2,-5.753723E-4,-6.3747936E-3,-1.0355784E-2,-3.28948E-2,-1.6522907E-2,1.2384488E-1,-5.270868E-2,2.4417441E-2],"categories":[],"categories_nodes":[],"categories_segments":[],"categories_sizes":[],"default_left":[0,0,0,0,0,0,0,0,0,0,0,0,0,0,0,0,0,0,0,0,0,0,0,0,0,0,0,0,0],"id":31,"left_children":[1,3,5,7,9,11,13,15,17,-1,19,21,23,25,27,-1,-1,-1,-1,-1,-1,-1,-1,-1,-1,-1,-1,-1,-1],"loss_changes":[7.222786E0,8.223015E0,4.486675E0,5.116268E0,4.690253E0,5.668685E0,6.7702007E0,3.4497128E0,4.0017395E0,0E0,4.6584706E0,4.3163404E0,2.8105364E0,4.2804937E0,1.901362E0,0E0,0E0,0E0,0E0,0E0,0E0,0E0,0E0,0E0,0E0,0E0,0E0,0E0,0E0],"parents":[2147483647,0,0,1,1,2,2,3,3,4,4,5,5,6,6,7,7,8,8,10,10,11,11,12,12,13,13,14,14],"right_children":[2,4,6,8,10,12,14,16,18,-1,20,22,24,26,28,-1,-1,-1,-1,-1,-1,-1,-1,-1,-1,-1,-1,-1,-1],"split_conditions":[6.308912E-1,9.7768795E-1,7.5966084E-1,7.136749E-2,8.6098653E-1,3.0039525E-1,2.3190366E-1,5.578063E-1,1E0,1.6846304E-1,4.4444445E-1,9.7309417E-1,2.8198433E-1,5.302802E-1,7.098022E-1,-1.5001768E-2,-4.4634365E-2,-6.82455E-3,-1.4370607E-2,-9.472486E-3,7.401723E-2,-5.753723E-4,-6.3747936E-3,-1.0355784E-2,-3.28948E-2,-1.6522907E-2,1.2384488E-1,-5.270868E-2,2.4417441E-2],"split_indices":[19,3,9,3,13,24,22,24,13,0,12,13,26,11,23,0,0,0,0,0,0,0,0,0,0,0,0,0,0],"split_type":[0,0,0,0,0,0,0,0,0,0,0,0,0,0,0,0,0,0,0,0,0,0,0,0,0,0,0,0,0],"sum_hessian":[1.6219706E4,9.951908E3,6.267798E3,9.924681E3,2.7227434E1,6.245893E3,2.1904865E1,5.562432E2,9.3684375E3,1.8723745E0,2.535506E1,5.5943486E3,6.5154425E2,1.0979045E1,1.0925821E1,5.143149E2,4.1928345E1,8.603016E3,7.6542194E2,1.3470205E1,1.1884854E1,3.601242E3,1.9931069E3,5.911443E2,6.0399925E1,2.5410385E0,8.438006E0,5.4092383E0,5.516583E0],"tree_param":{"num_deleted":"0","num_feature":"27","num_nodes":"29","size_leaf_vector":"1"}},{"base_weights":[-1.5543656E-2,1.4589724E-1,-1.6203421E-1,2.4131492E-1,5.0610095E-2,-1.2565272E-1,-2.8076166E-1,1.958484E-1,3.537259E-1,2.1145113E-2,2.2137886E-1,-1.6252348E-1,-3.5336882E-2,-2.9999226E-1,-1.6527267E-1,2.7513966E-2,1.0498012E-2,1.6386239E-2,3.8233962E-2,-2.2225527E-3,8.354987E-3,-1.0711021E-3,2.5814012E-2,-1.8266013E-2,-9.117905E-3,-1.60199E-3,-2.2254093E-2,-2.4049843E-2,-3.2305192E-2,-7.846157E-3,-3.0963188E-2],"categories":[],"categories_nodes":[],"categories_segments":[],"categories_sizes":[],"default_left":[0,0,0,0,0,0,0,0,0,0,0,0,0,0,0,0,0,0,0,0,0,0,0,0,0,0,0,0,0,0,0],"id":32,"left_children":[1,3,5,7,9,11,13,15,17,19,21,23,25,27,29,-1,-1,-1,-1,-1,-1,-1,-1,-1,-1,-1,-1,-1,-1,-1,-1],"loss_changes":[3.930546E2,7.187494E1,3.7602066E1,2.0120544E1,1.990704E1,2.2210205E1,4.4876404E0,2.0252762E1,6.111038E0,9.139224E0,4.970186E0,6.7889023E0,6.9948716E0,2.323288E0,3.6582155E0,0E0,0E0,0E0,0E0,0E0,0E0,0E0,0E0,0E0,0E0,0E0,0E0,0E0,0E0,0E0,0E0],"parents":[2147483647,0,0,1,1,2,2,3,3,4,4,5,5,6,6,7,7,8,8,9,9,10,10,11,11,12,12,13,13,14,14],"right_children":[2,4,6,8,10,12,14,16,18,20,22,24,26,28,30,-1,-1,-1,-1,-1,-1,-1,-1,-1,-1,-1,-1,-1,-1,-1,-1],"split_conditions":[1.986166E-1,1.333992E-1,3.389328E-1,5.4003334E-1,5.859049E-1,4.9356222E-1,7.7463907E-1,1.4531384E-1,9.551569E-1,4.7073478E-1,4.1775458E-2,6.71694E-1,3.7480512E-1,2.9508196E-2,4.0859684E-1,2.7513966E-2,1.0498012E-2,1.6386239E-2,3.8233962E-2,-2.2225527E-3,8.354987E-3,-1.0711021E-3,2.5814012E-2,-1.8266013E-2,-9.117905E-3,-1.60199E-3,-2.2254093E-2,-2.4049843E-2,-3.2305192E-2,-7.846157E-3,-3.0963188E-2],"split_indices":[24,24,24,9,9,10,5,23,13,11,26,0,20,14,24,0,0,0,0,0,0,0,0,0,0,0,0,0,0,0,0],"split_type":[0,0,0,0,0,0,0,0,0,0,0,0,0,0,0,0,0,0,0,0,0,0,0,0,0,0,0,0,0,0,0],"sum_hessian":[1.6617951E4,7.9055693E3,8.712382E3,3.9493132E3,3.956256E3,6.670429E3,2.0419524E3,2.813919E3,1.1353943E3,3.3750398E3,5.812162E2,4.7361367E3,1.9342924E3,1.7491036E3,2.9284885E2,1.5016008E3,1.3123181E3,1.4958226E2,9.858121E2,1.9915664E3,1.3834735E3,7.956925E1,5.0164694E2,3.6924102E3,1.0437267E3,1.754352E3,1.7994035E2,4.9176947E2,1.2573341E3,1.8383955E2,1.0900928E2],"tree_param":{"num_deleted":"0","num_feature":"27","num_nodes":"31","size_leaf_vector":"1"}},{"base_weights":[2.7232172E-3,-5.5657316E-2,1.2198558E-2,1.0432406E-1,-7.031705E-2,4.0613976E-3,5.9485048E-2,-2.9720068E-1,1.5837206E-1,-7.64736E-2,2.878136E-1,5.344045E-3,-3.3591682E-1,7.7265166E-2,-9.717817E-2,1.4074409E-2,-4.2293545E-2,-5.3968495E-3,3.0770063E-2,9.172866E-3,-8.999382E-3,1.6913338E-2,1.1363776E-1,3.2590744E-3,-9.977106E-4,-4.146659E-2,1.4806913E-2,7.0746164E-3,4.2939063E-2,-4.4406995E-2,-1.4998363E-3],"categories":[],"categories_nodes":[],"categories_segments":[],"categories_sizes":[],"default_left":[0,0,0,0,0,0,0,0,0,0,0,0,0,0,0,0,0,0,0,0,0,0,0,0,0,0,0,0,0,0,0],"id":33,"left_children":[1,3,5,7,9,11,13,15,17,19,21,23,25,27,29,-1,-1,-1,-1,-1,-1,-1,-1,-1,-1,-1,-1,-1,-1,-1,-1],"loss_changes":[9.302747E0,5.5148134E0,5.566894E0,4.333688E0,4.7663937E0,5.385235E0,5.924299E0,1.3690538E0,5.5574746E0,4.820813E0,3.4912708E0,5.134919E0,1.8304782E0,4.34991E0,6.1779385E0,0E0,0E0,0E0,0E0,0E0,0E0,0E0,0E0,0E0,0E0,0E0,0E0,0E0,0E0,0E0,0E0],"parents":[2147483647,0,0,1,1,2,2,3,3,4,4,5,5,6,6,7,7,8,8,9,9,10,10,11,11,12,12,13,13,14,14],"right_children":[2,4,6,8,10,12,14,16,18,20,22,24,26,28,30,-1,-1,-1,-1,-1,-1,-1,-1,-1,-1,-1,-1,-1,-1,-1,-1],"split_conditions":[1.6122098E-1,2.0278576E-1,2.4638946E-1,3.9711934E-1,2.1795903E-1,5.130287E-1,7.145596E-1,3.1332082E-1,1.00296445E-1,5.285161E-1,9.6190625E-1,5.2742124E-1,6.9733447E-1,2.0983607E-1,7.406001E-1,1.4074409E-2,-4.2293545E-2,-5.3968495E-3,3.0770063E-2,9.172866E-3,-8.999382E-3,1.6913338E-2,1.1363776E-1,3.2590744E-3,-9.977106E-4,-4.146659E-2,1.4806913E-2,7.0746164E-3,4.2939063E-2,-4.4406995E-2,-1.4998363E-3],"split_indices":[23,6,22,12,21,20,19,11,24,19,3,2,23,14,19,0,0,0,0,0,0,0,0,0,0,0,0,0,0,0,0],"split_type":[0,0,0,0,0,0,0,0,0,0,0,0,0,0,0,0,0,0,0,0,0,0,0,0,0,0,0,0,0,0,0],"sum_hessian":[1.6814764E4,2.3473196E3,1.4467443E4,1.9652542E2,2.1507942E3,1.2344296E4,2.1231472E3,2.2781551E1,1.7374387E2,2.1152185E3,3.557584E1,1.229888E4,4.5416122E1,1.9072008E3,2.1594637E2,5.055043E0,1.772651E1,7.200029E1,1.0174357E2,1.5694261E2,1.9582758E3,3.226287E1,3.3129697E0,4.426245E3,7.872635E3,3.9183777E1,6.2323437E0,1.8737131E3,3.348769E1,4.0516644E1,1.7542972E2],"tree_param":{"num_deleted":"0","num_feature":"27","num_nodes":"31","size_leaf_vector":"1"}},{"base_weights":[5.044748E-2,-5.9407298E-2,1.0040612E-1,-1.9442637E-1,-3.6583144E-2,6.854068E-2,1.6119756E-1,4.708943E-2,-2.4292189E-1,-1.272359E-3,-1.1136986E-1,8.451959E-2,-3.2160792E-2,1.710357E-1,-1.3831112E-1,1.8063283E-2,-3.1471346E-2,-2.5591025E-2,4.005333E-2,1.2633358E-2,-2.059559E-3,-1.4298166E-2,8.1653055E-4,1.4116736E-2,6.2719644E-3,1.9782942E-3,-1.6753051E-2,5.756202E-3,1.8818839E-2,9.7352736E-2,-1.7178467E-2],"categories":[],"categories_nodes":[],"categories_segments":[],"categories_sizes":[],"default_left":[0,0,0,0,0,0,0,0,0,0,0,0,0,0,0,0,0,0,0,0,0,0,0,0,0,0,0,0,0,0,0],"id":34,"left_children":[1,3,5,7,9,11,13,15,17,19,21,23,25,27,29,-1,-1,-1,-1,-1,-1,-1,-1,-1,-1,-1,-1,-1,-1,-1,-1],"loss_changes":[9.480784E1,1.6635637E1,2.2991135E1,9.155146E0,1.2202452E1,1.2541378E1,1.2054405E1,6.404802E0,5.5373383E0,7.744684E0,5.6012135E0,8.296585E0,7.5120544E0,7.6841965E0,5.020421E0,0E0,0E0,0E0,0E0,0E0,0E0,0E0,0E0,0E0,0E0,0E0,0E0,0E0,0E0,0E0,0E0],"parents":[2147483647,0,0,1,1,2,2,3,3,4,4,5,5,6,6,7,7,8,8,9,9,10,10,11,11,12,12,13,13,14,14],"right_children":[2,4,6,8,10,12,14,16,18,20,22,24,26,28,30,-1,-1,-1,-1,-1,-1,-1,-1,-1,-1,-1,-1,-1,-1,-1,-1],"split_conditions":[1.6996047E-1,7.806324E-2,4.6646604E-1,3.9266336E-1,4.7574702E-1,5.2384806E-1,7.972787E-1,1.3701162E-1,1.790654E-1,4.9624005E-1,2.7171108E-1,4.8425284E-1,6.560678E-1,2.1322453E-1,4.3675553E-2,1.8063283E-2,-3.1471346E-2,-2.5591025E-2,4.005333E-2,1.2633358E-2,-2.059559E-3,-1.4298166E-2,8.1653055E-4,1.4116736E-2,6.2719644E-3,1.9782942E-3,-1.6753051E-2,5.756202E-3,1.8818839E-2,9.7352736E-2,-1.7178467E-2],"split_indices":[24,24,23,10,10,10,19,21,22,19,23,19,3,5,22,0,0,0,0,0,0,0,0,0,0,0,0,0,0,0,0],"split_type":[0,0,0,0,0,0,0,0,0,0,0,0,0,0,0,0,0,0,0,0,0,0,0,0,0,0,0,0,0,0,0],"sum_hessian":[1.727278E4,5.399516E3,1.1873263E4,7.796836E2,4.6198325E3,7.791349E3,4.0819138E3,1.3038307E2,6.493005E2,3.1388374E3,1.4809949E3,6.724494E3,1.0668553E3,3.9525122E3,1.2940169E2,9.559806E1,3.4785015E1,6.370438E2,1.2256653E1,4.1207254E2,2.726765E3,1.1710955E3,3.098994E2,1.8671572E3,4.857337E3,7.716236E2,2.952317E2,5.195801E2,3.4329321E3,2.9611847E0,1.264405E2],"tree_param":{"num_deleted":"0","num_feature":"27","num_nodes":"31","size_leaf_vector":"1"}},{"base_weights":[1.8926483E-2,-6.323446E-2,6.863773E-2,-1.2067459E-1,-2.4301644E-2,1.01056494E-1,1.610529E-2,1.38821E-1,-1.2940468E-1,-5.1447633E-3,-1.0343287E-1,1.13157295E-1,3.917814E-3,-1.2678088E-2,1.0448448E-1,-3.2030877E-3,5.5342373E-2,-2.0438343E-2,-1.0535636E-2,-1.4177333E-3,2.6561549E-2,3.302712E-2,-1.2746473E-2,1.44383535E-2,7.646506E-3,3.2393911E-3,-2.7928188E-2,-1.6735969E-3,4.46855E-2,-1.775875E-2,1.432412E-2],"categories":[],"categories_nodes":[],"categories_segments":[],"categories_sizes":[],"default_left":[0,0,0,0,0,0,0,0,0,0,0,0,0,0,0,0,0,0,0,0,0,0,0,0,0,0,0,0,0,0,0],"id":35,"left_children":[1,3,5,7,9,11,13,15,17,19,21,23,25,27,29,-1,-1,-1,-1,-1,-1,-1,-1,-1,-1,-1,-1,-1,-1,-1,-1],"loss_changes":[6.942637E1,1.432703E1,1.8034077E1,5.8817863E0,5.790943E0,7.6972656E0,1.02851715E1,6.019537E0,4.4946823E0,7.5287952E0,7.802615E0,6.6609955E0,5.8674893E0,5.6955905E0,1.0883965E1,0E0,0E0,0E0,0E0,0E0,0E0,0E0,0E0,0E0,0E0,0E0,0E0,0E0,0E0,0E0,0E0],"parents":[2147483647,0,0,1,1,2,2,3,3,4,4,5,5,6,6,7,7,8,8,9,9,10,10,11,11,12,12,13,13,14,14],"right_children":[2,4,6,8,10,12,14,16,18,20,22,24,26,28,30,-1,-1,-1,-1,-1,-1,-1,-1,-1,-1,-1,-1,-1,-1,-1,-1],"split_conditions":[1.8873517E-1,1.215415E-1,4.624666E-1,3.8476917E-1,5.2037644E-1,2.7415144E-1,3.4140316E-1,9.585928E-1,8.684437E-2,9.6182853E-1,1.8809801E-1,9.0274334E-2,5.0481343E-1,9.5490104E-1,3.1315613E-1,-3.2030877E-3,5.5342373E-2,-2.0438343E-2,-1.0535636E-2,-1.4177333E-3,2.6561549E-2,3.302712E-2,-1.2746473E-2,1.44383535E-2,7.646506E-3,3.2393911E-3,-2.7928188E-2,-1.6735969E-3,4.46855E-2,-1.775875E-2,1.432412E-2],"split_indices":[24,24,10,11,11,26,24,1,23,0,2,21,11,6,19,0,0,0,0,0,0,0,0,0,0,0,0,0,0,0,0],"split_type":[0,0,0,0,0,0,0,0,0,0,0,0,0,0,0,0,0,0,0,0,0,0,0,0,0,0,0,0,0,0,0],"sum_hessian":[1.6996193E4,6.406873E3,1.058932E4,2.5874058E3,3.8194675E3,6.547692E3,4.0416284E3,8.372867E1,2.503677E3,3.0758901E3,7.435773E2,5.8222363E3,7.254554E2,3.049366E3,9.9226245E2,5.9947784E1,2.3780888E1,6.061866E2,1.8974905E3,2.977508E3,9.838211E1,3.8369953E1,7.0520734E2,3.143816E3,2.6784204E3,6.5997925E2,6.547615E1,3.0236294E3,2.5736414E1,1.1943445E2,8.72828E2],"tree_param":{"num_deleted":"0","num_feature":"27","num_nodes":"31","size_leaf_vector":"1"}},{"base_weights":[-5.802603E-2,-6.448259E-2,5.3654546E-3,-7.313439E-2,-1.9283965E-2,-1.5358636E-1,2.2659125E-2,-7.072033E-2,-2.4208647E-1,1.374792E-1,-3.3352576E-2,-1.7923725E-1,8.546921E-1,-1.2761912E-1,4.5411747E-2,-7.2834506E-3,1.0487725E-2,-1.2672496E-2,-3.933297E-2,1.6066011E-2,-5.250984E-2,-1.1810217E-4,-1.11987395E-2,5.879971E-3,-3.240824E-2,1.4353983E-1,1.1916504E-3,-1.6406124E-2,4.4262793E-2,1.1624644E-2,-1.5692207E-3],"categories":[],"categories_nodes":[],"categories_segments":[],"categories_sizes":[],"default_left":[0,0,0,0,0,0,0,0,0,0,0,0,0,0,0,0,0,0,0,0,0,0,0,0,0,0,0,0,0,0,0],"id":36,"left_children":[1,3,5,7,9,11,13,15,17,19,21,23,25,27,29,-1,-1,-1,-1,-1,-1,-1,-1,-1,-1,-1,-1,-1,-1,-1,-1],"loss_changes":[6.606449E0,5.7268753E0,4.107238E0,4.997383E0,5.198033E0,3.9451392E0,4.6124444E0,4.5081863E0,2.9648323E0,3.0659487E0,5.468573E0,4.977219E0,1.8478973E0,3.7596333E0,5.069618E0,0E0,0E0,0E0,0E0,0E0,0E0,0E0,0E0,0E0,0E0,0E0,0E0,0E0,0E0,0E0,0E0],"parents":[2147483647,0,0,1,1,2,2,3,3,4,4,5,5,6,6,7,7,8,8,9,9,10,10,11,11,12,12,13,13,14,14],"right_children":[2,4,6,8,10,12,14,16,18,20,22,24,26,28,30,-1,-1,-1,-1,-1,-1,-1,-1,-1,-1,-1,-1,-1,-1,-1,-1],"split_conditions":[7.8061944E-1,9.10774E-1,5.9601203E-2,5.2272725E-1,9.155718E-1,6.221852E-1,1.764294E-1,1.6308725E-1,4.485283E-1,8.727419E-1,1.10738255E-1,4.646658E-1,5.329986E-1,3.7920502E-1,9.506726E-1,-7.2834506E-3,1.0487725E-2,-1.2672496E-2,-3.933297E-2,1.6066011E-2,-5.250984E-2,-1.1810217E-4,-1.11987395E-2,5.879971E-3,-3.240824E-2,1.4353983E-1,1.1916504E-3,-1.6406124E-2,4.4262793E-2,1.1624644E-2,-1.5692207E-3],"split_indices":[19,2,22,24,0,9,2,4,11,5,4,7,10,22,13,0,0,0,0,0,0,0,0,0,0,0,0,0,0,0,0],"split_type":[0,0,0,0,0,0,0,0,0,0,0,0,0,0,0,0,0,0,0,0,0,0,0,0,0,0,0,0,0,0,0],"sum_hessian":[1.613937E4,1.4647476E4,1.4918943E3,1.2293641E4,2.3538352E3,1.4561528E2,1.3462789E3,1.2121856E4,1.7178423E2,1.9312439E2,2.1607107E3,1.4280453E2,2.8107543E0,1.7642235E2,1.1698567E3,1.1978225E4,1.4363138E2,9.849477E1,7.328947E1,1.8732805E2,5.796328E0,1.5340896E3,6.266211E2,5.4247997E1,8.855653E1,1.2477942E0,1.5629601E0,1.6649466E2,9.927685E0,5.413708E2,6.2848584E2],"tree_param":{"num_deleted":"0","num_feature":"27","num_nodes":"31","size_leaf_vector":"1"}},{"base_weights":[-1.4941976E-2,1.3510771E-1,-1.5420297E-1,2.2217825E-1,4.7116786E-2,-1.1634394E-1,-2.621202E-1,1.8037386E-1,3.2473516E-1,-1.7461311E-2,1.15463935E-1,-1.5276837E-1,-2.792065E-2,-2.815683E-1,-1.6473939E-1,2.5271932E-2,9.66647E-3,3.362647E-2,-9.3278205E-3,1.512714E-2,-3.920789E-3,7.644269E-3,2.286283E-2,-1.5407915E-2,9.2555635E-2,4.853292E-2,-3.497716E-3,-2.9054567E-2,-9.446856E-3,-9.344596E-3,-3.28857E-2],"categories":[],"categories_nodes":[],"categories_segments":[],"categories_sizes":[],"default_left":[0,0,0,0,0,0,0,0,0,0,0,0,0,0,0,0,0,0,0,0,0,0,0,0,0,0,0,0,0,0,0],"id":37,"left_children":[1,3,5,7,9,11,13,15,17,19,21,23,25,27,29,-1,-1,-1,-1,-1,-1,-1,-1,-1,-1,-1,-1,-1,-1,-1,-1],"loss_changes":[3.4652103E2,6.114595E1,3.510884E1,1.7141785E1,1.7531054E1,2.0508263E1,4.182358E0,1.7249535E1,5.624527E0,7.5021143E0,8.503132E0,6.5180054E0,6.7510276E0,3.0962982E0,4.3464966E0,0E0,0E0,0E0,0E0,0E0,0E0,0E0,0E0,0E0,0E0,0E0,0E0,0E0,0E0,0E0,0E0],"parents":[2147483647,0,0,1,1,2,2,3,3,4,4,5,5,6,6,7,7,8,8,9,9,10,10,11,11,12,12,13,13,14,14],"right_children":[2,4,6,8,10,12,14,16,18,20,22,24,26,28,30,-1,-1,-1,-1,-1,-1,-1,-1,-1,-1,-1,-1,-1,-1,-1,-1],"split_conditions":[1.986166E-1,1.333992E-1,3.305336E-1,5.4003334E-1,4.6842802E-1,4.9356222E-1,7.5891054E-1,1.4531384E-1,4.896206E-2,5.047034E-1,5.859049E-1,7.983663E-1,2.16681E-1,6.780689E-1,6.5692174E-1,2.5271932E-2,9.66647E-3,3.362647E-2,-9.3278205E-3,1.512714E-2,-3.920789E-3,7.644269E-3,2.286283E-2,-1.5407915E-2,9.2555635E-2,4.853292E-2,-3.497716E-3,-2.9054567E-2,-9.446856E-3,-9.344596E-3,-3.28857E-2],"split_indices":[24,24,24,9,11,10,5,23,21,3,9,23,23,3,23,0,0,0,0,0,0,0,0,0,0,0,0,0,0,0,0],"split_type":[0,0,0,0,0,0,0,0,0,0,0,0,0,0,0,0,0,0,0,0,0,0,0,0,0,0,0,0,0,0,0],"sum_hessian":[1.6581076E4,7.9813896E3,8.599687E3,4.0109094E3,3.97048E3,6.367831E3,2.2318555E3,2.8513833E3,1.159526E3,2.0419137E3,1.9285663E3,4.509495E3,1.8583357E3,1.8587496E3,3.7310574E2,1.5284258E3,1.3229576E3,1.128593E3,3.0933033E1,2.324405E2,1.8094733E3,1.4353169E3,4.9324942E2,4.5048765E3,4.6189303E0,2.428394E1,1.8340518E3,1.7731195E3,8.56302E1,2.6120605E2,1.118997E2],"tree_param":{"num_deleted":"0","num_feature":"27","num_nodes":"31","size_leaf_vector":"1"}},{"base_weights":[2.713113E-3,-1.0390259E-2,4.0053345E-2,-5.2140452E-2,-7.392782E-4,4.1957363E-2,-5.7201363E-2,-1.8961316E-2,-1.2115038E-1,5.2314224E-3,-6.821766E-2,3.177042E-2,1.4717335E-1,-4.881292E-3,9.109395E-3,-6.101697E-3,-2.0545164E-2,-7.0591125E-4,4.046964E-3,-4.2161774E-3,-3.791551E-2,3.04005E-3,8.831413E-2,1.6802084E-2,-3.0622128E-2],"categories":[],"categories_nodes":[],"categories_segments":[],"categories_sizes":[],"default_left":[0,0,0,0,0,0,0,0,0,0,0,0,0,0,0,0,0,0,0,0,0,0,0,0,0],"id":38,"left_children":[1,3,5,7,9,11,-1,13,15,17,19,21,23,-1,-1,-1,-1,-1,-1,-1,-1,-1,-1,-1,-1],"loss_changes":[8.227701E0,5.015586E0,5.114545E0,5.3491035E0,4.0742908E0,4.6636763E0,0E0,5.193672E0,3.8333397E0,4.024031E0,6.6440954E0,4.606082E0,3.6829348E0,0E0,0E0,0E0,0E0,0E0,0E0,0E0,0E0,0E0,0E0,0E0,0E0],"parents":[2147483647,0,0,1,1,2,2,3,3,4,4,5,5,7,7,8,8,9,9,10,10,11,11,12,12],"right_children":[2,4,6,8,10,12,-1,14,16,18,20,22,24,-1,-1,-1,-1,-1,-1,-1,-1,-1,-1,-1,-1],"split_conditions":[2.875494E-1,1.6122098E-1,9.4092464E-1,6.340597E-1,8.075348E-1,2.8981724E-1,-5.7201363E-2,1.0375671E-1,1.383812E-1,1.9321148E-1,4.484093E-1,8.966057E-1,7.781599E-1,-4.881292E-3,9.109395E-3,-6.101697E-3,-2.0545164E-2,-7.0591125E-4,4.046964E-3,-4.2161774E-3,-3.791551E-2,3.04005E-3,8.831413E-2,1.6802084E-2,-3.0622128E-2],"split_indices":[24,23,1,6,19,26,0,22,26,26,23,7,23,0,0,0,0,0,0,0,0,0,0,0,0],"split_type":[0,0,0,0,0,0,0,0,0,0,0,0,0,0,0,0,0,0,0,0,0,0,0,0,0],"sum_hessian":[1.6813982E4,1.244687E4,4.3671133E3,2.3361729E3,1.0110697E4,4.354499E3,1.2614537E1,1.5785162E3,7.576566E2,9.289643E3,8.210545E2,3.9713018E3,3.8319708E2,1.2421495E3,3.3636664E2,4.4322266E2,3.1443393E2,6.888012E3,2.4016304E3,7.5861945E2,6.2435078E1,3.965956E3,5.345808E0,3.6695364E2,1.6243433E1],"tree_param":{"num_deleted":"0","num_feature":"27","num_nodes":"25","size_leaf_vector":"1"}},{"base_weights":[4.7144532E-2,-4.370648E-2,9.988184E-2,-1.2430489E-1,-6.7236577E-3,6.987251E-2,1.4975382E-1,-4.456477E-2,-1.932861E-1,2.88774E-2,-1.04935594E-1,1.1928781E-1,4.5661196E-2,1.5861258E-1,-1.2794156E-1,3.141877E-2,-5.794642E-3,-8.866283E-3,-2.4862302E-2,2.0228496E-3,2.8222373E-2,1.631006E-3,-1.4893408E-2,1.5893288E-2,-2.2015169E-3,8.043269E-3,-3.1297558E-3,1.4688722E-2,3.2293826E-2,5.8580853E-2,-1.876804E-2],"categories":[],"categories_nodes":[],"categories_segments":[],"categories_sizes":[],"default_left":[0,0,0,0,0,0,0,0,0,0,0,0,0,0,0,0,0,0,0,0,0,0,0,0,0,0,0,0,0,0,0],"id":39,"left_children":[1,3,5,7,9,11,13,15,17,19,21,23,25,27,29,-1,-1,-1,-1,-1,-1,-1,-1,-1,-1,-1,-1,-1,-1,-1,-1],"loss_changes":[8.30363E1,1.8973661E1,1.640046E1,1.1004274E1,1.5263383E1,8.187317E0,1.0151947E1,4.482604E0,6.191204E0,7.015072E0,6.198078E0,1.2614651E1,1.230553E1,7.643532E0,5.562394E0,0E0,0E0,0E0,0E0,0E0,0E0,0E0,0E0,0E0,0E0,0E0,0E0,0E0,0E0,0E0,0E0],"parents":[2147483647,0,0,1,1,2,2,3,3,4,4,5,5,6,6,7,7,8,8,9,9,10,10,11,11,12,12,13,13,14,14],"right_children":[2,4,6,8,10,12,14,16,18,20,22,24,26,28,30,-1,-1,-1,-1,-1,-1,-1,-1,-1,-1,-1,-1,-1,-1,-1,-1],"split_conditions":[1.8626483E-1,1.5477215E-1,4.6646604E-1,4.2651227E-1,4.925905E-1,4.9936715E-1,7.972787E-1,3.402639E-1,6.323989E-1,1.83333E-1,5.677909E-1,2.4638946E-1,6.536578E-1,7.285757E-1,8.0980845E-2,3.141877E-2,-5.794642E-3,-8.866283E-3,-2.4862302E-2,2.0228496E-3,2.8222373E-2,1.631006E-3,-1.4893408E-2,1.5893288E-2,-2.2015169E-3,8.043269E-3,-3.1297558E-3,1.4688722E-2,3.2293826E-2,5.8580853E-2,-1.876804E-2],"split_indices":[24,23,23,10,10,19,19,11,19,20,19,22,0,19,22,0,0,0,0,0,0,0,0,0,0,0,0,0,0,0,0],"split_type":[0,0,0,0,0,0,0,0,0,0,0,0,0,0,0,0,0,0,0,0,0,0,0,0,0,0,0,0,0,0,0],"sum_hessian":[1.7328955E4,6.364664E3,1.096429E4,2.001135E3,4.3635293E3,6.846791E3,4.117499E3,9.2894727E2,1.0721877E3,3.2031267E3,1.1604025E3,2.2502017E3,4.5965894E3,3.9906233E3,1.2687588E2,3.2595886E1,8.963514E2,3.718147E2,7.003731E2,3.0984302E3,1.04696434E2,3.0914044E2,8.5126196E2,1.7570931E3,4.931086E2,3.166057E3,1.4305322E3,3.7266072E3,2.64016E2,9.118875E0,1.17757E2],"tree_param":{"num_deleted":"0","num_feature":"27","num_nodes":"31","size_leaf_vector":"1"}},{"base_weights":[1.77917E-2,-5.4253336E-2,6.7714185E-2,-1.0984775E-1,-1.6481511E-2,9.7570494E-2,1.8112637E-2,-1.9455153E-1,-8.569755E-2,-1.8032895E-2,1.0151967E0,9.6369475E-2,9.8680615E-1,3.4781018E-1,1.2058982E-2,-3.32744E-2,-1.3946985E-2,-5.2008675E-3,-1.6464865E-2,2.2242013E-4,-9.825184E-3,1.2194055E-1,8.085539E-3,3.1408772E-3,1.09056095E-2,1.1799101E-1,2.8947326E-3,4.5305457E-2,-5.3681582E-2,-6.0649137E-3,3.9031715E-3],"categories":[],"categories_nodes":[],"categories_segments":[],"categories_sizes":[],"default_left":[0,0,0,0,0,0,0,0,0,0,0,0,0,0,0,0,0,0,0,0,0,0,0,0,0,0,0,0,0,0,0],"id":40,"left_children":[1,3,5,7,9,11,13,15,17,19,21,23,25,27,29,-1,-1,-1,-1,-1,-1,-1,-1,-1,-1,-1,-1,-1,-1,-1,-1],"loss_changes":[6.1197323E1,1.4623051E1,1.488213E1,5.746578E0,6.6575804E0,6.6052284E0,7.535591E0,4.7054577E0,5.82724E0,6.732491E0,1.0931258E0,5.1609154E0,1.5110216E0,6.581252E0,7.2793756E0,0E0,0E0,0E0,0E0,0E0,0E0,0E0,0E0,0E0,0E0,0E0,0E0,0E0,0E0,0E0,0E0],"parents":[2147483647,0,0,1,1,2,2,3,3,4,4,5,5,6,6,7,7,8,8,9,9,10,10,11,11,12,12,13,13,14,14],"right_children":[2,4,6,8,10,12,14,16,18,20,22,24,26,28,30,-1,-1,-1,-1,-1,-1,-1,-1,-1,-1,-1,-1,-1,-1,-1,-1],"split_conditions":[1.986166E-1,1.2648222E-1,4.777166E-1,8.684437E-2,4.140811E-1,3.0163935E-1,6.474977E-2,4.056199E-1,1.8013757E-1,2.1409921E-1,1.2080537E-1,9.917536E-2,7.781599E-1,8.075348E-1,1.3294646E-1,-3.32744E-2,-1.3946985E-2,-5.2008675E-3,-1.6464865E-2,2.2242013E-4,-9.825184E-3,1.2194055E-1,8.085539E-3,3.1408772E-3,1.09056095E-2,1.1799101E-1,2.8947326E-3,4.5305457E-2,-5.3681582E-2,-6.0649137E-3,3.9031715E-3],"split_indices":[24,24,11,23,21,14,22,10,23,26,4,22,23,19,22,0,0,0,0,0,0,0,0,0,0,0,0,0,0,0,0],"split_type":[0,0,0,0,0,0,0,0,0,0,0,0,0,0,0,0,0,0,0,0,0,0,0,0,0,0,0,0,0,0,0],"sum_hessian":[1.7012986E4,6.9635444E3,1.0049442E4,2.8163682E3,4.1471763E3,6.272758E3,3.776684E3,6.232704E2,2.1930977E3,4.14193E3,5.245896E0,6.2654043E3,7.353829E0,6.707642E1,3.7096077E3,1.7619075E2,4.4707965E2,1.5383387E3,6.54759E2,3.307647E3,8.342834E2,4.0546246E0,1.1912717E0,1.0242577E3,5.2411465E3,5.9271064E0,1.4267225E0,6.0380753E1,6.695669E0,1.00344836E3,2.7061594E3],"tree_param":{"num_deleted":"0","num_feature":"27","num_nodes":"31","size_leaf_vector":"1"}},{"base_weights":[-5.4548927E-2,-1.600332E-1,-5.082468E-2,-1.3785094E-1,-4.31606E-1,-5.678171E-2,5.169048E-3,-1.7584065E-1,3.526585E-2,-2.5066116E-1,-5.3044724E-1,-6.030966E-2,3.589953E-2,-5.6003015E-2,9.828179E-3,-1.3242358E-2,-4.2275142E-2,-1.1472149E-2,3.0086681E-2,7.192434E-3,-5.265233E-2,-7.261677E-4,-5.672886E-2,-2.6091218E-2,-5.8786883E-3,2.7476597E-4,3.528824E-2,2.6718546E-2,-1.1744278E-4],"categories":[],"categories_nodes":[],"categories_segments":[],"categories_sizes":[],"default_left":[0,0,0,0,0,0,0,0,0,0,0,0,0,0,0,0,0,0,0,0,0,0,0,0,0,0,0,0,0],"id":41,"left_children":[1,3,5,7,9,11,13,15,17,19,21,23,25,-1,27,-1,-1,-1,-1,-1,-1,-1,-1,-1,-1,-1,-1,-1,-1],"loss_changes":[6.3028717E0,3.2379446E0,5.176525E0,3.3439236E0,5.978923E-1,4.588375E0,3.9373899E0,4.4073305E0,3.7059562E0,1.4912665E0,4.8801088E-1,4.112274E0,5.4105425E0,0E0,4.196446E0,0E0,0E0,0E0,0E0,0E0,0E0,0E0,0E0,0E0,0E0,0E0,0E0,0E0,0E0],"parents":[2147483647,0,0,1,1,2,2,3,3,4,4,5,5,6,6,7,7,8,8,9,9,10,10,11,11,12,12,14,14],"right_children":[2,4,6,8,10,12,14,16,18,20,22,24,26,-1,28,-1,-1,-1,-1,-1,-1,-1,-1,-1,-1,-1,-1,-1,-1],"split_conditions":[7.136749E-2,5.578063E-1,7.8061944E-1,4.1996047E-1,8.340807E-1,9.671927E-1,1.14912465E-1,5.0343937E-1,5.271392E-1,6.077075E-1,3.0432751E-2,3.2304525E-1,7.9964525E-1,-5.6003015E-2,3.8003892E-1,-1.3242358E-2,-4.2275142E-2,-1.1472149E-2,3.0086681E-2,7.192434E-3,-5.265233E-2,-7.261677E-4,-5.672886E-2,-2.6091218E-2,-5.8786883E-3,2.7476597E-4,3.528824E-2,2.6718546E-2,-1.1744278E-4],"split_indices":[3,24,19,24,13,0,5,23,6,24,1,12,7,0,9,0,0,0,0,0,0,0,0,0,0,0,0,0,0],"split_type":[0,0,0,0,0,0,0,0,0,0,0,0,0,0,0,0,0,0,0,0,0,0,0,0,0,0,0,0,0],"sum_hessian":[1.606369E4,5.463751E2,1.5517315E4,5.0651056E2,3.9864536E1,1.4025197E4,1.4921188E3,4.1534848E2,9.116207E1,1.5332297E1,2.4532242E1,1.3511235E4,5.1396155E2,1.1224907E1,1.4808939E3,3.545418E2,6.080669E1,5.86244E1,3.2537674E1,7.4083977E0,7.9238997E0,1.692603E0,2.2839638E1,1.0050782E2,1.3410728E4,4.662112E2,4.7750355E1,5.976121E1,1.4211327E3],"tree_param":{"num_deleted":"0","num_feature":"27","num_nodes":"29","size_leaf_vector":"1"}},{"base_weights":[-1.4396546E-2,1.2219128E-1,-1.4975722E-1,2.641528E-1,7.534862E-2,-1.15797475E-1,-2.601446E-1,-2.893567E-1,2.713338E-1,2.1598311E-2,1.5863542E-1,-1.4888312E-1,-3.10846E-2,-2.7919608E-1,-1.4773582E-1,-4.911515E-2,7.0413075E-2,2.5592372E-2,5.0608654E-2,7.0098275E-3,-5.223978E-3,3.691938E-2,1.24977045E-2,-1.6902788E-2,-7.573772E-3,5.742808E-2,-3.7366708E-3,-2.6534307E-3,-2.8492024E-2,-6.3421815E-3,-2.9112905E-2],"categories":[],"categories_nodes":[],"categories_segments":[],"categories_sizes":[],"default_left":[0,0,0,0,0,0,0,0,0,0,0,0,0,0,0,0,0,0,0,0,0,0,0,0,0,0,0,0,0,0,0],"id":42,"left_children":[1,3,5,7,9,11,13,15,17,19,21,23,25,27,29,-1,-1,-1,-1,-1,-1,-1,-1,-1,-1,-1,-1,-1,-1,-1,-1],"loss_changes":[3.0590823E2,5.4745674E1,3.1122421E1,8.198456E0,2.7724022E1,1.7812294E1,4.1439514E0,5.6882353E0,7.1679077E0,1.3488511E1,1.7169895E1,6.7228165E0,6.8162155E0,2.4076233E0,3.431343E0,0E0,0E0,0E0,0E0,0E0,0E0,0E0,0E0,0E0,0E0,0E0,0E0,0E0,0E0,0E0,0E0],"parents":[2147483647,0,0,1,1,2,2,3,3,4,4,5,5,6,6,7,7,8,8,9,9,10,10,11,11,12,12,13,13,14,14],"right_children":[2,4,6,8,10,12,14,16,18,20,22,24,26,28,30,-1,-1,-1,-1,-1,-1,-1,-1,-1,-1,-1,-1,-1,-1,-1,-1],"split_conditions":[2.0158103E-1,9.881423E-2,3.389328E-1,1.2547892E-1,4.676492E-1,4.9728724E-1,7.7463907E-1,2.1794145E-1,8.684871E-1,2.300086E-1,1.6122098E-1,6.71694E-1,2.149613E-1,1.1829502E-1,4.0859684E-1,-4.911515E-2,7.0413075E-2,2.5592372E-2,5.0608654E-2,7.0098275E-3,-5.223978E-3,3.691938E-2,1.24977045E-2,-1.6902788E-2,-7.573772E-3,5.742808E-2,-3.7366708E-3,-2.6534307E-3,-2.8492024E-2,-6.3421815E-3,-2.9112905E-2],"split_indices":[24,24,24,6,10,10,5,22,5,23,23,0,23,6,24,0,0,0,0,0,0,0,0,0,0,0,0,0,0,0,0],"split_type":[0,0,0,0,0,0,0,0,0,0,0,0,0,0,0,0,0,0,0,0,0,0,0,0,0,0,0,0,0,0,0],"sum_hessian":[1.6543768E4,8.234606E3,8.309162E3,2.04187E3,6.1927363E3,6.3558784E3,1.9532834E3,2.5647966E1,2.016222E3,3.7645137E3,2.4282227E3,4.5701816E3,1.785697E3,1.6689409E3,2.8434253E2,2.1738186E1,3.9097793E0,1.8939835E3,1.2223846E2,2.272132E3,1.4923815E3,3.3328796E2,2.0949346E3,3.5822842E3,9.878974E2,1.7411896E1,1.7682852E3,3.709771E1,1.6318433E3,1.799662E2,1.04376335E2],"tree_param":{"num_deleted":"0","num_feature":"27","num_nodes":"31","size_leaf_vector":"1"}},{"base_weights":[2.7101191E-3,-1.5167317E-2,2.7740203E-2,3.8191363E-1,-1.6451038E-2,2.9380308E-2,-4.0058413E-1,6.132037E-1,-3.11135E-1,-2.3636525E-2,4.1794486E-2,-2.199529E-2,4.1934866E-2,-6.88946E-2,-5.6845237E-2,7.076659E-2,-4.0043492E-2,2.3531532E-2,-5.1557034E-2,-4.4725533E-3,2.9894087E-4,3.0786234E-3,5.1989265E-2,-7.211028E-3,5.546931E-3,-9.531538E-3,4.7727795E-3,5.7443302E-2,-3.999894E-2],"categories":[],"categories_nodes":[],"categories_segments":[],"categories_sizes":[],"default_left":[0,0,0,0,0,0,0,0,0,0,0,0,0,0,0,0,0,0,0,0,0,0,0,0,0,0,0,0,0],"id":43,"left_children":[1,3,5,7,9,11,13,15,17,19,21,23,25,27,-1,-1,-1,-1,-1,-1,-1,-1,-1,-1,-1,-1,-1,-1,-1],"loss_changes":[7.5242834E0,5.0064E0,4.9334297E0,5.2642937E0,4.0935044E0,4.503109E0,1.4526534E0,2.5878773E0,1.0801809E0,4.88827E0,5.6376014E0,5.3280196E0,4.4647446E0,2.3898537E0,0E0,0E0,0E0,0E0,0E0,0E0,0E0,0E0,0E0,0E0,0E0,0E0,0E0,0E0,0E0],"parents":[2147483647,0,0,1,1,2,2,3,3,4,4,5,5,6,6,7,7,8,8,9,9,10,10,11,11,12,12,13,13],"right_children":[2,4,6,8,10,12,14,16,18,20,22,24,26,28,-1,-1,-1,-1,-1,-1,-1,-1,-1,-1,-1,-1,-1,-1,-1],"split_conditions":[3.7317282E-1,2.4116507E-1,8.80035E-1,9.4618833E-1,1.6144986E-1,1.1697718E-1,1.7748581E-1,4.9282256E-1,3.8539574E-1,3.5269585E-2,5.497493E-1,5.321101E-1,1.2418916E-1,5.870051E-1,-5.6845237E-2,7.076659E-2,-4.0043492E-2,2.3531532E-2,-5.1557034E-2,-4.4725533E-3,2.9894087E-4,3.0786234E-3,5.1989265E-2,-7.211028E-3,5.546931E-3,-9.531538E-3,4.7727795E-3,5.7443302E-2,-3.999894E-2],"split_indices":[23,11,19,13,21,22,3,22,19,20,11,9,5,6,0,0,0,0,0,0,0,0,0,0,0,0,0,0,0],"split_type":[0,0,0,0,0,0,0,0,0,0,0,0,0,0,0,0,0,0,0,0,0,0,0,0,0,0,0,0,0],"sum_hessian":[1.6813088E4,9.808137E3,7.0049497E3,3.0650991E1,9.777486E3,6.979157E3,2.5792631E1,2.3067812E1,7.5831785E0,8.704273E3,1.0732128E3,1.3704143E3,5.608743E3,9.141136E0,1.6651495E1,2.1377478E1,1.690335E0,2.0234637E0,5.559715E0,4.8567876E3,3.8474858E3,1.0500985E3,2.3114216E1,8.32139E2,5.382753E2,2.2651553E2,5.3822275E3,2.8563018E0,6.2848344E0],"tree_param":{"num_deleted":"0","num_feature":"27","num_nodes":"29","size_leaf_vector":"1"}},{"base_weights":[4.4082098E-2,-5.3005658E-2,8.726798E-2,-1.8007748E-1,-3.1924766E-2,5.891644E-2,1.379869E-1,2.9175216E-1,-2.0313461E-1,-3.3792653E-4,-9.9886894E-2,7.5030334E-2,-3.3595923E-2,1.4497256E-1,-1.9789279E-1,4.9879435E-2,-5.2951038E-2,-1.4626622E-2,-3.3028264E-2,2.516664E-2,-9.10855E-4,5.8609586E-2,-1.0492659E-2,7.7017653E-3,-4.1818056E-2,9.908223E-4,-1.4376876E-2,2.0024462E-2,1.1527529E-2,8.892149E-2,-2.3144774E-2],"categories":[],"categories_nodes":[],"categories_segments":[],"categories_sizes":[],"default_left":[0,0,0,0,0,0,0,0,0,0,0,0,0,0,0,0,0,0,0,0,0,0,0,0,0,0,0,0,0,0,0],"id":44,"left_children":[1,3,5,7,9,11,13,15,17,19,21,23,25,27,29,-1,-1,-1,-1,-1,-1,-1,-1,-1,-1,-1,-1,-1,-1,-1,-1],"loss_changes":[7.28831E1,1.4330896E1,1.7291695E1,8.341667E0,9.856791E0,1.1509186E1,1.0148521E1,6.365142E0,5.204336E0,6.932904E0,5.0982466E0,6.475891E0,5.4928102E0,6.913162E0,3.426726E0,0E0,0E0,0E0,0E0,0E0,0E0,0E0,0E0,0E0,0E0,0E0,0E0,0E0,0E0,0E0,0E0],"parents":[2147483647,0,0,1,1,2,2,3,3,4,4,5,5,6,6,7,7,8,8,9,9,10,10,11,11,12,12,13,13,14,14],"right_children":[2,4,6,8,10,12,14,16,18,20,22,24,26,28,30,-1,-1,-1,-1,-1,-1,-1,-1,-1,-1,-1,-1,-1,-1,-1,-1],"split_conditions":[1.6996047E-1,7.806324E-2,4.617369E-1,1.6095152E-1,4.7574702E-1,5.1915133E-1,8.075348E-1,1.714271E-1,7.013322E-1,4.4386122E-1,3.8991883E-1,9.640053E-1,6.560678E-1,1.6405602E-1,4.3675553E-2,4.9879435E-2,-5.2951038E-2,-1.4626622E-2,-3.3028264E-2,2.516664E-2,-9.10855E-4,5.8609586E-2,-1.0492659E-2,7.7017653E-3,-4.1818056E-2,9.908223E-4,-1.4376876E-2,