{"learner":{"attributes":{"scikit_learn":"{\"_estimator_type\": \"classifier\"}"},"feature_names":[],"feature_types":[],"gradient_booster":{"model":{"gbtree_model_param":{"num_parallel_tree":"1","num_trees":"300"},"iteration_indptr":[0,3,6,9,12,15,18,21,24,27,30,33,36,39,42,45,48,51,54,57,60,63,66,69,72,75,78,81,84,87,90,93,96,99,102,105,108,111,114,117,120,123,126,129,132,135,138,141,144,147,150,153,156,159,162,165,168,171,174,177,180,183,186,189,192,195,198,201,204,207,210,213,216,219,222,225,228,231,234,237,240,243,246,249,252,255,258,261,264,267,270,273,276,279,282,285,288,291,294,297,300],"tree_info":[0,1,2,0,1,2,0,1,2,0,1,2,0,1,2,0,1,2,0,1,2,0,1,2,0,1,2,0,1,2,0,1,2,0,1,2,0,1,2,0,1,2,0,1,2,0,1,2,0,1,2,0,1,2,0,1,2,0,1,2,0,1,2,0,1,2,0,1,2,0,1,2,0,1,2,0,1,2,0,1,2,0,1,2,0,1,2,0,1,2,0,1,2,0,1,2,0,1,2,0,1,2,0,1,2,0,1,2,0,1,2,0,1,2,0,1,2,0,1,2,0,1,2,0,1,2,0,1,2,0,1,2,0,1,2,0,1,2,0,1,2,0,1,2,0,1,2,0,1,2,0,1,2,0,1,2,0,1,2,0,1,2,0,1,2,0,1,2,0,1,2,0,1,2,0,1,2,0,1,2,0,1,2,0,1,2,0,1,2,0,1,2,0,1,2,0,1,2,0,1,2,0,1,2,0,1,2,0,1,2,0,1,2,0,1,2,0,1,2,0,1,2,0,1,2,0,1,2,0,1,2,0,1,2,0,1,2,0,1,2,0,1,2,0,1,2,0,1,2,0,1,2,0,1,2,0,1,2,0,1,2,0,1,2,0,1,2,0,1,2,0,1,2,0,1,2,0,1,2,0,1,2,0,1,2,0,1,2,0,1,2,0,1,2,0,1,2,0,1,2],"trees":[{"base_weights":[2.5543812E-1,8.888889E-1,2.205595E-1,2.926829E-1,1.2244898E-1,1.7424768E-1,7.692307E-1,9.6E-2,-4.8000004E-2,2.1194462E-2,-6.461539E-2,1.2077922E-1,-6.1224527E-3],"categories":[],"categories_nodes":[],"categories_segments":[],"categories_sizes":[],"default_left":[0,0,0,0,0,0,0,0,0,0,0,0,0],"id":0,"left_children":[1,3,5,7,-1,9,11,-1,-1,-1,-1,-1,-1],"loss_changes":[3.7538433E0,1.4423976E0,4.2054205E0,2.809756E0,0E0,5.047408E0,4.80862E0,0E0,0E0,0E0,0E0,0E0,0E0],"parents":[2147483647,0,0,1,1,2,2,3,3,5,5,6,6],"right_children":[2,4,6,8,-1,10,12,-1,-1,-1,-1,-1,-1],"split_conditions":[1.5245008E-1,9.689214E-2,9.76234E-1,7.5229354E-2,1.2244898E-1,9.782214E-1,9.891107E-1,9.6E-2,-4.8000004E-2,2.1194462E-2,-6.461539E-2,1.2077922E-1,-6.1224527E-3],"split_indices":[3,0,0,1,0,3,3,0,0,0,0,0,0],"split_type":[0,0,0,0,0,0,0,0,0,0,0,0,0],"sum_hessian":[1.7777777E2,7.9999995E0,1.6977777E2,3.5555553E0,4.444444E0,1.5777777E2,1.1999999E1,1.7777777E0,1.7777777E0,1.5155554E2,6.222222E0,7.5555553E0,4.444444E0],"tree_param":{"num_deleted":"0","num_feature":"5","num_nodes":"13","size_leaf_vector":"1"}},{"base_weights":[-3.5425735E-1,-5.2293587E-1,-2.656105E-1,-3.4228194E-1,-5.7777786E-1,3.821652E-2,-3.1459466E-1,-6.1061956E-2,4E-2,-6.437769E-2,-4.6408843E-2,6.486487E-2,-1.3953494E-2,-5.0177943E-2,-2.297091E-2],"categories":[],"categories_nodes":[],"categories_segments":[],"categories_sizes":[],"default_left":[0,0,0,0,0,0,0,0,0,0,0,0,0,0,0],"id":1,"left_children":[1,3,5,7,9,11,13,-1,-1,-1,-1,-1,-1,-1,-1],"loss_changes":[2.5343342E0,4.0218735E-1,1.7863722E0,3.5418186E0,3.888321E-2,1.9833219E0,1.5178022E0,0E0,0E0,0E0,0E0,0E0,0E0,0E0,0E0],"parents":[2147483647,0,0,1,1,2,2,3,3,4,4,5,5,6,6],"right_children":[2,4,6,8,10,12,14,-1,-1,-1,-1,-1,-1,-1,-1],"split_conditions":[4.972477E-1,2.123412E-1,7.3491776E-1,1.8330309E-1,4.042934E-1,8.90538E-2,8.0679786E-1,-6.1061956E-2,4E-2,-6.437769E-2,-4.6408843E-2,6.486487E-2,-1.3953494E-2,-5.0177943E-2,-2.297091E-2],"split_indices":[1,3,0,3,2,4,2,0,0,0,0,0,0,0,0],"split_type":[0,0,0,0,0,0,0,0,0,0,0,0,0,0,0],"sum_hessian":[1.7777777E2,5.9555553E1,1.1822221E2,1.5555554E1,4.3999996E1,1.6444443E1,1.0177777E2,1.1555555E1,3.9999998E0,2.4888887E1,1.911111E1,3.111111E0,1.3333332E1,3.0222221E1,7.155555E1],"tree_param":{"num_deleted":"0","num_feature":"5","num_nodes":"15","size_leaf_vector":"1"}},{"base_weights":[9.88191E-2,1.4190535E-1,-4.6153852E-1,1.0173006E-1,1.0153846E0,-6.741574E-2,1.6216213E-1,2.1919299E-2,-1.0055871E-2,1.2E-1,4.137931E-2,8.571428E-2,-4.8000004E-2],"categories":[],"categories_nodes":[],"categories_segments":[],"categories_sizes":[],"default_left":[0,0,0,0,0,0,0,0,0,0,0,0,0],"id":2,"left_children":[1,3,5,7,9,-1,11,-1,-1,-1,-1,-1,-1],"loss_changes":[4.3818536E0,5.749318E0,1.8332591E0,3.8370714E0,3.0557013E-1,0E0,2.2461777E0,0E0,0E0,0E0,0E0,0E0,0E0],"parents":[2147483647,0,0,1,1,2,2,3,3,4,4,6,6],"right_children":[2,4,6,8,10,-1,12,-1,-1,-1,-1,-1,-1],"split_conditions":[9.76234E-1,9.782214E-1,9.909256E-1,7.8610605E-1,9.725777E-1,-6.741574E-2,9.835466E-1,2.1919299E-2,-1.0055871E-2,1.2E-1,4.137931E-2,8.571428E-2,-4.8000004E-2],"split_indices":[0,3,3,0,0,0,0,0,0,0,0,0,0],"split_type":[0,0,0,0,0,0,0,0,0,0,0,0,0],"sum_hessian":[1.7777777E2,1.6577777E2,1.1999999E1,1.5955554E2,6.222222E0,8.888888E0,3.111111E0,1.00888885E2,5.8666664E1,3.9999998E0,2.222222E0,1.3333333E0,1.7777777E0],"tree_param":{"num_deleted":"0","num_feature":"5","num_nodes":"13","size_leaf_vector":"1"}},{"base_weights":[2.3421904E-1,8.227073E-1,2.0136154E-1,2.728081E-1,1.1256351E-1,1.5869875E-1,6.965679E-1,9.018934E-2,-4.73676E-2,1.9782722E-2,-5.3683944E-2,1.08457975E-1,-6.5874713E-3],"categories":[],"categories_nodes":[],"categories_segments":[],"categories_sizes":[],"default_left":[0,0,0,0,0,0,0,0,0,0,0,0,0],"id":3,"left_children":[1,3,5,7,-1,9,11,-1,-1,-1,-1,-1,-1],"loss_changes":[3.3312874E0,1.2320242E0,3.5361643E0,2.5882123E0,0E0,4.466476E0,4.0344906E0,0E0,0E0,0E0,0E0,0E0,0E0],"parents":[2147483647,0,0,1,1,2,2,3,3,5,5,6,6],"right_children":[2,4,6,8,-1,10,12,-1,-1,-1,-1,-1,-1],"split_conditions":[1.5245008E-1,9.689214E-2,9.76234E-1,7.5229354E-2,1.1256351E-1,9.764065E-1,9.891107E-1,9.018934E-2,-4.73676E-2,1.9782722E-2,-5.3683944E-2,1.08457975E-1,-6.5874713E-3],"split_indices":[3,0,0,1,0,3,3,0,0,0,0,0,0],"split_type":[0,0,0,0,0,0,0,0,0,0,0,0,0],"sum_hessian":[1.7984937E2,8.239458E0,1.7160991E2,3.601782E0,4.637676E0,1.5921387E2,1.2396048E1,1.841611E0,1.760171E0,1.5141158E2,7.802292E0,7.935245E0,4.460803E0],"tree_param":{"num_deleted":"0","num_feature":"5","num_nodes":"13","size_leaf_vector":"1"}},{"base_weights":[-3.3472788E-1,-4.989369E-1,-2.4955522E-1,-3.167426E-1,-5.5475837E-1,4.908278E-2,-2.981373E-1,-5.8350302E-2,3.906966E-2,-6.2087428E-2,-4.4199582E-2,5.901407E-2,-1.5898984E-2,-4.8018027E-2,-2.1660691E-2],"categories":[],"categories_nodes":[],"categories_segments":[],"categories_sizes":[],"default_left":[0,0,0,0,0,0,0,0,0,0,0,0,0,0,0],"id":4,"left_children":[1,3,5,7,9,11,13,-1,-1,-1,-1,-1,-1,-1,-1],"loss_changes":[2.331421E0,4.2405415E-1,1.7212005E0,3.2779045E0,5.2202225E-2,2.043307E0,1.3996239E0,0E0,0E0,0E0,0E0,0E0,0E0,0E0,0E0],"parents":[2147483647,0,0,1,1,2,2,3,3,4,4,5,5,6,6],"right_children":[2,4,6,8,10,12,14,-1,-1,-1,-1,-1,-1,-1,-1],"split_conditions":[4.972477E-1,2.123412E-1,7.357798E-1,1.8330309E-1,4.042934E-1,8.90538E-2,8.0679786E-1,-5.8350302E-2,3.906966E-2,-6.2087428E-2,-4.4199582E-2,5.901407E-2,-1.5898984E-2,-4.8018027E-2,-2.1660691E-2],"split_indices":[1,3,1,3,2,4,2,0,0,0,0,0,0,0,0],"split_type":[0,0,0,0,0,0,0,0,0,0,0,0,0,0,0],"sum_hessian":[1.745979E2,5.7972206E1,1.1662569E2,1.5161426E1,4.281078E1,1.6316507E1,1.0030918E2,1.1137063E1,4.024362E0,2.4146791E1,1.866399E1,4.0219297E0,1.2294578E1,2.9515871E1,7.079331E1],"tree_param":{"num_deleted":"0","num_feature":"5","num_nodes":"15","size_leaf_vector":"1"}},{"base_weights":[9.14588E-2,1.3097069E-1,-4.3869025E-1,9.3457185E-2,9.226113E-1,-6.484407E-2,1.5203302E-1,2.0261176E-2,-9.679069E-3,1.0895932E-1,3.7705883E-2,8.13339E-2,-4.727772E-2],"categories":[],"categories_nodes":[],"categories_segments":[],"categories_sizes":[],"default_left":[0,0,0,0,0,0,0,0,0,0,0,0,0],"id":5,"left_children":[1,3,5,7,9,-1,11,-1,-1,-1,-1,-1,-1],"loss_changes":[3.8180017E0,4.8982515E0,1.6699204E0,3.3705273E0,2.7066135E-1,0E0,2.092299E0,0E0,0E0,0E0,0E0,0E0,0E0],"parents":[2147483647,0,0,1,1,2,2,3,3,4,4,6,6],"right_children":[2,4,6,8,10,-1,12,-1,-1,-1,-1,-1,-1],"split_conditions":[9.76234E-1,9.782214E-1,9.909256E-1,7.8610605E-1,9.725777E-1,-6.484407E-2,9.835466E-1,2.0261176E-2,-9.679069E-3,1.0895932E-1,3.7705883E-2,8.13339E-2,-4.727772E-2],"split_indices":[0,3,3,0,0,0,0,0,0,0,0,0,0],"split_type":[0,0,0,0,0,0,0,0,0,0,0,0,0],"sum_hessian":[1.7852509E2,1.6684325E2,1.1681835E1,1.6036221E2,6.481035E0,8.548706E0,3.1331296E0,1.018569E2,5.850531E1,4.198681E0,2.2823546E0,1.3755231E0,1.7576065E0],"tree_param":{"num_deleted":"0","num_feature":"5","num_nodes":"13","size_leaf_vector":"1"}},{"base_weights":[2.1527696E-1,7.671201E-1,1.8419299E-1,2.551845E-1,1.0446854E-1,1.447746E-1,6.359409E-1,8.514446E-2,-4.6714608E-2,1.7647527E-2,-6.028818E-2,9.86455E-2,-6.9909096E-3],"categories":[],"categories_nodes":[],"categories_segments":[],"categories_sizes":[],"default_left":[0,0,0,0,0,0,0,0,0,0,0,0,0],"id":6,"left_children":[1,3,5,7,-1,9,11,-1,-1,-1,-1,-1,-1],"loss_changes":[2.9896612E0,1.0715318E0,3.0083246E0,2.3935878E0,0E0,3.9325008E0,3.4531202E0,0E0,0E0,0E0,0E0,0E0,0E0],"parents":[2147483647,0,0,1,1,2,2,3,3,5,5,6,6],"right_children":[2,4,6,8,-1,10,12,-1,-1,-1,-1,-1,-1],"split_conditions":[1.5245008E-1,9.689214E-2,9.76234E-1,7.5229354E-2,1.0446854E-1,9.782214E-1,9.891107E-1,8.514446E-2,-4.6714608E-2,1.7647527E-2,-6.028818E-2,9.86455E-2,-6.9909096E-3],"split_indices":[3,0,0,1,0,3,3,0,0,0,0,0,0],"split_type":[0,0,0,0,0,0,0,0,0,0,0,0,0],"sum_hessian":[1.8152626E2,8.417039E0,1.7310922E2,3.633975E0,4.7830634E0,1.6043091E2,1.2678317E1,1.8927915E0,1.7411836E0,1.546382E2,5.7927046E0,8.205869E0,4.472448E0],"tree_param":{"num_deleted":"0","num_feature":"5","num_nodes":"13","size_leaf_vector":"1"}},{"base_weights":[-3.165423E-1,-4.769821E-1,-2.3451409E-1,-2.9348278E-1,-5.336372E-1,5.9414756E-2,-2.8275406E-1,-5.594281E-2,3.8117334E-2,-6.0015768E-2,-4.2144872E-2,6.050719E-2,-1.0830887E-2,3.3568651E-3,-3.251068E-2],"categories":[],"categories_nodes":[],"categories_segments":[],"categories_sizes":[],"default_left":[0,0,0,0,0,0,0,0,0,0,0,0,0,0,0],"id":7,"left_children":[1,3,5,7,9,11,13,-1,-1,-1,-1,-1,-1,-1,-1],"loss_changes":[2.1571636E0,4.3971348E-1,1.6622915E0,3.0398445E0,6.502819E-2,1.6385255E0,1.3487878E0,0E0,0E0,0E0,0E0,0E0,0E0,0E0,0E0],"parents":[2147483647,0,0,1,1,2,2,3,3,4,4,5,5,6,6],"right_children":[2,4,6,8,10,12,14,-1,-1,-1,-1,-1,-1,-1,-1],"split_conditions":[4.972477E-1,2.123412E-1,7.3491776E-1,1.8330309E-1,4.042934E-1,8.90538E-2,1.8552875E-2,-5.594281E-2,3.8117334E-2,-6.0015768E-2,-4.2144872E-2,6.050719E-2,-1.0830887E-2,3.3568651E-3,-3.251068E-2],"split_indices":[1,3,0,3,2,4,4,0,0,0,0,0,0,0,0],"split_type":[0,0,0,0,0,0,0,0,0,0,0,0,0,0,0],"sum_hessian":[1.7141048E2,5.63602E1,1.15050285E2,1.4753982E1,4.1606216E1,1.6187475E1,9.886281E1,1.070495E1,4.0490313E0,2.3388704E1,1.821751E1,3.1927881E0,1.2994687E1,1.16983E1,8.7164505E1],"tree_param":{"num_deleted":"0","num_feature":"5","num_nodes":"15","size_leaf_vector":"1"}},{"base_weights":[8.4871955E-2,1.211665E-1,-4.1825122E-1,8.601945E-2,8.480254E-1,-6.2578164E-2,1.4247611E-1,1.2106977E-2,-4.678859E-2,1.0025548E-1,3.456784E-2,7.738527E-2,-4.6573114E-2],"categories":[],"categories_nodes":[],"categories_segments":[],"categories_sizes":[],"default_left":[0,0,0,0,0,0,0,0,0,0,0,0,0],"id":8,"left_children":[1,3,5,7,9,-1,11,-1,-1,-1,-1,-1,-1],"loss_changes":[3.3385725E0,4.2371883E0,1.525079E0,3.2026863E0,2.4875927E-1,0E0,1.9532048E0,0E0,0E0,0E0,0E0,0E0,0E0],"parents":[2147483647,0,0,1,1,2,2,3,3,4,4,6,6],"right_children":[2,4,6,8,10,-1,12,-1,-1,-1,-1,-1,-1],"split_conditions":[9.76234E-1,9.782214E-1,9.909256E-1,9.6160877E-1,9.725777E-1,-6.2578164E-2,9.835466E-1,1.2106977E-2,-4.678859E-2,1.0025548E-1,3.456784E-2,7.738527E-2,-4.6573114E-2],"split_indices":[0,3,3,0,0,0,0,0,0,0,0,0,0],"split_type":[0,0,0,0,0,0,0,0,0,0,0,0,0],"sum_hessian":[1.7905377E2,1.677143E2,1.1339483E1,1.6104533E2,6.6689568E0,8.191658E0,3.1478257E0,1.5219601E2,8.8493185E0,4.3385983E0,2.3303583E0,1.4108646E0,1.7369612E0],"tree_param":{"num_deleted":"0","num_feature":"5","num_nodes":"13","size_leaf_vector":"1"}},{"base_weights":[1.9818448E-1,5.56713E-1,1.5583973E-1,-4.2935126E-2,6.551623E-1,-1.6642109E-1,2.3196979E-1,1.00278854E-1,1.4411235E-2,1.1112912E-2,-7.0659906E-2,1.189143E-1,1.8195938E-2],"categories":[],"categories_nodes":[],"categories_segments":[],"categories_sizes":[],"default_left":[0,0,0,0,0,0,0,0,0,0,0,0,0],"id":9,"left_children":[1,3,5,-1,7,9,11,-1,-1,-1,-1,-1,-1],"loss_changes":[2.7046714E0,2.1290002E0,4.10712E0,0E0,3.0002227E0,4.916957E0,6.224898E0,0E0,0E0,0E0,0E0,0E0,0E0],"parents":[2147483647,0,0,1,1,2,2,4,4,5,5,6,6],"right_children":[2,4,6,-1,8,10,12,-1,-1,-1,-1,-1,-1],"split_conditions":[2.3049001E-1,5.5658627E-2,4.2230347E-1,-4.2935126E-2,1.9109462E-1,4.0290383E-1,4.355717E-1,1.00278854E-1,1.4411235E-2,1.1112912E-2,-7.0659906E-2,1.189143E-1,1.8195938E-2],"split_indices":[3,4,0,0,4,3,3,0,0,0,0,0,0],"split_type":[0,0,0,0,0,0,0,0,0,0,0,0,0],"sum_hessian":[1.828668E2,1.8033335E1,1.6483348E2,1.3319033E0,1.6701431E1,3.1272034E1,1.3356145E2,9.367357E0,7.3340735E0,2.1182482E1,1.0089552E1,5.500816E0,1.2806062E2],"tree_param":{"num_deleted":"0","num_feature":"5","num_nodes":"13","size_leaf_vector":"1"}},{"base_weights":[-2.9927835E-1,-4.5783055E-1,-2.1929377E-1,-2.7422243E-1,-5.1631474E-1,6.5130726E-2,-2.665561E-1,-5.325801E-2,2.6291741E-2,-5.849663E-2,-4.034073E-2,5.8176883E-2,-9.728674E-3,-4.465096E-2,-1.8742649E-2],"categories":[],"categories_nodes":[],"categories_segments":[],"categories_sizes":[],"default_left":[0,0,0,0,0,0,0,0,0,0,0,0,0,0,0],"id":10,"left_children":[1,3,5,7,9,11,13,-1,-1,-1,-1,-1,-1,-1,-1],"loss_changes":[2.0458326E0,4.5791054E-1,1.5553212E0,2.30763E0,8.344269E-2,1.4919786E0,1.3161225E0,0E0,0E0,0E0,0E0,0E0,0E0,0E0,0E0],"parents":[2147483647,0,0,1,1,2,2,3,3,4,4,5,5,6,6],"right_children":[2,4,6,8,10,12,14,-1,-1,-1,-1,-1,-1,-1,-1],"split_conditions":[4.972477E-1,2.0658135E-1,7.3491776E-1,1.814882E-1,4.042934E-1,8.90538E-2,8.0679786E-1,-5.325801E-2,2.6291741E-2,-5.849663E-2,-4.034073E-2,5.8176883E-2,-9.728674E-3,-4.465096E-2,-1.8742649E-2],"split_indices":[1,0,0,3,2,4,2,0,0,0,0,0,0,0,0],"split_type":[0,0,0,0,0,0,0,0,0,0,0,0,0,0,0],"sum_hessian":[1.682382E2,5.4828514E1,1.134097E2,1.4619662E1,4.0208855E1,1.6105974E1,9.730372E1,9.877295E0,4.7423677E0,2.2404942E1,1.7803911E1,3.2346985E0,1.2871275E1,2.830068E1,6.9003044E1],"tree_param":{"num_deleted":"0","num_feature":"5","num_nodes":"15","size_leaf_vector":"1"}},{"base_weights":[7.875044E-2,1.12212226E-1,-4.006721E-1,7.942054E-2,7.807099E-1,-6.060939E-2,1.3204591E-1,2.6723513E-2,-1.8050246E-3,9.264483E-2,3.1451233E-2,7.358882E-2,-4.591704E-2],"categories":[],"categories_nodes":[],"categories_segments":[],"categories_sizes":[],"default_left":[0,0,0,0,0,0,0,0,0,0,0,0,0],"id":11,"left_children":[1,3,5,7,9,-1,11,-1,-1,-1,-1,-1,-1],"loss_changes":[2.939651E0,3.6525288E0,1.3922486E0,2.982174E0,2.3925877E-1,0E0,1.8223853E0,0E0,0E0,0E0,0E0,0E0,0E0],"parents":[2147483647,0,0,1,1,2,2,3,3,4,4,6,6],"right_children":[2,4,6,8,10,-1,12,-1,-1,-1,-1,-1,-1],"split_conditions":[9.76234E-1,9.782214E-1,9.909256E-1,4.4058502E-1,9.725777E-1,-6.060939E-2,9.835466E-1,2.6723513E-2,-1.8050246E-3,9.264483E-2,3.1451233E-2,7.358882E-2,-4.591704E-2],"split_indices":[0,3,3,0,0,0,0,0,0,0,0,0,0],"split_type":[0,0,0,0,0,0,0,0,0,0,0,0,0],"sum_hessian":[1.7944077E2,1.684496E2,1.0991169E1,1.6163953E2,6.8100667E0,7.8329577E0,3.1582112E0,5.4630795E1,1.0700873E2,4.4360623E0,2.3740046E0,1.4413638E0,1.7168475E0],"tree_param":{"num_deleted":"0","num_feature":"5","num_nodes":"13","size_leaf_vector":"1"}},{"base_weights":[1.8245621E-1,6.8355227E-1,1.541046E-1,2.1669851E-1,9.372097E-2,1.1878255E-1,5.57037E-1,7.699054E-2,-4.629859E-2,1.5113716E-2,-5.0180417E-2,8.756835E-2,-8.786425E-3],"categories":[],"categories_nodes":[],"categories_segments":[],"categories_sizes":[],"default_left":[0,0,0,0,0,0,0,0,0,0,0,0,0],"id":12,"left_children":[1,3,5,7,-1,9,11,-1,-1,-1,-1,-1,-1],"loss_changes":[2.5249972E0,9.365144E-1,2.4461632E0,2.1194267E0,0E0,3.360052E0,2.9448614E0,0E0,0E0,0E0,0E0,0E0,0E0],"parents":[2147483647,0,0,1,1,2,2,3,3,5,5,6,6],"right_children":[2,4,6,8,-1,10,12,-1,-1,-1,-1,-1,-1],"split_conditions":[1.5245008E-1,9.689214E-2,9.76234E-1,7.5229354E-2,9.372097E-2,9.764065E-1,9.891107E-1,7.699054E-2,-4.629859E-2,1.5113716E-2,-5.0180417E-2,8.756835E-2,-8.786425E-3],"split_indices":[3,0,0,1,0,3,3,0,0,0,0,0,0],"split_type":[0,0,0,0,0,0,0,0,0,0,0,0,0],"sum_hessian":[1.8414523E2,8.623349E0,1.7552188E2,3.6886768E0,4.9346724E0,1.6256577E2,1.2956122E1,1.9603635E0,1.7283133E0,1.5522926E2,7.336497E0,8.432003E0,4.5241194E0],"tree_param":{"num_deleted":"0","num_feature":"5","num_nodes":"13","size_leaf_vector":"1"}},{"base_weights":[-2.8332418E-1,-4.3820313E-1,-2.06501E-1,-2.4467681E-1,-4.985036E-1,6.730451E-2,-2.5257123E-1,-5.165443E-2,3.8892608E-2,-5.9343826E-2,-4.0900048E-2,5.569422E-2,-8.953295E-3,-1.6976895E-2,-4.265531E-2],"categories":[],"categories_nodes":[],"categories_segments":[],"categories_sizes":[],"default_left":[0,0,0,0,0,0,0,0,0,0,0,0,0,0,0],"id":13,"left_children":[1,3,5,7,9,11,13,-1,-1,-1,-1,-1,-1,-1,-1],"loss_changes":[1.8868303E0,5.106325E-1,1.4421082E0,2.7575488E0,1.00278854E-1,1.360038E0,1.3237505E0,0E0,0E0,0E0,0E0,0E0,0E0,0E0,0E0],"parents":[2147483647,0,0,1,1,2,2,3,3,4,4,5,5,6,6],"right_children":[2,4,6,8,10,12,14,-1,-1,-1,-1,-1,-1,-1,-1],"split_conditions":[4.972477E-1,2.123412E-1,7.3491776E-1,1.8330309E-1,1.632653E-1,8.90538E-2,6.4935066E-2,-5.165443E-2,3.8892608E-2,-5.9343826E-2,-4.0900048E-2,5.569422E-2,-8.953295E-3,-1.6976895E-2,-4.265531E-2],"split_indices":[1,3,0,3,4,4,4,0,0,0,0,0,0,0,0],"split_type":[0,0,0,0,0,0,0,0,0,0,0,0,0,0,0],"sum_hessian":[1.6518503E2,5.3209087E1,1.1197594E2,1.3842159E1,3.936693E1,1.606099E1,9.591495E1,9.81533E0,4.0268292E0,1.6371523E1,2.2995407E1,3.2775583E0,1.278343E1,6.632502E1,2.9589926E1],"tree_param":{"num_deleted":"0","num_feature":"5","num_nodes":"15","size_leaf_vector":"1"}},{"base_weights":[7.3617384E-2,-2.8983527E-1,1.14426516E-1,1.4355089E-1,-5.2869016E-1,5.7143474E-1,1.1853988E-2,-2.64155E-2,8.757711E-2,-2.4195034E-3,-5.9042472E-2,2.9476637E-2,1.183747E-1,-6.8354085E-2,5.9841555E-3],"categories":[],"categories_nodes":[],"categories_segments":[],"categories_sizes":[],"default_left":[0,0,0,0,0,0,0,0,0,0,0,0,0,0,0],"id":14,"left_children":[1,3,5,7,9,11,13,-1,-1,-1,-1,-1,-1,-1,-1],"loss_changes":[2.7134771E0,1.9935508E0,7.642719E0,2.431108E0,3.64326E-1,4.714802E0,4.5223083E0,0E0,0E0,0E0,0E0,0E0,0E0,0E0,0E0],"parents":[2147483647,0,0,1,1,2,2,3,3,4,4,5,5,6,6],"right_children":[2,4,6,8,10,12,14,-1,-1,-1,-1,-1,-1,-1,-1],"split_conditions":[2.3049001E-1,1.2614259E-1,4.1499087E-1,1.08892925E-1,5.9369203E-2,4.0290383E-1,4.4283122E-1,-2.64155E-2,8.757711E-2,-2.4195034E-3,-5.9042472E-2,2.9476637E-2,1.183747E-1,-6.8354085E-2,5.9841555E-3],"split_indices":[3,0,0,3,4,3,3,0,0,0,0,0,0,0,0],"split_type":[0,0,0,0,0,0,0,0,0,0,0,0,0,0,0],"sum_hessian":[1.7970915E2,1.752515E1,1.62184E2,6.3686557E0,1.1156495E1,2.8890848E1,1.3329315E2,4.5014524E0,1.8672028E0,1.3681216E0,9.788373E0,2.0919802E1,7.971046E0,7.7495265E0,1.2554363E2],"tree_param":{"num_deleted":"0","num_feature":"5","num_nodes":"15","size_leaf_vector":"1"}},{"base_weights":[1.6854319E-1,4.876041E-1,1.30624E-1,-4.1570585E-2,5.7537955E-1,-1.6604756E-1,1.9977911E-1,8.885136E-2,1.1030509E-2,9.304228E-3,-6.857673E-2,1.05485275E-1,1.5386763E-2],"categories":[],"categories_nodes":[],"categories_segments":[],"categories_sizes":[],"default_left":[0,0,0,0,0,0,0,0,0,0,0,0,0],"id":15,"left_children":[1,3,5,-1,7,9,11,-1,-1,-1,-1,-1,-1],"loss_changes":[2.1867557E0,1.7767873E0,3.4720738E0,0E0,2.5370955E0,4.404E0,5.1918664E0,0E0,0E0,0E0,0E0,0E0,0E0],"parents":[2147483647,0,0,1,1,2,2,4,4,5,5,6,6],"right_children":[2,4,6,-1,8,10,12,-1,-1,-1,-1,-1,-1],"split_conditions":[2.3049001E-1,5.5658627E-2,4.2230347E-1,-4.1570585E-2,1.9109462E-1,4.0290383E-1,4.355717E-1,8.885136E-2,1.1030509E-2,9.304228E-3,-6.857673E-2,1.05485275E-1,1.5386763E-2],"split_indices":[3,4,0,0,4,3,3,0,0,0,0,0,0],"split_type":[0,0,0,0,0,0,0,0,0,0,0,0,0],"sum_hessian":[1.8501E2,1.8392471E1,1.6661752E2,1.298049E0,1.7094423E1,3.1232174E1,1.3538535E2,9.671882E0,7.422541E0,2.1389894E1,9.842279E0,5.779009E0,1.2960634E2],"tree_param":{"num_deleted":"0","num_feature":"5","num_nodes":"13","size_leaf_vector":"1"}},{"base_weights":[-2.6817778E-1,-4.215241E-1,-1.9326569E-1,-2.3631777E-1,-4.812904E-1,4.7477383E-2,-2.1053356E-1,-4.9549077E-2,2.6139228E-2,-6.201842E-2,-4.088144E-2,-1.6094696E-2,-3.8258683E-2],"categories":[],"categories_nodes":[],"categories_segments":[],"categories_sizes":[],"default_left":[0,0,0,0,0,0,0,0,0,0,0,0,0],"id":16,"left_children":[1,3,5,7,9,-1,11,-1,-1,-1,-1,-1,-1],"loss_changes":[1.7932091E0,4.6973038E-1,1.3859587E0,2.0418062E0,1.3791084E-1,0E0,8.714752E-1,0E0,0E0,0E0,0E0,0E0,0E0],"parents":[2147483647,0,0,1,1,2,2,3,3,4,4,6,6],"right_children":[2,4,6,8,10,-1,12,-1,-1,-1,-1,-1,-1],"split_conditions":[4.972477E-1,2.0658135E-1,5.0816697E-1,1.814882E-1,3.1305903E-1,4.7477383E-2,1.0946196E-1,-4.9549077E-2,2.6139228E-2,-6.201842E-2,-4.088144E-2,-1.6094696E-2,-3.8258683E-2],"split_indices":[1,0,3,3,2,0,4,0,0,0,0,0,0],"split_type":[0,0,0,0,0,0,0,0,0,0,0,0,0],"sum_hessian":[1.6219261E2,5.171144E1,1.1048116E2,1.3824749E1,3.7886692E1,2.116229E0,1.0836494E2,9.09379E0,4.730959E0,1.0399633E1,2.748706E1,8.562332E1,2.2741615E1],"tree_param":{"num_deleted":"0","num_feature":"5","num_nodes":"13","size_leaf_vector":"1"}},{"base_weights":[6.860937E-2,9.93333E-2,-3.862988E-1,6.344333E-2,6.364103E-1,-5.8897402E-2,1.18679255E-1,1.0565514E-2,-5.6966882E-2,9.754591E-2,1.8096155E-2,6.9891706E-2,-4.547508E-2],"categories":[],"categories_nodes":[],"categories_segments":[],"categories_sizes":[],"default_left":[0,0,0,0,0,0,0,0,0,0,0,0,0],"id":17,"left_children":[1,3,5,7,9,-1,11,-1,-1,-1,-1,-1,-1],"loss_changes":[2.5672364E0,3.241971E0,1.2624012E0,4.355631E0,1.4534812E0,0E0,1.7050897E0,0E0,0E0,0E0,0E0,0E0,0E0],"parents":[2147483647,0,0,1,1,2,2,3,3,4,4,6,6],"right_children":[2,4,6,8,10,-1,12,-1,-1,-1,-1,-1,-1],"split_conditions":[9.76234E-1,9.745917E-1,9.909256E-1,9.5063984E-1,9.7074956E-1,-5.8897402E-2,9.835466E-1,1.0565514E-2,-5.6966882E-2,9.754591E-2,1.8096155E-2,6.9891706E-2,-4.547508E-2],"split_indices":[0,3,3,0,0,0,0,0,0,0,0,0,0],"split_type":[0,0,0,0,0,0,0,0,0,0,0,0,0],"sum_hessian":[1.7993599E2,1.6928438E2,1.0651615E1,1.5972868E2,9.555684E0,7.4822464E0,3.1693687E0,1.5052573E2,9.202959E0,4.8233185E0,4.732366E0,1.466561E0,1.7028077E0],"tree_param":{"num_deleted":"0","num_feature":"5","num_nodes":"13","size_leaf_vector":"1"}},{"base_weights":[1.5564884E-1,6.0354096E-1,1.3037114E-1,1.7660898E-1,8.385255E-2,9.780892E-2,5.034587E-1,6.958774E-2,-4.6046246E-2,1.2381777E-2,-5.699997E-2,8.038346E-2,-1.0050486E-2],"categories":[],"categories_nodes":[],"categories_segments":[],"categories_sizes":[],"default_left":[0,0,0,0,0,0,0,0,0,0,0,0,0],"id":18,"left_children":[1,3,5,7,-1,9,11,-1,-1,-1,-1,-1,-1],"loss_changes":[2.0361729E0,8.2539225E-1,2.1143365E0,1.8790869E0,0E0,2.9371223E0,2.6305482E0,0E0,0E0,0E0,0E0,0E0,0E0],"parents":[2147483647,0,0,1,1,2,2,3,3,5,5,6,6],"right_children":[2,4,6,8,-1,10,12,-1,-1,-1,-1,-1,-1],"split_conditions":[1.5245008E-1,9.689214E-2,9.76234E-1,7.5229354E-2,8.385255E-2,9.782214E-1,9.891107E-1,6.958774E-2,-4.6046246E-2,1.2381777E-2,-5.699997E-2,8.038346E-2,-1.0050486E-2],"split_indices":[3,0,0,1,0,3,3,0,0,0,0,0,0],"split_type":[0,0,0,0,0,0,0,0,0,0,0,0,0],"sum_hessian":[1.85797E2,8.703551E0,1.7709344E2,3.7116365E0,4.991915E0,1.6403868E2,1.305476E1,1.9940261E0,1.7176105E0,1.586735E2,5.365196E0,8.497615E0,4.557145E0],"tree_param":{"num_deleted":"0","num_feature":"5","num_nodes":"13","size_leaf_vector":"1"}},{"base_weights":[-2.5367862E-1,-8.1309825E-2,-3.1666166E-1,-3.206356E-2,-5.365155E-2,-3.2907987E-1,4.396628E-2,-8.47872E-3,8.954386E-2,-2.9790768E-2,-5.49415E-2],"categories":[],"categories_nodes":[],"categories_segments":[],"categories_sizes":[],"default_left":[0,0,0,0,0,0,0,0,0,0,0],"id":19,"left_children":[1,3,5,7,-1,9,-1,-1,-1,-1,-1],"loss_changes":[1.7152042E0,9.749965E-1,1.2445326E0,2.081038E0,0E0,6.315594E-1,0E0,0E0,0E0,0E0,0E0],"parents":[2147483647,0,0,1,1,2,2,3,3,5,5],"right_children":[2,4,6,8,-1,10,-1,-1,-1,-1,-1],"split_conditions":[3.8961038E-2,9.8747766E-1,9.9463326E-1,9.8366606E-1,-5.365155E-2,2.96846E-1,4.396628E-2,-8.47872E-3,8.954386E-2,-2.9790768E-2,-5.49415E-2],"split_indices":[4,2,2,3,0,4,0,0,0,0,0],"split_type":[0,0,0,0,0,0,0,0,0,0,0],"sum_hessian":[1.593632E2,4.326065E1,1.16102554E2,4.000334E1,3.2573102E0,1.14782814E2,1.3197376E0,3.8711388E1,1.2919545E0,1.0261701E2,1.2165802E1],"tree_param":{"num_deleted":"0","num_feature":"5","num_nodes":"11","size_leaf_vector":"1"}},{"base_weights":[6.4112164E-2,9.313937E-2,-3.7589714E-1,6.348759E-2,6.945014E-1,-5.7790156E-2,1.15699545E-1,9.48234E-3,-4.476632E-2,8.273878E-2,2.7769525E-2,6.745634E-2,-4.45943E-2],"categories":[],"categories_nodes":[],"categories_segments":[],"categories_sizes":[],"default_left":[0,0,0,0,0,0,0,0,0,0,0,0,0],"id":20,"left_children":[1,3,5,7,9,-1,11,-1,-1,-1,-1,-1,-1],"loss_changes":[2.3471208E0,2.9983902E0,1.1991074E0,2.664601E0,2.0875192E-1,0E0,1.6046274E0,0E0,0E0,0E0,0E0,0E0,0E0],"parents":[2147483647,0,0,1,1,2,2,3,3,4,4,6,6],"right_children":[2,4,6,8,10,-1,12,-1,-1,-1,-1,-1,-1],"split_conditions":[9.76234E-1,9.782214E-1,9.909256E-1,9.6160877E-1,9.725777E-1,-5.7790156E-2,9.835466E-1,9.48234E-3,-4.476632E-2,8.273878E-2,2.7769525E-2,6.745634E-2,-4.45943E-2],"split_indices":[0,3,3,0,0,0,0,0,0,0,0,0,0],"split_type":[0,0,0,0,0,0,0,0,0,0,0,0,0],"sum_hessian":[1.8002617E2,1.6962445E2,1.0401722E1,1.6270729E2,6.9171505E0,7.247894E0,3.1538277E0,1.5407623E2,8.631064E0,4.4980226E0,2.4191282E0,1.4800476E0,1.6737801E0],"tree_param":{"num_deleted":"0","num_feature":"5","num_nodes":"13","size_leaf_vector":"1"}},{"base_weights":[1.4390236E-1,3.764219E-1,9.915831E-2,2.0010135E-1,1.0876838E-1,-3.773712E-1,1.7467931E-1,4.364131E-2,-5.2761562E-2,-8.630968E-3,-6.7579456E-2,9.752412E-2,1.3130054E-2],"categories":[],"categories_nodes":[],"categories_segments":[],"categories_sizes":[],"default_left":[0,0,0,0,0,0,0,0,0,0,0,0,0],"id":21,"left_children":[1,3,5,7,-1,9,11,-1,-1,-1,-1,-1,-1],"loss_changes":[1.9113011E0,3.5281096E0,5.767503E0,4.5569987E0,0E0,1.8516974E0,4.644897E0,0E0,0E0,0E0,0E0,0E0,0E0],"parents":[2147483647,0,0,1,1,2,2,3,3,5,5,6,6],"right_children":[2,4,6,8,-1,10,12,-1,-1,-1,-1,-1,-1],"split_conditions":[3.1034482E-1,2.6873857E-1,4.2230347E-1,2.3049001E-1,1.0876838E-1,4.0290383E-1,4.355717E-1,4.364131E-2,-5.2761562E-2,-8.630968E-3,-6.7579456E-2,9.752412E-2,1.3130054E-2],"split_indices":[3,0,0,3,0,3,3,0,0,0,0,0,0],"split_type":[0,0,0,0,0,0,0,0,0,0,0,0,0],"sum_hessian":[1.8629826E2,2.886806E1,1.574302E2,2.4160137E1,4.7079225E0,2.0989813E1,1.3644038E2,1.8539951E1,5.6201863E0,1.1278631E1,9.711181E0,5.908893E0,1.305315E2],"tree_param":{"num_deleted":"0","num_feature":"5","num_nodes":"13","size_leaf_vector":"1"}},{"base_weights":[-2.3959534E-1,-3.914336E-1,-1.6737133E-1,-1.8889233E-1,-4.5537695E-1,1.0718851E-1,-2.1446581E-1,-4.7098584E-2,3.9767504E-2,-5.9693214E-2,-3.8085755E-2,-1.1071278E-2,4.4151697E-2,-3.9880704E-2,-1.354286E-2],"categories":[],"categories_nodes":[],"categories_segments":[],"categories_sizes":[],"default_left":[0,0,0,0,0,0,0,0,0,0,0,0,0,0,0],"id":22,"left_children":[1,3,5,7,9,11,13,-1,-1,-1,-1,-1,-1,-1,-1],"loss_changes":[1.6628876E0,5.622759E-1,1.4266028E0,2.457504E0,1.6650343E-1,1.2553114E0,1.3008733E0,0E0,0E0,0E0,0E0,0E0,0E0,0E0,0E0],"parents":[2147483647,0,0,1,1,2,2,3,3,4,4,5,5,6,6],"right_children":[2,4,6,8,10,12,14,-1,-1,-1,-1,-1,-1,-1,-1],"split_conditions":[4.972477E-1,2.123412E-1,7.3491776E-1,1.8330309E-1,3.1305903E-1,2.0037106E-1,8.0679786E-1,-4.7098584E-2,3.9767504E-2,-5.9693214E-2,-3.8085755E-2,-1.1071278E-2,4.4151697E-2,-3.9880704E-2,-1.354286E-2],"split_indices":[1,3,0,3,2,4,2,0,0,0,0,0,0,0,0],"split_type":[0,0,0,0,0,0,0,0,0,0,0,0,0,0,0],"sum_hessian":[1.5660942E2,4.9056675E1,1.0755274E2,1.2719998E1,3.6336674E1,1.5560328E1,9.199242E1,8.722297E0,3.9977021E0,1.0113986E1,2.6222689E1,9.825397E0,5.7349315E0,2.6391891E1,6.560052E1],"tree_param":{"num_deleted":"0","num_feature":"5","num_nodes":"15","size_leaf_vector":"1"}},{"base_weights":[5.9720445E-2,-2.7456158E-1,9.639652E-2,1.3875476E-1,-5.0697064E-1,4.4363523E-1,-1.3452491E-2,-2.5061762E-2,8.095529E-2,-2.882717E-3,-5.6698557E-2,2.8956065E-2,1.0926881E-1,-3.729277E-2,7.495053E-3],"categories":[],"categories_nodes":[],"categories_segments":[],"categories_sizes":[],"default_left":[0,0,0,0,0,0,0,0,0,0,0,0,0,0,0],"id":23,"left_children":[1,3,5,7,9,11,13,-1,-1,-1,-1,-1,-1,-1,-1],"loss_changes":[2.2456408E0,1.8143587E0,6.255884E0,2.1147292E0,3.232987E-1,3.6243777E0,4.0144134E0,0E0,0E0,0E0,0E0,0E0,0E0,0E0,0E0],"parents":[2147483647,0,0,1,1,2,2,3,3,4,4,5,5,6,6],"right_children":[2,4,6,8,10,12,14,-1,-1,-1,-1,-1,-1,-1,-1],"split_conditions":[2.3049001E-1,1.2614259E-1,4.4058502E-1,1.08892925E-1,5.9369203E-2,4.4101635E-1,7.4228674E-1,-2.5061762E-2,8.095529E-2,-2.882717E-3,-5.6698557E-2,2.8956065E-2,1.0926881E-1,-3.729277E-2,7.495053E-3],"split_indices":[3,0,0,3,4,3,3,0,0,0,0,0,0,0,0],"split_type":[0,0,0,0,0,0,0,0,0,0,0,0,0,0,0],"sum_hessian":[1.8000705E2,1.7155754E1,1.628513E2,6.3197255E0,1.0836029E1,3.840678E1,1.2444451E2,4.3949914E0,1.9247339E0,1.3735089E0,9.462521E0,3.2207397E1,6.199383E0,2.3927814E1,1.005167E2],"tree_param":{"num_deleted":"0","num_feature":"5","num_nodes":"15","size_leaf_vector":"1"}},{"base_weights":[1.3325694E-1,-9.108722E-3,1.964952E-1,-1.5426351E-1,4.96314E-1,4.0568927E-1,1.38443E-1,-6.897303E-2,-4.266207E-3,7.051759E-2,3.7030973E-3,2.5243491E-2,1.00113325E-1,-3.3553056E-2,2.6778588E-2],"categories":[],"categories_nodes":[],"categories_segments":[],"categories_sizes":[],"default_left":[0,0,0,0,0,0,0,0,0,0,0,0,0,0,0],"id":24,"left_children":[1,3,5,7,9,11,13,-1,-1,-1,-1,-1,-1,-1,-1],"loss_changes":[1.6924965E0,4.3842564E0,1.52353E0,2.7421064E0,1.2533295E0,2.2784982E0,6.4251356E0,0E0,0E0,0E0,0E0,0E0,0E0,0E0,0E0],"parents":[2147483647,0,0,1,1,2,2,3,3,4,4,5,5,6,6],"right_children":[2,4,6,8,10,12,14,-1,-1,-1,-1,-1,-1,-1,-1],"split_conditions":[5.0092764E-2,9.7074956E-1,3.0490017E-1,7.678245E-1,9.8366606E-1,2.6873857E-1,4.2230347E-1,-6.897303E-2,-4.266207E-3,7.051759E-2,3.7030973E-3,2.5243491E-2,1.00113325E-1,-3.3553056E-2,2.6778588E-2],"split_indices":[4,0,3,0,3,0,0,0,0,0,0,0,0,0,0],"split_type":[0,0,0,0,0,0,0,0,0,0,0,0,0,0,0],"sum_hessian":[1.867946E2,5.7716297E1,1.2907831E2,4.5378586E1,1.2337711E1,2.673805E1,1.02340256E2,6.933097E0,3.8445488E1,8.112923E0,4.2247887E0,2.2397392E1,4.3406596E0,2.159861E1,8.0741646E1],"tree_param":{"num_deleted":"0","num_feature":"5","num_nodes":"15","size_leaf_vector":"1"}},{"base_weights":[-2.2694078E-1,-5.895487E-2,-2.8952706E-1,-1.0969721E-2,-5.1524896E-2,-3.0189806E-1,4.2255886E-2,-6.285877E-3,8.6264454E-2,-2.7079998E-2,-5.268804E-2],"categories":[],"categories_nodes":[],"categories_segments":[],"categories_sizes":[],"default_left":[0,0,0,0,0,0,0,0,0,0,0],"id":25,"left_children":[1,3,5,7,-1,9,-1,-1,-1,-1,-1],"loss_changes":[1.6123581E0,9.429411E-1,1.1200008E0,1.877583E0,0E0,6.361599E-1,0E0,0E0,0E0,0E0,0E0],"parents":[2147483647,0,0,1,1,2,2,3,3,5,5],"right_children":[2,4,6,8,-1,10,-1,-1,-1,-1,-1],"split_conditions":[3.8961038E-2,9.8747766E-1,9.9463326E-1,9.8366606E-1,-5.1524896E-2,2.96846E-1,4.2255886E-2,-6.285877E-3,8.6264454E-2,-2.7079998E-2,-5.268804E-2],"split_indices":[4,2,2,3,0,4,0,0,0,0,0],"split_type":[0,0,0,0,0,0,0,0,0,0,0],"sum_hessian":[1.5398248E2,4.232398E1,1.116585E2,3.9223198E1,3.1007788E0,1.10318E2,1.3405046E0,3.7900135E1,1.3230627E0,9.8857155E1,1.1460844E1],"tree_param":{"num_deleted":"0","num_feature":"5","num_nodes":"11","size_leaf_vector":"1"}},{"base_weights":[5.607174E-2,8.271589E-2,-3.6206567E-1,4.9883235E-2,5.7402676E-1,-5.6184586E-2,1.0526369E-1,8.861537E-3,-5.4913588E-2,8.943676E-2,1.4920845E-2,6.421809E-2,-4.3937795E-2],"categories":[],"categories_nodes":[],"categories_segments":[],"categories_sizes":[],"default_left":[0,0,0,0,0,0,0,0,0,0,0,0,0],"id":26,"left_children":[1,3,5,7,9,-1,11,-1,-1,-1,-1,-1,-1],"loss_changes":[2.046043E0,2.7287521E0,1.0885978E0,3.791593E0,1.3107598E0,0E0,1.494064E0,0E0,0E0,0E0,0E0,0E0,0E0],"parents":[2147483647,0,0,1,1,2,2,3,3,4,4,6,6],"right_children":[2,4,6,8,10,-1,12,-1,-1,-1,-1,-1,-1],"split_conditions":[9.76234E-1,9.745917E-1,9.909256E-1,9.5063984E-1,9.7074956E-1,-5.6184586E-2,9.835466E-1,8.861537E-3,-5.4913588E-2,8.943676E-2,1.4920845E-2,6.421809E-2,-4.3937795E-2],"split_indices":[0,3,3,0,0,0,0,0,0,0,0,0,0],"split_type":[0,0,0,0,0,0,0,0,0,0,0,0,0],"sum_hessian":[1.7996303E2,1.6993666E2,1.0026362E1,1.6032426E2,9.612403E0,6.8820734E0,3.144289E0,1.5138771E2,8.936554E0,4.8499374E0,4.762465E0,1.4931887E0,1.6511003E0],"tree_param":{"num_deleted":"0","num_feature":"5","num_nodes":"13","size_leaf_vector":"1"}},{"base_weights":[1.23281375E-1,5.236024E-1,1.0099244E-1,1.2480258E-1,7.540688E-2,7.207773E-2,4.3807122E-1,6.335213E-2,-4.735912E-2,9.912149E-3,-4.7952354E-2,7.12297E-2,-1.0543855E-2],"categories":[],"categories_nodes":[],"categories_segments":[],"categories_sizes":[],"default_left":[0,0,0,0,0,0,0,0,0,0,0,0,0],"id":27,"left_children":[1,3,5,7,-1,9,11,-1,-1,-1,-1,-1,-1],"loss_changes":[1.6260133E0,7.960155E-1,1.7176782E0,1.7445769E0,0E0,2.531158E0,2.1590629E0,0E0,0E0,0E0,0E0,0E0,0E0],"parents":[2147483647,0,0,1,1,2,2,3,3,5,5,6,6],"right_children":[2,4,6,8,-1,10,12,-1,-1,-1,-1,-1,-1],"split_conditions":[1.5245008E-1,9.689214E-2,9.76234E-1,7.5229354E-2,7.540688E-2,9.764065E-1,9.891107E-1,6.335213E-2,-4.735912E-2,9.912149E-3,-4.7952354E-2,7.12297E-2,-1.0543855E-2],"split_indices":[3,0,0,1,0,3,3,0,0,0,0,0,0],"split_type":[0,0,0,0,0,0,0,0,0,0,0,0,0],"sum_hessian":[1.8715912E2,8.684755E0,1.7847437E2,3.745335E0,4.93942E0,1.6549222E2,1.2982139E1,1.9926231E0,1.752712E0,1.5853969E2,6.95254E0,8.422199E0,4.55994E0],"tree_param":{"num_deleted":"0","num_feature":"5","num_nodes":"13","size_leaf_vector":"1"}},{"base_weights":[-2.1420135E-1,-3.6421007E-1,-1.4482188E-1,-5.127445E-1,-2.57767E-1,1.1925573E-1,-1.911226E-1,6.3532526E-3,-5.5560958E-2,-1.068326E-2,-4.9788147E-2,5.803739E-2,-3.801904E-3,-3.7633467E-2,-1.129432E-2],"categories":[],"categories_nodes":[],"categories_segments":[],"categories_sizes":[],"default_left":[0,0,0,0,0,0,0,0,0,0,0,0,0,0,0],"id":28,"left_children":[1,3,5,7,9,11,13,-1,-1,-1,-1,-1,-1,-1,-1],"loss_changes":[1.5340986E0,6.1973524E-1,1.3177943E0,5.007472E-1,1.0237257E0,1.2125487E0,1.2678859E0,0E0,0E0,0E0,0E0,0E0,0E0,0E0,0E0],"parents":[2147483647,0,0,1,1,2,2,3,3,4,4,5,5,6,6],"right_children":[2,4,6,8,10,12,14,-1,-1,-1,-1,-1,-1,-1,-1],"split_conditions":[4.972477E-1,1.5213358E-1,7.3491776E-1,3.8961038E-2,2.8014842E-1,8.90538E-2,8.0679786E-1,6.3532526E-3,-5.5560958E-2,-1.068326E-2,-4.9788147E-2,5.803739E-2,-3.801904E-3,-3.7633467E-2,-1.129432E-2],"split_indices":[1,4,0,4,4,4,2,0,0,0,0,0,0,0,0],"split_type":[0,0,0,0,0,0,0,0,0,0,0,0,0,0,0],"sum_hessian":[1.5147081E2,4.6557346E1,1.0491346E2,1.7842382E1,2.8714964E1,1.54154215E1,8.949804E1,1.2019019E0,1.664048E1,1.8518978E1,1.0195985E1,3.236385E0,1.2179036E1,2.5432669E1,6.406537E1],"tree_param":{"num_deleted":"0","num_feature":"5","num_nodes":"15","size_leaf_vector":"1"}},{"base_weights":[5.23235E-2,-2.5895396E-1,8.586171E-2,1.3991784E-1,-4.8799983E-1,9.194568E-2,4.684794E-2,-2.3888452E-2,7.7818E-2,-5.4742556E-2,-2.67719E-3,-6.581503E-2,7.2712484E-3],"categories":[],"categories_nodes":[],"categories_segments":[],"categories_sizes":[],"default_left":[0,0,0,0,0,0,0,0,0,0,0,0,0],"id":29,"left_children":[1,3,5,7,9,-1,11,-1,-1,-1,-1,-1,-1],"loss_changes":[1.9102986E0,1.6981107E0,5.290963E0,1.9471201E0,3.0205655E-1,0E0,2.9240766E0,0E0,0E0,0E0,0E0,0E0,0E0],"parents":[2147483647,0,0,1,1,2,2,3,3,4,4,6,6],"right_children":[2,4,6,8,10,-1,12,-1,-1,-1,-1,-1,-1],"split_conditions":[2.3049001E-1,1.2614259E-1,2.6873857E-1,1.08892925E-1,2.2361359E-1,9.194568E-2,3.1034482E-1,-2.3888452E-2,7.7818E-2,-5.4742556E-2,-2.67719E-3,-6.581503E-2,7.2712484E-3],"split_indices":[3,0,0,3,2,0,3,0,0,0,0,0,0],"split_type":[0,0,0,0,0,0,0,0,0,0,0,0,0],"sum_hessian":[1.7985446E2,1.6839666E1,1.630148E2,6.284556E0,1.055511E1,6.279307E0,1.5673549E2,4.3365703E0,1.9479855E0,9.184826E0,1.3702834E0,4.681597E0,1.520539E2],"tree_param":{"num_deleted":"0","num_feature":"5","num_nodes":"13","size_leaf_vector":"1"}},{"base_weights":[1.1440248E-1,1.0139142E-1,7.887684E-2,1.2255982E-1,-6.022671E-2,8.628922E-3,5.7466906E-2],"categories":[],"categories_nodes":[],"categories_segments":[],"categories_sizes":[],"default_left":[0,0,0,0,0,0,0],"id":30,"left_children":[1,3,-1,5,-1,-1,-1],"loss_changes":[1.5719032E0,2.8420954E0,0E0,2.9226356E0,0E0,0E0,0E0],"parents":[2147483647,0,0,1,1,3,3],"right_children":[2,4,-1,6,-1,-1,-1],"split_conditions":[9.8720294E-1,9.8548096E-1,7.887684E-2,9.7074956E-1,-6.022671E-2,8.628922E-3,5.7466906E-2],"split_indices":[0,3,0,0,0,0,0],"split_type":[0,0,0,0,0,0,0],"sum_hessian":[1.8726501E2,1.8484894E2,2.4160824E0,1.8025217E2,4.5967646E0,1.6796776E2,1.228441E1],"tree_param":{"num_deleted":"0","num_feature":"5","num_nodes":"7","size_leaf_vector":"1"}},{"base_weights":[-2.0250173E-1,-3.5150012E-1,-1.3451046E-1,-4.9992496E-1,-2.4686122E-1,8.376883E-2,-1.87667E-1,6.455646E-3,-5.4337896E-2,-9.955555E-3,-4.8648108E-2,4.080079E-2,-9.277545E-3,-4.366124E-2,-1.0344431E-2],"categories":[],"categories_nodes":[],"categories_segments":[],"categories_sizes":[],"default_left":[0,0,0,0,0,0,0,0,0,0,0,0,0,0,0],"id":31,"left_children":[1,3,5,7,9,11,13,-1,-1,-1,-1,-1,-1,-1,-1],"loss_changes":[1.47294E0,5.9723425E-1,1.2301102E0,4.8176527E-1,9.818946E-1,1.250698E0,1.7259912E0,0E0,0E0,0E0,0E0,0E0,0E0,0E0,0E0],"parents":[2147483647,0,0,1,1,2,2,3,3,4,4,5,5,6,6],"right_children":[2,4,6,8,10,12,14,-1,-1,-1,-1,-1,-1,-1,-1],"split_conditions":[4.972477E-1,1.5213358E-1,7.614679E-1,3.8961038E-2,2.8014842E-1,8.90538E-2,8.0679786E-1,6.455646E-3,-5.4337896E-2,-9.955555E-3,-4.8648108E-2,4.080079E-2,-9.277545E-3,-4.366124E-2,-1.0344431E-2],"split_indices":[1,4,1,4,4,4,2,0,0,0,0,0,0,0,0],"split_type":[0,0,0,0,0,0,0,0,0,0,0,0,0,0,0],"sum_hessian":[1.4906241E2,4.5400467E1,1.0366194E2,1.7210562E1,2.8189903E1,2.0187819E1,8.347412E1,1.1954652E0,1.6015097E1,1.8334372E1,9.855533E0,6.6547346E0,1.3533084E1,2.0044012E1,6.3430107E1],"tree_param":{"num_deleted":"0","num_feature":"5","num_nodes":"15","size_leaf_vector":"1"}},{"base_weights":[4.8951402E-2,1.3590914E-1,-7.152933E-2,5.577845E-2,1.1688497E-1,-5.885895E-1,3.2802888E-3,1.2039348E-2,-6.938404E-2,-6.613005E-2,-2.9567976E-2,6.240594E-2,-3.6713243E-3],"categories":[],"categories_nodes":[],"categories_segments":[],"categories_sizes":[],"default_left":[0,0,0,0,0,0,0,0,0,0,0,0,0],"id":32,"left_children":[1,3,5,7,-1,9,11,-1,-1,-1,-1,-1,-1],"loss_changes":[1.9038074E0,8.654476E0,2.9587831E0,4.8697505E0,0E0,1.0361433E-2,1.7055562E0,0E0,0E0,0E0,0E0,0E0,0E0],"parents":[2147483647,0,0,1,1,2,2,3,3,5,5,6,6],"right_children":[2,4,6,8,-1,10,12,-1,-1,-1,-1,-1,-1],"split_conditions":[7.8610605E-1,7.8402907E-1,8.094374E-1,7.6965266E-1,1.1688497E-1,8.0580765E-1,8.080439E-1,1.2039348E-2,-6.938404E-2,-6.613005E-2,-2.9567976E-2,6.240594E-2,-3.6713243E-3],"split_indices":[0,3,3,0,0,3,0,0,0,0,0,0,0],"split_type":[0,0,0,0,0,0,0,0,0,0,0,0,0],"sum_hessian":[1.7978978E2,1.0434793E2,7.544184E1,9.781398E1,6.5339503E0,8.667439E0,6.67744E1,9.0824554E1,6.989426E0,5.9361696E0,2.7312698E0,3.1576343E0,6.3616768E1],"tree_param":{"num_deleted":"0","num_feature":"5","num_nodes":"13","size_leaf_vector":"1"}},{"base_weights":[1.062146E-1,-2.8292902E-2,1.6558243E-1,-6.7304425E-2,6.93551E-2,4.8948538E-2,2.4874087E-1,8.6690664E-2,-3.0356233E-3,1.9298602E-2,-6.792033E-2,9.278045E-2,1.8360281E-2],"categories":[],"categories_nodes":[],"categories_segments":[],"categories_sizes":[],"default_left":[0,0,0,0,0,0,0,0,0,0,0,0,0],"id":33,"left_children":[1,3,5,-1,7,9,11,-1,-1,-1,-1,-1,-1],"loss_changes":[1.5108926E0,3.736848E0,1.2584755E0,0E0,4.146487E0,5.980654E0,3.2016935E0,0E0,0E0,0E0,0E0,0E0,0E0],"parents":[2147483647,0,0,1,1,2,2,4,4,5,5,6,6],"right_children":[2,4,6,-1,8,10,12,-1,-1,-1,-1,-1,-1],"split_conditions":[5.0092764E-2,7.678245E-1,4.4058502E-1,-6.7304425E-2,7.8221416E-1,4.2649728E-1,4.6642467E-1,8.6690664E-2,-3.0356233E-3,1.9298602E-2,-6.792033E-2,9.278045E-2,1.8360281E-2],"split_indices":[4,0,0,0,3,3,3,0,0,0,0,0,0],"split_type":[0,0,0,0,0,0,0,0,0,0,0,0,0],"sum_hessian":[1.8761977E2,5.7612556E1,1.300072E2,6.8027472E0,5.0809807E1,5.4773388E1,7.523382E1,4.79137E0,4.601844E1,4.634144E1,8.431948E0,5.4258385E0,6.980798E1],"tree_param":{"num_deleted":"0","num_feature":"5","num_nodes":"13","size_leaf_vector":"1"}},{"base_weights":[-1.9160542E-1,-3.233723E-2,-2.5270483E-1,1.3033736E-2,-4.8568524E-2,-2.6510197E-1,4.0888205E-2,-3.7886824E-3,8.292926E-2,-3.175283E-2,-1.3552112E-2],"categories":[],"categories_nodes":[],"categories_segments":[],"categories_sizes":[],"default_left":[0,0,0,0,0,0,0,0,0,0,0],"id":34,"left_children":[1,3,5,7,-1,9,-1,-1,-1,-1,-1],"loss_changes":[1.4304543E0,8.7302077E-1,9.8352957E-1,1.6639271E0,0E0,6.726208E-1,0E0,0E0,0E0,0E0,0E0],"parents":[2147483647,0,0,1,1,2,2,3,3,5,5],"right_children":[2,4,6,8,-1,10,-1,-1,-1,-1,-1],"split_conditions":[3.8961038E-2,9.8747766E-1,9.9463326E-1,9.8366606E-1,-4.8568524E-2,1.8552876E-1,4.0888205E-2,-3.7886824E-3,8.292926E-2,-3.175283E-2,-1.3552112E-2],"split_indices":[4,2,2,3,0,4,0,0,0,0,0],"split_type":[0,0,0,0,0,0,0,0,0,0,0],"sum_hessian":[1.4683656E2,4.1136097E1,1.0570046E2,3.827663E1,2.8594666E0,1.043445E2,1.3559632E0,3.692663E1,1.3500036E0,7.3255905E1,3.1088589E1],"tree_param":{"num_deleted":"0","num_feature":"5","num_nodes":"11","size_leaf_vector":"1"}},{"base_weights":[4.584725E-2,-2.5434342E-1,7.779125E-2,6.038261E-2,-5.3792214E-1,4.346832E-1,-5.743809E-3,-2.4656007E-2,8.109846E-2,-2.9251608E-3,-6.2141694E-2,2.0172214E-2,9.4693884E-2,-6.757987E-2,3.9934507E-3],"categories":[],"categories_nodes":[],"categories_segments":[],"categories_sizes":[],"default_left":[0,0,0,0,0,0,0,0,0,0,0,0,0,0,0],"id":35,"left_children":[1,3,5,7,9,11,13,-1,-1,-1,-1,-1,-1,-1,-1],"loss_changes":[1.7541419E0,1.6058902E0,4.89882E0,2.3321977E0,3.799684E-1,3.5278525E0,4.130508E0,0E0,0E0,0E0,0E0,0E0,0E0,0E0,0E0],"parents":[2147483647,0,0,1,1,2,2,3,3,4,4,5,5,6,6],"right_children":[2,4,6,8,10,12,14,-1,-1,-1,-1,-1,-1,-1,-1],"split_conditions":[2.3049001E-1,1.535649E-1,4.1499087E-1,1.4337568E-1,5.9369203E-2,4.0290383E-1,4.4283122E-1,-2.4656007E-2,8.109846E-2,-2.9251608E-3,-6.2141694E-2,2.0172214E-2,9.4693884E-2,-6.757987E-2,3.9934507E-3],"split_indices":[3,0,0,3,4,3,3,0,0,0,0,0,0,0,0],"split_type":[0,0,0,0,0,0,0,0,0,0,0,0,0,0,0],"sum_hessian":[1.7986385E2,1.6629313E1,1.6323453E2,8.2548485E0,8.374465E0,3.0163132E1,1.330714E2,6.3355694E0,1.9192792E0,1.3711891E0,7.0032754E0,2.1691961E1,8.471171E0,7.612273E0,1.2545913E2],"tree_param":{"num_deleted":"0","num_feature":"5","num_nodes":"15","size_leaf_vector":"1"}},{"base_weights":[9.817874E-2,8.5684836E-2,7.4880876E-2,1.0567761E-1,-5.8910754E-2,7.0935874E-3,5.4057118E-2],"categories":[],"categories_nodes":[],"categories_segments":[],"categories_sizes":[],"default_left":[0,0,0,0,0,0,0],"id":36,"left_children":[1,3,-1,5,-1,-1,-1],"loss_changes":[1.4698522E0,2.5754175E0,0E0,2.7080424E0,0E0,0E0,0E0],"parents":[2147483647,0,0,1,1,3,3],"right_children":[2,4,-1,6,-1,-1,-1],"split_conditions":[9.8720294E-1,9.8548096E-1,7.4880876E-2,9.7074956E-1,-5.8910754E-2,7.0935874E-3,5.4057118E-2],"split_indices":[0,3,0,0,0,0,0],"split_type":[0,0,0,0,0,0,0],"sum_hessian":[1.87711E2,1.8528471E2,2.4262843E0,1.8077217E2,4.512534E0,1.6847644E2,1.2295734E1],"tree_param":{"num_deleted":"0","num_feature":"5","num_nodes":"7","size_leaf_vector":"1"}},{"base_weights":[-1.8070795E-1,-3.2892597E-1,-1.1456474E-1,-4.8004857E-1,-2.249265E-1,4.1859627E-1,-1.3611716E-1,5.8786944E-3,-5.242296E-2,-7.7244635E-3,-4.7046524E-2,6.971292E-2,-3.0113207E-3,-8.365172E-3,-3.3607822E-2],"categories":[],"categories_nodes":[],"categories_segments":[],"categories_sizes":[],"default_left":[0,0,0,0,0,0,0,0,0,0,0,0,0,0,0],"id":37,"left_children":[1,3,5,7,9,11,13,-1,-1,-1,-1,-1,-1,-1,-1],"loss_changes":[1.3903775E0,5.9003925E-1,1.2319739E0,4.4083142E-1,9.858571E-1,5.481971E-1,1.0108783E0,0E0,0E0,0E0,0E0,0E0,0E0,0E0,0E0],"parents":[2147483647,0,0,1,1,2,2,3,3,4,4,5,5,6,6],"right_children":[2,4,6,8,10,12,14,-1,-1,-1,-1,-1,-1,-1,-1],"split_conditions":[4.972477E-1,1.5213358E-1,5.155393E-1,3.8961038E-2,2.8014842E-1,5.0816697E-1,1.0946196E-1,5.8786944E-3,-5.242296E-2,-7.7244635E-3,-4.7046524E-2,6.971292E-2,-3.0113207E-3,-8.365172E-3,-3.3607822E-2],"split_indices":[1,4,0,4,4,3,4,0,0,0,0,0,0,0,0],"split_type":[0,0,0,0,0,0,0,0,0,0,0,0,0,0,0],"sum_hessian":[1.446668E2,4.3412437E1,1.0125435E2,1.6222904E1,2.7189535E1,3.2182975E0,9.803606E1,1.2043201E0,1.5018583E1,1.7798832E1,9.390703E0,1.6441023E0,1.5741951E0,7.878335E1,1.9252705E1],"tree_param":{"num_deleted":"0","num_feature":"5","num_nodes":"15","size_leaf_vector":"1"}},{"base_weights":[4.315638E-2,1.2493295E-1,-7.041832E-2,4.8707057E-2,1.0808779E-1,-5.7617503E-1,1.9859755E-3,1.0946766E-2,-6.7079924E-2,-2.868037E-2,-6.487027E-2,5.8881003E-2,-3.6469058E-3],"categories":[],"categories_nodes":[],"categories_segments":[],"categories_sizes":[],"default_left":[0,0,0,0,0,0,0,0,0,0,0,0,0],"id":38,"left_children":[1,3,5,7,-1,9,11,-1,-1,-1,-1,-1,-1],"loss_changes":[1.6865306E0,7.6262937E0,2.7936144E0,4.3860264E0,0E0,1.4448881E-2,1.5493089E0,0E0,0E0,0E0,0E0,0E0,0E0],"parents":[2147483647,0,0,1,1,2,2,3,3,5,5,6,6],"right_children":[2,4,6,8,-1,10,12,-1,-1,-1,-1,-1,-1],"split_conditions":[7.8610605E-1,7.8402907E-1,8.094374E-1,7.6965266E-1,1.0808779E-1,7.952468E-1,8.080439E-1,1.0946766E-2,-6.7079924E-2,-2.868037E-2,-6.487027E-2,5.8881003E-2,-3.6469058E-3],"split_indices":[0,3,3,0,0,0,0,0,0,0,0,0,0],"split_type":[0,0,0,0,0,0,0,0,0,0,0,0,0],"sum_hessian":[1.7963937E2,1.0438186E2,7.525751E1,9.764659E1,6.7352686E0,8.55332E0,6.6704185E1,9.082453E1,6.822058E0,2.707064E0,5.8462563E0,3.222172E0,6.3482014E1],"tree_param":{"num_deleted":"0","num_feature":"5","num_nodes":"13","size_leaf_vector":"1"}},{"base_weights":[9.120689E-2,2.2835044E-2,2.0297457E-1,-2.425092E-1,1.1971735E-1,8.120615E-1,1.0480254E-1,3.662273E-2,-3.8766865E-2,8.281655E-2,3.4636133E-3,9.504341E-2,4.2742673E-2,7.464815E-3,6.250357E-2],"categories":[],"categories_nodes":[],"categories_segments":[],"categories_sizes":[],"default_left":[0,0,0,0,0,0,0,0,0,0,0,0,0,0,0],"id":39,"left_children":[1,3,5,7,9,11,13,-1,-1,-1,-1,-1,-1,-1,-1],"loss_changes":[1.4388521E0,3.07087E0,4.1943254E0,2.9677167E0,5.23627E0,1.1459398E-1,9.382249E-1,0E0,0E0,0E0,0E0,0E0,0E0,0E0,0E0],"parents":[2147483647,0,0,1,1,2,2,3,3,4,4,5,5,6,6],"right_children":[2,4,6,8,10,12,14,-1,-1,-1,-1,-1,-1,-1,-1],"split_conditions":[1.2244898E-1,7.678245E-1,1.4100185E-1,2.2504537E-1,7.8221416E-1,1.335807E-1,9.2687386E-1,3.662273E-2,-3.8766865E-2,8.281655E-2,3.4636133E-3,9.504341E-2,4.2742673E-2,7.464815E-3,6.250357E-2],"split_indices":[4,0,4,3,3,4,0,0,0,0,0,0,0,0,0],"split_type":[0,0,0,0,0,0,0,0,0,0,0,0,0,0,0],"sum_hessian":[1.8789447E2,1.17326454E2,7.0568016E1,3.0978485E1,8.634797E1,8.785913E0,6.1782104E1,5.671541E0,2.5306944E1,8.321691E0,7.8026276E1,5.3795958E0,3.406318E0,5.9478054E1,2.30405E0],"tree_param":{"num_deleted":"0","num_feature":"5","num_nodes":"15","size_leaf_vector":"1"}},{"base_weights":[-1.7073177E-1,-3.169204E-1,-1.0644246E-1,-1.0629689E-1,-3.8798654E-1,1.5006249E-1,-1.5270871E-1,-4.061587E-2,3.662136E-2,-5.5617016E-2,-3.0532414E-2,-7.2476403E-3,4.7975585E-2,1.55260265E-2,-1.9752448E-2],"categories":[],"categories_nodes":[],"categories_segments":[],"categories_sizes":[],"default_left":[0,0,0,0,0,0,0,0,0,0,0,0,0,0,0],"id":40,"left_children":[1,3,5,7,9,11,13,-1,-1,-1,-1,-1,-1,-1,-1],"loss_changes":[1.3165469E0,6.0804987E-1,1.2250221E0,1.8944764E0,2.7585936E-1,1.2074373E0,1.2219176E0,0E0,0E0,0E0,0E0,0E0,0E0,0E0,0E0],"parents":[2147483647,0,0,1,1,2,2,3,3,4,4,5,5,6,6],"right_children":[2,4,6,8,10,12,14,-1,-1,-1,-1,-1,-1,-1,-1],"split_conditions":[4.972477E-1,2.0658135E-1,7.3491776E-1,1.814882E-1,3.1305903E-1,2.0037106E-1,1.8552875E-2,-4.061587E-2,3.662136E-2,-5.5617016E-2,-3.0532414E-2,-7.2476403E-3,4.7975585E-2,1.55260265E-2,-1.9752448E-2],"split_indices":[1,0,0,3,2,4,4,0,0,0,0,0,0,0,0],"split_type":[0,0,0,0,0,0,0,0,0,0,0,0,0,0,0],"sum_hessian":[1.4267184E2,4.2378048E1,1.002938E2,1.1320996E1,3.1057053E1,1.4983001E1,8.53108E1,7.011698E0,4.3092985E0,8.346724E0,2.271033E1,9.410919E0,5.572082E0,1.0524333E1,7.478646E1],"tree_param":{"num_deleted":"0","num_feature":"5","num_nodes":"15","size_leaf_vector":"1"}},{"base_weights":[4.042613E-2,-2.493057E-1,7.1026E-2,5.719693E-2,-5.288166E-1,8.330629E-2,3.4698125E-2,-2.4093034E-2,7.757204E-2,-6.1106015E-2,-3.4894273E-3,-6.5181404E-2,5.98303E-3],"categories":[],"categories_nodes":[],"categories_segments":[],"categories_sizes":[],"default_left":[0,0,0,0,0,0,0,0,0,0,0,0,0],"id":41,"left_children":[1,3,5,7,9,-1,11,-1,-1,-1,-1,-1,-1],"loss_changes":[1.6188436E0,1.5272105E0,4.51458E0,2.1655018E0,3.5389137E-1,0E0,2.7598774E0,0E0,0E0,0E0,0E0,0E0,0E0],"parents":[2147483647,0,0,1,1,2,2,3,3,4,4,6,6],"right_children":[2,4,6,8,10,-1,12,-1,-1,-1,-1,-1,-1],"split_conditions":[2.3049001E-1,1.535649E-1,2.6873857E-1,1.4337568E-1,2.2361359E-1,8.330629E-2,3.1034482E-1,-2.4093034E-2,7.757204E-2,-6.1106015E-2,-3.4894273E-3,-6.5181404E-2,5.98303E-3],"split_indices":[3,0,0,3,2,0,3,0,0,0,0,0,0],"split_type":[0,0,0,0,0,0,0,0,0,0,0,0,0],"sum_hessian":[1.7959784E2,1.6473438E1,1.631244E2,8.236703E0,8.236735E0,6.424667E0,1.5669974E2,6.2911057E0,1.9455968E0,6.8576946E0,1.379041E0,4.653341E0,1.520464E2],"tree_param":{"num_deleted":"0","num_feature":"5","num_nodes":"13","size_leaf_vector":"1"}},{"base_weights":[8.5227095E-2,7.3224016E-2,7.126928E-2,9.2299245E-2,-5.7973843E-2,5.9016417E-3,5.1076986E-2],"categories":[],"categories_nodes":[],"categories_segments":[],"categories_sizes":[],"default_left":[0,0,0,0,0,0,0],"id":42,"left_children":[1,3,-1,5,-1,-1,-1],"loss_changes":[1.3703743E0,2.375822E0,0E0,2.505018E0,0E0,0E0,0E0],"parents":[2147483647,0,0,1,1,3,3],"right_children":[2,4,-1,6,-1,-1,-1],"split_conditions":[9.8720294E-1,9.8548096E-1,7.126928E-2,9.7074956E-1,-5.7973843E-2,5.9016417E-3,5.1076986E-2],"split_indices":[0,3,0,0,0,0,0],"split_type":[0,0,0,0,0,0,0],"sum_hessian":[1.8788103E2,1.8545016E2,2.430861E0,1.8102058E2,4.4295735E0,1.687409E2,1.2279685E1],"tree_param":{"num_deleted":"0","num_feature":"5","num_nodes":"7","size_leaf_vector":"1"}},{"base_weights":[-1.6153713E-1,-3.068692E-1,-9.8480925E-2,-4.624729E-1,-2.0205972E-1,1.4280502E-1,-1.4278403E-1,6.284164E-3,-5.079151E-2,-5.5008163E-3,-4.533935E-2,-7.14823E-3,4.5505147E-2,-3.278906E-2,-6.7994255E-3],"categories":[],"categories_nodes":[],"categories_segments":[],"categories_sizes":[],"default_left":[0,0,0,0,0,0,0,0,0,0,0,0,0,0,0],"id":43,"left_children":[1,3,5,7,9,11,13,-1,-1,-1,-1,-1,-1,-1,-1],"loss_changes":[1.2689493E0,5.984483E-1,1.0930254E0,4.209988E-1,9.776056E-1,1.1075122E0,1.1582824E0,0E0,0E0,0E0,0E0,0E0,0E0,0E0,0E0],"parents":[2147483647,0,0,1,1,2,2,3,3,4,4,5,5,6,6],"right_children":[2,4,6,8,10,12,14,-1,-1,-1,-1,-1,-1,-1,-1],"split_conditions":[4.972477E-1,1.5213358E-1,7.3491776E-1,3.8961038E-2,2.8014842E-1,2.0037106E-1,8.0679786E-1,6.284164E-3,-5.079151E-2,-5.5008163E-3,-4.533935E-2,-7.14823E-3,4.5505147E-2,-3.278906E-2,-6.7994255E-3],"split_indices":[1,4,0,4,4,4,2,0,0,0,0,0,0,0,0],"split_type":[0,0,0,0,0,0,0,0,0,0,0,0,0,0,0],"sum_hessian":[1.4076755E2,4.1424854E1,9.9342705E1,1.5298974E1,2.612588E1,1.5066015E1,8.427669E1,1.1875808E0,1.4111393E1,1.7251282E1,8.874598E0,9.39175E0,5.674265E0,2.327826E1,6.099843E1],"tree_param":{"num_deleted":"0","num_feature":"5","num_nodes":"15","size_leaf_vector":"1"}},{"base_weights":[3.7693005E-2,6.0324058E-2,-3.4093234E-1,2.8905595E-2,5.338774E-1,-5.3771462E-2,9.147437E-2,6.44376E-3,-5.3326692E-2,8.350823E-2,1.3509385E-2,5.8617562E-2,-4.2191382E-2],"categories":[],"categories_nodes":[],"categories_segments":[],"categories_sizes":[],"default_left":[0,0,0,0,0,0,0,0,0,0,0,0,0],"id":44,"left_children":[1,3,5,7,9,-1,11,-1,-1,-1,-1,-1,-1],"loss_changes":[1.5670686E0,2.5310402E0,9.2813754E-1,3.2615743E0,1.1594031E0,0E0,1.2848678E0,0E0,0E0,0E0,0E0,0E0,0E0],"parents":[2147483647,0,0,1,1,2,2,3,3,4,4,6,6],"right_children":[2,4,6,8,10,-1,12,-1,-1,-1,-1,-1,-1],"split_conditions":[9.76234E-1,9.745917E-1,9.909256E-1,9.5063984E-1,9.7074956E-1,-5.3771462E-2,9.835466E-1,6.44376E-3,-5.3326692E-2,8.350823E-2,1.3509385E-2,5.8617562E-2,-4.2191382E-2],"split_indices":[0,3,3,0,0,0,0,0,0,0,0,0,0],"split_type":[0,0,0,0,0,0,0,0,0,0,0,0,0],"sum_hessian":[1.794829E2,1.7015323E2,9.329659E0,1.6056161E2,9.591614E0,6.244387E0,3.0852723E0,1.5184938E2,8.712233E0,4.8410497E0,4.7505646E0,1.4990287E0,1.5862436E0],"tree_param":{"num_deleted":"0","num_feature":"5","num_nodes":"13","size_leaf_vector":"1"}},{"base_weights":[7.914512E-2,-4.8707653E-2,1.3547128E-1,-6.503232E-2,4.0487852E-2,2.2297876E-2,2.1334285E-1,7.47542E-2,-5.016091E-3,2.0807648E-2,-5.054314E-2,8.672925E-2,1.4703783E-2],"categories":[],"categories_nodes":[],"categories_segments":[],"categories_sizes":[],"default_left":[0,0,0,0,0,0,0,0,0,0,0,0,0],"id":45,"left_children":[1,3,5,-1,7,9,11,-1,-1,-1,-1,-1,-1],"loss_changes":[1.3664157E0,3.1645927E0,1.1527641E0,0E0,3.3622208E0,5.4634027E0,3.241105E0,0E0,0E0,0E0,0E0,0E0,0E0],"parents":[2147483647,0,0,1,1,2,2,4,4,5,5,6,6],"right_children":[2,4,6,-1,8,10,12,-1,-1,-1,-1,-1,-1],"split_conditions":[5.0092764E-2,7.678245E-1,4.3510056E-1,-6.503232E-2,7.8221416E-1,4.0290383E-1,4.6642467E-1,7.47542E-2,-5.016091E-3,2.0807648E-2,-5.054314E-2,8.672925E-2,1.4703783E-2],"split_indices":[4,0,0,0,3,3,3,0,0,0,0,0,0],"split_type":[0,0,0,0,0,0,0,0,0,0,0,0,0],"sum_hessian":[1.8782533E2,5.748268E1,1.3034265E2,6.6097226E0,5.087296E1,5.3653103E1,7.668955E1,4.9575825E0,4.591538E1,4.0131252E1,1.3521849E1,5.947776E0,7.0741776E1],"tree_param":{"num_deleted":"0","num_feature":"5","num_nodes":"13","size_leaf_vector":"1"}},{"base_weights":[-1.5241526E-1,-4.5527057E-3,-2.1134122E-1,3.9550215E-2,-4.6328187E-2,-2.2384624E-1,4.0034425E-2,-1.0209358E-3,7.9608314E-2,-1.9263113E-2,-4.669813E-2],"categories":[],"categories_nodes":[],"categories_segments":[],"categories_sizes":[],"default_left":[0,0,0,0,0,0,0,0,0,0,0],"id":46,"left_children":[1,3,5,7,-1,9,-1,-1,-1,-1,-1],"loss_changes":[1.2179761E0,8.4553015E-1,8.5462284E-1,1.4470098E0,0E0,6.587477E-1,0E0,0E0,0E0,0E0,0E0],"parents":[2147483647,0,0,1,1,2,2,3,3,5,5],"right_children":[2,4,6,8,-1,10,-1,-1,-1,-1,-1],"split_conditions":[3.8961038E-2,9.8747766E-1,9.9463326E-1,9.8366606E-1,-4.6328187E-2,2.96846E-1,4.0034425E-2,-1.0209358E-3,7.9608314E-2,-1.9263113E-2,-4.669813E-2],"split_indices":[4,2,2,3,0,4,0,0,0,0,0],"split_type":[0,0,0,0,0,0,0,0,0,0,0],"sum_hessian":[1.3889973E2,3.988751E1,9.901223E1,3.722265E1,2.664859E0,9.764996E1,1.3622617E0,3.5851112E1,1.3715366E0,8.812787E1,9.522097E0],"tree_param":{"num_deleted":"0","num_feature":"5","num_nodes":"11","size_leaf_vector":"1"}},{"base_weights":[3.5402004E-2,-2.4159326E-1,6.433756E-2,1.2594366E-1,-4.595858E-1,3.866951E-1,-1.1645699E-2,-2.207956E-2,6.875359E-2,-2.4401757E-3,-5.1828213E-2,1.7017318E-2,8.6683966E-2,-6.6638365E-2,3.2465588E-3],"categories":[],"categories_nodes":[],"categories_segments":[],"categories_sizes":[],"default_left":[0,0,0,0,0,0,0,0,0,0,0,0,0,0,0],"id":47,"left_children":[1,3,5,7,9,11,13,-1,-1,-1,-1,-1,-1,-1,-1],"loss_changes":[1.4595792E0,1.4400214E0,4.0194154E0,1.5552696E0,2.6944304E-1,3.1060796E0,3.8807461E0,0E0,0E0,0E0,0E0,0E0,0E0,0E0,0E0],"parents":[2147483647,0,0,1,1,2,2,3,3,4,4,5,5,6,6],"right_children":[2,4,6,8,10,12,14,-1,-1,-1,-1,-1,-1,-1,-1],"split_conditions":[2.3049001E-1,1.2614259E-1,4.1499087E-1,1.08892925E-1,5.9369203E-2,4.0290383E-1,4.4283122E-1,-2.207956E-2,6.875359E-2,-2.4401757E-3,-5.1828213E-2,1.7017318E-2,8.6683966E-2,-6.6638365E-2,3.2465588E-3],"split_indices":[3,0,0,3,4,3,3,0,0,0,0,0,0,0,0],"split_type":[0,0,0,0,0,0,0,0,0,0,0,0,0,0,0],"sum_hessian":[1.7916641E2,1.6250803E1,1.6291562E2,6.2073784E0,1.0043426E1,3.0296036E1,1.3261958E2,4.2130127E0,1.9943656E0,1.3618888E0,8.681537E0,2.1813585E1,8.48245E0,7.4805098E0,1.2513907E2],"tree_param":{"num_deleted":"0","num_feature":"5","num_nodes":"15","size_leaf_vector":"1"}},{"base_weights":[7.330361E-2,6.1838627E-2,6.7651525E-2,7.977738E-2,-5.655409E-2,4.82024E-3,4.7933873E-2],"categories":[],"categories_nodes":[],"categories_segments":[],"categories_sizes":[],"default_left":[0,0,0,0,0,0,0],"id":48,"left_children":[1,3,-1,5,-1,-1,-1],"loss_changes":[1.2616678E0,2.139186E0,0E0,2.2701375E0,0E0,0E0,0E0],"parents":[2147483647,0,0,1,1,3,3],"right_children":[2,4,-1,6,-1,-1,-1],"split_conditions":[9.8720294E-1,9.8548096E-1,6.7651525E-2,9.7074956E-1,-5.655409E-2,4.82024E-3,4.7933873E-2],"split_indices":[0,3,0,0,0,0,0],"split_type":[0,0,0,0,0,0,0],"sum_hessian":[1.8748149E2,1.8506653E2,2.4149644E0,1.8077057E2,4.2959585E0,1.685701E2,1.2200465E1],"tree_param":{"num_deleted":"0","num_feature":"5","num_nodes":"7","size_leaf_vector":"1"}},{"base_weights":[-1.4355667E-1,-2.8588524E-1,-8.336397E-2,-4.4730967E-1,-1.7904943E-1,1.2148529E-1,-1.3540584E-1,5.573107E-3,-4.932934E-2,-3.6891424E-3,-4.3286756E-2,3.892836E-2,-4.159302E-3,-3.865567E-2,-5.5211578E-3],"categories":[],"categories_nodes":[],"categories_segments":[],"categories_sizes":[],"default_left":[0,0,0,0,0,0,0,0,0,0,0,0,0,0,0],"id":49,"left_children":[1,3,5,7,9,11,13,-1,-1,-1,-1,-1,-1,-1,-1],"loss_changes":[1.159306E0,6.206894E-1,1.0661848E0,3.8639045E-1,9.264682E-1,9.103752E-1,1.5696329E0,0E0,0E0,0E0,0E0,0E0,0E0,0E0,0E0],"parents":[2147483647,0,0,1,1,2,2,3,3,4,4,5,5,6,6],"right_children":[2,4,6,8,10,12,14,-1,-1,-1,-1,-1,-1,-1,-1],"split_conditions":[4.972477E-1,1.5213358E-1,7.6951E-1,3.8961038E-2,2.8014842E-1,8.90538E-2,8.0679786E-1,5.573107E-3,-4.932934E-2,-3.6891424E-3,-4.3286756E-2,3.892836E-2,-4.159302E-3,-3.865567E-2,-5.5211578E-3],"split_indices":[1,4,3,4,4,4,2,0,0,0,0,0,0,0,0],"split_type":[0,0,0,0,0,0,0,0,0,0,0,0,0,0,0],"sum_hessian":[1.3710193E2,3.9634563E1,9.746737E1,1.4515445E1,2.511912E1,1.9474945E1,7.7992424E1,1.1979926E0,1.3317452E1,1.6835352E1,8.283769E0,6.845895E0,1.262905E1,1.7951624E1,6.0040802E1],"tree_param":{"num_deleted":"0","num_feature":"5","num_nodes":"15","size_leaf_vector":"1"}},{"base_weights":[3.3442177E-2,4.7777697E-2,-5.0915517E-2,3.1365052E-2,6.2378537E-2,5.620994E-3,-4.1556623E-2],"categories":[],"categories_nodes":[],"categories_segments":[],"categories_sizes":[],"default_left":[0,0,0,0,0,0,0],"id":50,"left_children":[1,3,-1,5,-1,-1,-1],"loss_changes":[1.4219956E0,1.6440665E0,0E0,1.934932E0,0E0,0E0,0E0],"parents":[2147483647,0,0,1,1,3,3],"right_children":[2,4,-1,6,-1,-1,-1],"split_conditions":[9.835466E-1,9.8548096E-1,-5.0915517E-2,9.7074956E-1,6.2378537E-2,5.620994E-3,-4.1556623E-2],"split_indices":[0,3,0,0,0,0,0],"split_type":[0,0,0,0,0,0,0],"sum_hessian":[1.7868564E2,1.7497472E2,3.710917E0,1.7115239E2,3.822329E0,1.6296727E2,8.185113E0],"tree_param":{"num_deleted":"0","num_feature":"5","num_nodes":"7","size_leaf_vector":"1"}},{"base_weights":[6.8202004E-2,4.3376246E-3,1.7234531E-1,-2.4319184E-1,9.376927E-2,7.4258E-1,8.012861E-2,3.1547215E-2,-3.7684437E-2,7.4281275E-2,1.4649696E-3,8.747889E-2,3.832716E-2,-5.1643196E-3,1.8885395E-2],"categories":[],"categories_nodes":[],"categories_segments":[],"categories_sizes":[],"default_left":[0,0,0,0,0,0,0,0,0,0,0,0,0,0,0],"id":51,"left_children":[1,3,5,7,9,11,13,-1,-1,-1,-1,-1,-1,-1,-1],"loss_changes":[1.252135E0,2.6303937E0,3.7045574E0,2.4739823E0,4.469688E0,1.3231707E-1,9.085798E-1,0E0,0E0,0E0,0E0,0E0,0E0,0E0,0E0],"parents":[2147483647,0,0,1,1,2,2,3,3,4,4,5,5,6,6],"right_children":[2,4,6,8,10,12,14,-1,-1,-1,-1,-1,-1,-1,-1],"split_conditions":[1.2244898E-1,7.678245E-1,1.4100185E-1,2.2504537E-1,7.8221416E-1,1.335807E-1,3.9670932E-1,3.1547215E-2,-3.7684437E-2,7.4281275E-2,1.4649696E-3,8.747889E-2,3.832716E-2,-5.1643196E-3,1.8885395E-2],"split_indices":[4,0,4,3,3,4,0,0,0,0,0,0,0,0,0],"split_type":[0,0,0,0,0,0,0,0,0,0,0,0,0,0,0],"sum_hessian":[1.8737372E2,1.16793465E2,7.058025E1,3.0541422E1,8.6252045E1,8.843389E0,6.1736866E1,5.633433E0,2.4907988E1,8.460374E0,7.779167E1,5.41593E0,3.4274583E0,2.8147709E1,3.3589157E1],"tree_param":{"num_deleted":"0","num_feature":"5","num_nodes":"15","size_leaf_vector":"1"}},{"base_weights":[-1.3541569E-1,-2.759889E-1,-7.669315E-2,-5.7424795E-2,-3.508023E-1,4.9462564E-2,-9.428845E-2,-3.848819E-2,4.824401E-2,-5.3102154E-2,-2.6321504E-2,-4.5662317E-3,-2.7293924E-2],"categories":[],"categories_nodes":[],"categories_segments":[],"categories_sizes":[],"default_left":[0,0,0,0,0,0,0,0,0,0,0,0,0],"id":52,"left_children":[1,3,5,7,9,-1,11,-1,-1,-1,-1,-1,-1],"loss_changes":[1.1050005E0,6.308582E-1,1.0278896E0,2.1918702E0,3.2532406E-1,0E0,8.1746715E-1,0E0,0E0,0E0,0E0,0E0,0E0],"parents":[2147483647,0,0,1,1,2,2,3,3,4,4,6,6],"right_children":[2,4,6,8,10,-1,12,-1,-1,-1,-1,-1,-1],"split_conditions":[4.972477E-1,2.123412E-1,5.0816697E-1,1.8330309E-1,3.1305903E-1,4.9462564E-2,1.0946196E-1,-3.848819E-2,4.824401E-2,-5.3102154E-2,-2.6321504E-2,-4.5662317E-3,-2.7293924E-2],"split_indices":[1,3,3,3,2,0,4,0,0,0,0,0,0],"split_type":[0,0,0,0,0,0,0,0,0,0,0,0,0],"sum_hessian":[1.3542545E2,3.8812965E1,9.661247E1,1.0348333E1,2.8464632E1,2.0765264E0,9.453595E1,6.620015E0,3.7283185E0,7.65368E0,2.0810951E1,7.5296844E1,1.9239107E1],"tree_param":{"num_deleted":"0","num_feature":"5","num_nodes":"13","size_leaf_vector":"1"}},{"base_weights":[3.1345677E-2,-2.3436429E-1,5.8826946E-2,5.7722628E-2,-5.0732243E-1,7.646378E-2,2.480806E-2,-2.287311E-2,7.304859E-2,-2.7319985E-3,-5.9074294E-2,-6.393546E-2,4.9019936E-3],"categories":[],"categories_nodes":[],"categories_segments":[],"categories_sizes":[],"default_left":[0,0,0,0,0,0,0,0,0,0,0,0,0],"id":53,"left_children":[1,3,5,7,9,-1,11,-1,-1,-1,-1,-1,-1],"loss_changes":[1.3245351E0,1.3867123E0,3.9062934E0,1.9251474E0,3.403666E-1,0E0,2.5559154E0,0E0,0E0,0E0,0E0,0E0,0E0],"parents":[2147483647,0,0,1,1,2,2,3,3,4,4,6,6],"right_children":[2,4,6,8,10,-1,12,-1,-1,-1,-1,-1,-1],"split_conditions":[2.3049001E-1,1.535649E-1,2.6873857E-1,1.4337568E-1,5.9369203E-2,7.646378E-2,3.1034482E-1,-2.287311E-2,7.304859E-2,-2.7319985E-3,-5.9074294E-2,-6.393546E-2,4.9019936E-3],"split_indices":[3,0,0,3,4,0,3,0,0,0,0,0,0],"split_type":[0,0,0,0,0,0,0,0,0,0,0,0,0],"sum_hessian":[1.7850421E2,1.6025854E1,1.6247836E2,8.122578E0,7.9032755E0,6.483537E0,1.5599483E2,6.1598206E0,1.9627575E0,1.3667104E0,6.536565E0,4.593116E0,1.5140172E2],"tree_param":{"num_deleted":"0","num_feature":"5","num_nodes":"13","size_leaf_vector":"1"}},{"base_weights":[6.3859195E-2,-5.5377018E-2,1.1628001E-1,-1.724053E-1,3.674605E-1,7.2383076E-2,3.1105736E-1,-5.3036357E-3,-5.4326713E-2,5.780482E-2,5.1483917E-3,1.0710836E-2,-6.829849E-2,9.037276E-2,1.9141913E-3],"categories":[],"categories_nodes":[],"categories_segments":[],"categories_sizes":[],"default_left":[0,0,0,0,0,0,0,0,0,0,0,0,0,0,0],"id":54,"left_children":[1,3,5,7,9,11,13,-1,-1,-1,-1,-1,-1,-1,-1],"loss_changes":[1.1821764E0,2.9394007E0,1.0974085E0,2.016542E0,8.298383E-1,2.9111776E0,4.0981064E0,0E0,0E0,0E0,0E0,0E0,0E0,0E0,0E0],"parents":[2147483647,0,0,1,1,2,2,3,3,4,4,5,5,6,6],"right_children":[2,4,6,8,10,12,14,-1,-1,-1,-1,-1,-1,-1,-1],"split_conditions":[5.0092764E-2,9.7074956E-1,8.568807E-1,9.528131E-1,9.8185116E-1,8.330309E-1,9.292196E-1,-5.3036357E-3,-5.4326713E-2,5.780482E-2,5.1483917E-3,1.0710836E-2,-6.829849E-2,9.037276E-2,1.9141913E-3],"split_indices":[4,0,1,3,3,3,3,0,0,0,0,0,0,0,0],"split_type":[0,0,0,0,0,0,0,0,0,0,0,0,0,0,0],"sum_hessian":[1.871041E2,5.7120842E1,1.2998326E2,4.520247E1,1.1918373E1,1.07196106E2,2.278715E1,3.5060566E1,1.0141903E1,6.6541834E0,5.2641892E0,1.0330523E2,3.890878E0,6.8281784E0,1.595897E1],"tree_param":{"num_deleted":"0","num_feature":"5","num_nodes":"15","size_leaf_vector":"1"}},{"base_weights":[-1.2792544E-1,-2.6741335E-1,-7.0446484E-2,-4.323679E-1,-1.6083145E-1,1.4792633E-1,-1.1681901E-1,5.9883413E-3,-4.7976974E-2,-2.0212175E-3,-4.1929144E-2,5.9419543E-2,-2.831647E-3,-3.193759E-2,-4.354603E-3],"categories":[],"categories_nodes":[],"categories_segments":[],"categories_sizes":[],"default_left":[0,0,0,0,0,0,0,0,0,0,0,0,0,0,0],"id":55,"left_children":[1,3,5,7,9,11,13,-1,-1,-1,-1,-1,-1,-1,-1],"loss_changes":[1.0624478E0,6.160979E-1,9.981878E-1,3.7208652E-1,9.104306E-1,1.3860018E0,1.1802353E0,0E0,0E0,0E0,0E0,0E0,0E0,0E0,0E0],"parents":[2147483647,0,0,1,1,2,2,3,3,4,4,5,5,6,6],"right_children":[2,4,6,8,10,12,14,-1,-1,-1,-1,-1,-1,-1,-1],"split_conditions":[4.972477E-1,1.5213358E-1,7.495528E-1,3.8961038E-2,2.8014842E-1,8.90538E-2,8.0679786E-1,5.9883413E-3,-4.7976974E-2,-2.0212175E-3,-4.1929144E-2,5.9419543E-2,-2.831647E-3,-3.193759E-2,-4.354603E-3],"split_indices":[1,4,2,4,4,4,2,0,0,0,0,0,0,0,0],"split_type":[0,0,0,0,0,0,0,0,0,0,0,0,0,0,0],"sum_hessian":[1.3386371E2,3.799833E1,9.586538E1,1.3715095E1,2.4283234E1,1.6408092E1,7.945728E1,1.1815722E0,1.2533523E1,1.6425098E1,7.8581347E0,3.973989E0,1.2434103E1,2.0215246E1,5.924204E1],"tree_param":{"num_deleted":"0","num_feature":"5","num_nodes":"15","size_leaf_vector":"1"}},{"base_weights":[2.9243402E-2,1.0179711E-1,-7.203718E-2,2.88909E-2,9.927756E-2,-3.679826E-1,4.801842E-2,8.297974E-3,-6.352532E-2,-1.2988969E-2,-5.4181423E-2,9.175883E-2,4.8319227E-5],"categories":[],"categories_nodes":[],"categories_segments":[],"categories_sizes":[],"default_left":[0,0,0,0,0,0,0,0,0,0,0,0,0],"id":56,"left_children":[1,3,5,7,-1,9,11,-1,-1,-1,-1,-1,-1],"loss_changes":[1.3241214E0,6.780155E0,2.6958237E0,3.5703065E0,0E0,8.3473754E-1,2.2526767E0,0E0,0E0,0E0,0E0,0E0,0E0],"parents":[2147483647,0,0,1,1,2,2,3,3,5,5,6,6],"right_children":[2,4,6,8,-1,10,12,-1,-1,-1,-1,-1,-1],"split_conditions":[7.8610605E-1,7.8402907E-1,8.4029037E-1,7.6965266E-1,9.927756E-2,8.080439E-1,8.318099E-1,8.297974E-3,-6.352532E-2,-1.2988969E-2,-5.4181423E-2,9.175883E-2,4.8319227E-5],"split_indices":[0,3,3,0,0,0,0,0,0,0,0,0,0],"split_type":[0,0,0,0,0,0,0,0,0,0,0,0,0],"sum_hessian":[1.7819675E2,1.038193E2,7.437745E1,9.692097E1,6.898338E0,2.0868944E1,5.3508503E1,9.0431175E1,6.4897866E0,9.543989E0,1.1324955E1,1.8247479E0,5.1683754E1],"tree_param":{"num_deleted":"0","num_feature":"5","num_nodes":"13","size_leaf_vector":"1"}},{"base_weights":[5.9320554E-2,4.833337E-2,6.431162E-2,6.5128446E-2,-5.5304866E-2,4.277697E-3,5.526436E-2],"categories":[],"categories_nodes":[],"categories_segments":[],"categories_sizes":[],"default_left":[0,0,0,0,0,0,0],"id":57,"left_children":[1,3,-1,5,-1,-1,-1],"loss_changes":[1.1746764E0,1.9105227E0,0E0,1.9534767E0,0E0,0E0,0E0],"parents":[2147483647,0,0,1,1,3,3],"right_children":[2,4,-1,6,-1,-1,-1],"split_conditions":[9.8720294E-1,9.8548096E-1,6.431162E-2,9.76234E-1,-5.5304866E-2,4.277697E-3,5.526436E-2],"split_indices":[0,3,0,0,0,0,0],"split_type":[0,0,0,0,0,0,0],"sum_hessian":[1.8698088E2,1.8458965E2,2.3912334E0,1.8044206E2,4.1475883E0,1.7357191E2,6.870139E0],"tree_param":{"num_deleted":"0","num_feature":"5","num_nodes":"7","size_leaf_vector":"1"}},{"base_weights":[-1.2103309E-1,-9.621243E-2,-4.352649E-1,-1.22320384E-1,6.95581E-1,-8.153572E-2,-5.218933E-2,9.1661786E-4,-1.8477187E-2,9.847232E-2,4.9841255E-3,-2.9594077E-2,1.6800772E-2],"categories":[],"categories_nodes":[],"categories_segments":[],"categories_sizes":[],"default_left":[0,0,0,0,0,0,0,0,0,0,0,0,0],"id":58,"left_children":[1,3,5,7,9,11,-1,-1,-1,-1,-1,-1,-1],"loss_changes":[9.984046E-1,2.6670039E0,2.4795437E-1,1.0015489E0,7.232306E-1,2.1291447E-1,0E0,0E0,0E0,0E0,0E0,0E0,0E0],"parents":[2147483647,0,0,1,1,2,2,3,3,4,4,5,5],"right_children":[2,4,6,8,10,12,-1,-1,-1,-1,-1,-1,-1],"split_conditions":[2.96846E-1,2.6530612E-1,1.6819012E-1,3.8961038E-2,2.8014842E-1,1.00548446E-1,-5.218933E-2,9.1661786E-4,-1.8477187E-2,9.847232E-2,4.9841255E-3,-2.9594077E-2,1.6800772E-2],"split_indices":[4,4,0,4,4,0,0,0,0,0,0,0,0],"split_type":[0,0,0,0,0,0,0,0,0,0,0,0,0],"sum_hessian":[1.3237914E2,1.2389876E2,8.480378E0,1.2076235E2,3.1364045E0,2.050166E0,6.4302125E0,3.916237E1,8.159998E1,1.803776E0,1.3326287E0,1.0027151E0,1.0474508E0],"tree_param":{"num_deleted":"0","num_feature":"5","num_nodes":"13","size_leaf_vector":"1"}},{"base_weights":[2.7895758E-2,4.1426945E-2,-4.9836066E-2,2.5931686E-2,5.85858E-2,4.8339893E-3,-3.9189875E-2],"categories":[],"categories_nodes":[],"categories_segments":[],"categories_sizes":[],"default_left":[0,0,0,0,0,0,0],"id":59,"left_children":[1,3,-1,5,-1,-1,-1],"loss_changes":[1.2949798E0,1.4644557E0,0E0,1.625487E0,0E0,0E0,0E0],"parents":[2147483647,0,0,1,1,3,3],"right_children":[2,4,-1,6,-1,-1,-1],"split_conditions":[9.835466E-1,9.8548096E-1,-4.9836066E-2,9.7074956E-1,5.85858E-2,4.8339893E-3,-3.9189875E-2],"split_indices":[0,3,0,0,0,0,0],"split_type":[0,0,0,0,0,0,0],"sum_hessian":[1.7795758E2,1.743948E2,3.562786E0,1.7058728E2,3.807518E0,1.6274367E2,7.8436193E0],"tree_param":{"num_deleted":"0","num_feature":"5","num_nodes":"7","size_leaf_vector":"1"}},{"base_weights":[5.5157073E-2,-6.0511E-2,1.05675034E-1,-6.244355E-2,2.1199653E-2,1.3744501E-4,1.8009421E-1,6.580201E-2,-6.1566997E-3,1.2731239E-2,-6.595352E-2,7.904442E-2,1.2305471E-2],"categories":[],"categories_nodes":[],"categories_segments":[],"categories_sizes":[],"default_left":[0,0,0,0,0,0,0,0,0,0,0,0,0],"id":60,"left_children":[1,3,5,-1,7,9,11,-1,-1,-1,-1,-1,-1],"loss_changes":[1.1037213E0,2.6729734E0,1.0294027E0,0E0,2.748816E0,4.715193E0,2.5787756E0,0E0,0E0,0E0,0E0,0E0,0E0],"parents":[2147483647,0,0,1,1,2,2,4,4,5,5,6,6],"right_children":[2,4,6,-1,8,10,12,-1,-1,-1,-1,-1,-1],"split_conditions":[5.0092764E-2,7.678245E-1,4.4058502E-1,-6.244355E-2,7.8221416E-1,4.2649728E-1,4.6642467E-1,6.580201E-2,-6.1566997E-3,1.2731239E-2,-6.595352E-2,7.904442E-2,1.2305471E-2],"split_indices":[4,0,0,0,3,3,3,0,0,0,0,0,0],"split_type":[0,0,0,0,0,0,0,0,0,0,0,0,0],"sum_hessian":[1.8679181E2,5.672166E1,1.3007014E2,6.338006E0,5.0383656E1,5.4203407E1,7.586674E1,4.995689E0,4.5387966E1,4.611931E1,8.0841E0,5.385157E0,7.0481575E1],"tree_param":{"num_deleted":"0","num_feature":"5","num_nodes":"13","size_leaf_vector":"1"}},{"base_weights":[-1.13589525E-1,-2.4942203E-1,-5.8922037E-2,-4.1818362E-1,-1.4260459E-1,4.1032887E-1,-7.981891E-2,5.9925704E-3,-4.6676245E-2,-7.684135E-4,-4.017588E-2,-3.555076E-2,8.0358766E-2,-3.1501912E-3,-2.7394757E-2],"categories":[],"categories_nodes":[],"categories_segments":[],"categories_sizes":[],"default_left":[0,0,0,0,0,0,0,0,0,0,0,0,0,0,0],"id":61,"left_children":[1,3,5,7,9,11,13,-1,-1,-1,-1,-1,-1,-1,-1],"loss_changes":[9.65242E-1,6.1746764E-1,9.6829265E-1,3.5410166E-1,8.542419E-1,1.559751E0,8.559519E-1,0E0,0E0,0E0,0E0,0E0,0E0,0E0,0E0],"parents":[2147483647,0,0,1,1,2,2,3,3,4,4,5,5,6,6],"right_children":[2,4,6,8,10,12,14,-1,-1,-1,-1,-1,-1,-1,-1],"split_conditions":[4.972477E-1,1.5213358E-1,5.154265E-1,3.8961038E-2,2.8014842E-1,1.781076E-1,1.0946196E-1,5.9925704E-3,-4.6676245E-2,-7.684135E-4,-4.017588E-2,-3.555076E-2,8.0358766E-2,-3.1501912E-3,-2.7394757E-2],"split_indices":[1,4,3,4,4,4,4,0,0,0,0,0,0,0,0],"split_type":[0,0,0,0,0,0,0,0,0,0,0,0,0,0,0],"sum_hessian":[1.3096721E2,3.6561123E1,9.440608E1,1.304163E1,2.3519493E1,3.2303736E0,9.1175705E1,1.1813446E0,1.1860285E1,1.6144184E1,7.3753095E0,1.1285734E0,2.1018002E0,7.393594E1,1.7239765E1],"tree_param":{"num_deleted":"0","num_feature":"5","num_nodes":"15","size_leaf_vector":"1"}},{"base_weights":[2.5911346E-2,-2.2862309E-1,5.2000403E-2,5.2619755E-2,-4.9603203E-1,7.1019195E-2,2.0193959E-2,-2.2546258E-2,7.007753E-2,-5.8003288E-2,-2.4186198E-3,-6.259019E-2,4.3524234E-3],"categories":[],"categories_nodes":[],"categories_segments":[],"categories_sizes":[],"default_left":[0,0,0,0,0,0,0,0,0,0,0,0,0],"id":62,"left_children":[1,3,5,7,9,-1,11,-1,-1,-1,-1,-1,-1],"loss_changes":[1.1989893E0,1.2899349E0,3.397189E0,1.7972177E0,3.312018E-1,0E0,2.385923E0,0E0,0E0,0E0,0E0,0E0,0E0],"parents":[2147483647,0,0,1,1,2,2,3,3,4,4,6,6],"right_children":[2,4,6,8,10,-1,12,-1,-1,-1,-1,-1,-1],"split_conditions":[2.3049001E-1,1.535649E-1,2.6873857E-1,1.4337568E-1,2.2361359E-1,7.1019195E-2,3.1034482E-1,-2.2546258E-2,7.007753E-2,-5.8003288E-2,-2.4186198E-3,-6.259019E-2,4.3524234E-3],"split_indices":[3,0,0,3,2,0,3,0,0,0,0,0,0],"split_type":[0,0,0,0,0,0,0,0,0,0,0,0,0],"sum_hessian":[1.7776508E2,1.5804769E1,1.6196031E2,8.094617E0,7.710152E0,6.4826226E0,1.5547769E2,6.120743E0,1.9738741E0,6.350342E0,1.3598106E0,4.5184455E0,1.5095924E2],"tree_param":{"num_deleted":"0","num_feature":"5","num_nodes":"13","size_leaf_vector":"1"}},{"base_weights":[5.130601E-2,4.0814E-2,6.1396725E-2,5.6699287E-2,-5.4176003E-2,3.5338036E-3,5.314768E-2],"categories":[],"categories_nodes":[],"categories_segments":[],"categories_sizes":[],"default_left":[0,0,0,0,0,0,0],"id":63,"left_children":[1,3,-1,5,-1,-1,-1],"loss_changes":[1.0808423E0,1.7425267E0,0E0,1.8165746E0,0E0,0E0,0E0],"parents":[2147483647,0,0,1,1,3,3],"right_children":[2,4,-1,6,-1,-1,-1],"split_conditions":[9.8720294E-1,9.8548096E-1,6.1396725E-2,9.76234E-1,-5.4176003E-2,3.5338036E-3,5.314768E-2],"split_indices":[0,3,0,0,0,0,0],"split_type":[0,0,0,0,0,0,0],"sum_hessian":[1.8633136E2,1.8397333E2,2.3580344E0,1.7996872E2,4.0046077E0,1.7324834E2,6.7203813E0],"tree_param":{"num_deleted":"0","num_feature":"5","num_nodes":"7","size_leaf_vector":"1"}},{"base_weights":[-1.0717431E-1,-8.359376E-2,-4.1821134E-1,-1.0918969E-1,6.646613E-1,-6.7405417E-3,-5.0835606E-2,-3.1371247E-2,-7.058013E-3,9.278974E-2,5.145763E-3],"categories":[],"categories_nodes":[],"categories_segments":[],"categories_sizes":[],"default_left":[0,0,0,0,0,0,0,0,0,0,0],"id":64,"left_children":[1,3,5,7,9,-1,-1,-1,-1,-1,-1],"loss_changes":[9.2318285E-1,2.4221816E0,2.4895692E-1,9.21347E-1,6.300243E-1,0E0,0E0,0E0,0E0,0E0,0E0],"parents":[2147483647,0,0,1,1,2,2,3,3,4,4],"right_children":[2,4,6,8,10,-1,-1,-1,-1,-1,-1],"split_conditions":[2.96846E-1,2.6530612E-1,1.6819012E-1,4.042934E-1,2.8014842E-1,-6.7405417E-3,-5.0835606E-2,-3.1371247E-2,-7.058013E-3,9.278974E-2,5.145763E-3],"split_indices":[4,4,0,2,4,0,0,0,0,0,0],"split_type":[0,0,0,0,0,0,0,0,0,0,0],"sum_hessian":[1.2963643E2,1.2168028E2,7.9561477E0,1.1848141E2,3.1988773E0,1.9837927E0,5.972355E0,1.7683424E1,1.0079798E2,1.8790448E0,1.3198326E0],"tree_param":{"num_deleted":"0","num_feature":"5","num_nodes":"11","size_leaf_vector":"1"}},{"base_weights":[2.4614766E-2,3.745453E-2,-4.8857637E-2,1.8775001E-2,4.5053214E-1,4.166524E-3,-5.7020493E-2,6.7791805E-2,-2.1817486E-3],"categories":[],"categories_nodes":[],"categories_segments":[],"categories_sizes":[],"default_left":[0,0,0,0,0,0,0,0,0],"id":65,"left_children":[1,3,-1,5,7,-1,-1,-1,-1],"loss_changes":[1.1933857E0,1.3411608E0,0E0,2.2939165E0,8.228891E-1,0E0,0E0,0E0,0E0],"parents":[2147483647,0,0,1,1,3,3,4,4],"right_children":[2,4,-1,6,8,-1,-1,-1,-1],"split_conditions":[9.835466E-1,9.8185116E-1,-4.8857637E-2,9.7074956E-1,9.798903E-1,4.166524E-3,-5.7020493E-2,6.7791805E-2,-2.1817486E-3],"split_indices":[0,3,0,0,0,0,0,0,0],"split_type":[0,0,0,0,0,0,0,0,0],"sum_hessian":[1.7733374E2,1.7390962E2,3.4241085E0,1.6738582E2,6.523801E0,1.6201837E2,5.3674564E0,4.110048E0,2.413753E0],"tree_param":{"num_deleted":"0","num_feature":"5","num_nodes":"9","size_leaf_vector":"1"}},{"base_weights":[4.7743157E-2,-6.2857464E-2,9.588155E-2,-6.1068695E-2,1.5247348E-2,5.4207888E-2,2.8235027E-1,6.3065484E-2,-6.487675E-3,8.724743E-3,-6.667846E-2,8.3878025E-2,1.3871909E-4],"categories":[],"categories_nodes":[],"categories_segments":[],"categories_sizes":[],"default_left":[0,0,0,0,0,0,0,0,0,0,0,0,0],"id":66,"left_children":[1,3,5,-1,7,9,11,-1,-1,-1,-1,-1,-1],"loss_changes":[1.0019907E0,2.4624674E0,1.0006002E0,0E0,2.563279E0,2.633023E0,3.6950612E0,0E0,0E0,0E0,0E0,0E0,0E0],"parents":[2147483647,0,0,1,1,2,2,4,4,5,5,6,6],"right_children":[2,4,6,-1,8,10,12,-1,-1,-1,-1,-1,-1],"split_conditions":[5.0092764E-2,7.678245E-1,8.568807E-1,-6.1068695E-2,7.8221416E-1,8.330309E-1,9.292196E-1,6.3065484E-2,-6.487675E-3,8.724743E-3,-6.667846E-2,8.3878025E-2,1.3871909E-4],"split_indices":[4,0,1,0,3,3,3,0,0,0,0,0,0],"split_type":[0,0,0,0,0,0,0,0,0,0,0,0,0],"sum_hessian":[1.860658E2,5.6332653E1,1.2973314E2,6.1783943E0,5.015426E1,1.07090355E2,2.2642784E1,4.986163E0,4.5168095E1,1.03238434E2,3.8519192E0,6.930998E0,1.5711785E1],"tree_param":{"num_deleted":"0","num_feature":"5","num_nodes":"13","size_leaf_vector":"1"}},{"base_weights":[-1.0049426E-1,-7.7483304E-2,-4.10011E-1,-1.0247289E-1,6.333217E-1,-6.4222063E-3,-5.0142277E-2,-3.0371903E-2,-6.5059303E-3,8.766898E-2,5.106128E-3],"categories":[],"categories_nodes":[],"categories_segments":[],"categories_sizes":[],"default_left":[0,0,0,0,0,0,0,0,0,0,0],"id":67,"left_children":[1,3,5,7,9,-1,-1,-1,-1,-1,-1],"loss_changes":[8.89627E-1,2.225714E0,2.4340677E-1,8.7154925E-1,5.604222E-1,0E0,0E0,0E0,0E0,0E0,0E0],"parents":[2147483647,0,0,1,1,2,2,3,3,4,4],"right_children":[2,4,6,8,10,-1,-1,-1,-1,-1,-1],"split_conditions":[2.96846E-1,2.6530612E-1,1.6819012E-1,4.042934E-1,2.8014842E-1,-6.4222063E-3,-5.0142277E-2,-3.0371903E-2,-6.5059303E-3,8.766898E-2,5.106128E-3],"split_indices":[4,4,0,2,4,0,0,0,0,0,0],"split_type":[0,0,0,0,0,0,0,0,0,0,0],"sum_hessian":[1.2836821E2,1.2064893E2,7.719281E0,1.17378136E2,3.2707953E0,1.9699577E0,5.749324E0,1.728499E1,1.0009315E2,1.9500604E0,1.3207351E0],"tree_param":{"num_deleted":"0","num_feature":"5","num_nodes":"11","size_leaf_vector":"1"}},{"base_weights":[2.2850726E-2,9.027413E-2,-7.194865E-2,5.8550653E-3,7.9585457E-1,-5.6570804E-1,-3.935888E-4,5.5017862E-3,-6.202638E-2,-4.0284324E-2,9.899194E-2,-6.39381E-2,-2.7612472E-2,5.4285087E-2,-3.7568738E-3],"categories":[],"categories_nodes":[],"categories_segments":[],"categories_sizes":[],"default_left":[0,0,0,0,0,0,0,0,0,0,0,0,0,0,0],"id":68,"left_children":[1,3,5,7,9,11,13,-1,-1,-1,-1,-1,-1,-1,-1],"loss_changes":[1.1448389E0,6.220992E0,2.63468E0,2.9386332E0,2.9952302E0,2.4827719E-2,1.3560771E0,0E0,0E0,0E0,0E0,0E0,0E0,0E0,0E0],"parents":[2147483647,0,0,1,1,2,2,3,3,4,4,5,5,6,6],"right_children":[2,4,6,8,10,12,14,-1,-1,-1,-1,-1,-1,-1,-1],"split_conditions":[7.8610605E-1,7.785844E-1,8.094374E-1,7.678245E-1,2.4118738E-2,8.0580765E-1,8.080439E-1,5.5017862E-3,-6.202638E-2,-4.0284324E-2,9.899194E-2,-6.39381E-2,-2.7612472E-2,5.4285087E-2,-3.7568738E-3],"split_indices":[0,3,3,0,4,3,0,0,0,0,0,0,0,0,0],"split_type":[0,0,0,0,0,0,0,0,0,0,0,0,0,0,0],"sum_hessian":[1.7709727E2,1.0351959E2,7.357768E1,9.335808E1,1.0161514E1,8.439025E0,6.513866E1,8.740701E1,5.951062E0,1.2659829E0,8.895532E0,5.764533E0,2.674492E0,3.3008254E0,6.183783E1],"tree_param":{"num_deleted":"0","num_feature":"5","num_nodes":"15","size_leaf_vector":"1"}},{"base_weights":[4.444761E-2,3.4402248E-2,5.893555E-2,4.9483392E-2,-5.3180505E-2,2.9133765E-3,5.1149555E-2],"categories":[],"categories_nodes":[],"categories_segments":[],"categories_sizes":[],"default_left":[0,0,0,0,0,0,0],"id":69,"left_children":[1,3,-1,5,-1,-1,-1],"loss_changes":[1.0021386E0,1.6014661E0,0E0,1.682996E0,0E0,0E0,0E0],"parents":[2147483647,0,0,1,1,3,3],"right_children":[2,4,-1,6,-1,-1,-1],"split_conditions":[9.8720294E-1,9.8548096E-1,5.893555E-2,9.76234E-1,-5.3180505E-2,2.9133765E-3,5.1149555E-2],"split_indices":[0,3,0,0,0,0,0],"split_type":[0,0,0,0,0,0,0],"sum_hessian":[1.8578333E2,1.8346431E2,2.3190248E0,1.7959337E2,3.870931E0,1.7303499E2,6.558381E0],"tree_param":{"num_deleted":"0","num_feature":"5","num_nodes":"7","size_leaf_vector":"1"}},{"base_weights":[-9.473058E-2,-7.246757E-2,-4.010802E-1,-9.689269E-2,6.0646933E-1,-5.998571E-3,-4.9406476E-2,-2.935194E-2,-6.097401E-3,8.3232455E-2,5.1704976E-3],"categories":[],"categories_nodes":[],"categories_segments":[],"categories_sizes":[],"default_left":[0,0,0,0,0,0,0,0,0,0,0],"id":70,"left_children":[1,3,5,7,9,-1,-1,-1,-1,-1,-1],"loss_changes":[8.453746E-1,2.0611138E0,2.3886395E-1,8.1135905E-1,4.9960172E-1,0E0,0E0,0E0,0E0,0E0,0E0],"parents":[2147483647,0,0,1,1,2,2,3,3,4,4],"right_children":[2,4,6,8,10,-1,-1,-1,-1,-1,-1],"split_conditions":[2.96846E-1,2.6530612E-1,1.6819012E-1,4.042934E-1,2.8014842E-1,-5.998571E-3,-4.9406476E-2,-2.935194E-2,-6.097401E-3,8.3232455E-2,5.1704976E-3],"split_indices":[4,4,0,2,4,0,0,0,0,0,0],"split_type":[0,0,0,0,0,0,0,0,0,0,0],"sum_hessian":[1.2721205E2,1.1974641E2,7.465646E0,1.1641558E2,3.330825E0,1.9516261E0,5.5140195E0,1.6873665E1,9.9541916E1,2.0115595E0,1.3192656E0],"tree_param":{"num_deleted":"0","num_feature":"5","num_nodes":"11","size_leaf_vector":"1"}},{"base_weights":[2.1619387E-2,-2.2353227E-1,4.660736E-2,1.1849479E-1,-4.336496E-1,3.2870248E-1,-1.9944962E-2,-4.472794E-2,4.1576363E-2,-4.9130224E-2,-2.7061664E-3,1.2925942E-2,7.8045115E-2,-6.581845E-2,2.259646E-3],"categories":[],"categories_nodes":[],"categories_segments":[],"categories_sizes":[],"default_left":[0,0,0,0,0,0,0,0,0,0,0,0,0,0,0],"id":71,"left_children":[1,3,5,7,9,11,13,-1,-1,-1,-1,-1,-1,-1,-1],"loss_changes":[1.0994803E0,1.2456057E0,3.0510404E0,1.3816198E0,2.3302722E-1,2.6932676E0,3.6030114E0,0E0,0E0,0E0,0E0,0E0,0E0,0E0,0E0],"parents":[2147483647,0,0,1,1,2,2,3,3,4,4,5,5,6,6],"right_children":[2,4,6,8,10,12,14,-1,-1,-1,-1,-1,-1,-1,-1],"split_conditions":[2.3049001E-1,1.2614259E-1,4.1499087E-1,5.6261342E-2,2.2361359E-1,4.0290383E-1,4.4283122E-1,-4.472794E-2,4.1576363E-2,-4.9130224E-2,-2.7061664E-3,1.2925942E-2,7.8045115E-2,-6.581845E-2,2.259646E-3],"split_indices":[3,0,0,3,2,3,3,0,0,0,0,0,0,0,0],"split_type":[0,0,0,0,0,0,0,0,0,0,0,0,0,0,0],"sum_hessian":[1.7678157E2,1.5617363E1,1.6116422E2,6.1090927E0,9.50827E0,3.0012274E1,1.3115193E2,1.9304163E0,4.178676E0,8.144988E0,1.3632824E0,2.1712519E1,8.299754E0,7.2912536E0,1.2386068E2],"tree_param":{"num_deleted":"0","num_feature":"5","num_nodes":"15","size_leaf_vector":"1"}},{"base_weights":[4.130721E-2,3.568406E-1,2.4935432E-2,-1.5245916E-2,6.1317768E-2,-3.74081E-1,4.6703305E-2,5.0466936E-2,-5.2297443E-2,-4.5761853E-3,-6.4213686E-2,5.918448E-2,1.7375676E-3],"categories":[],"categories_nodes":[],"categories_segments":[],"categories_sizes":[],"default_left":[0,0,0,0,0,0,0,0,0,0,0,0,0],"id":72,"left_children":[1,3,5,7,-1,9,11,-1,-1,-1,-1,-1,-1],"loss_changes":[9.5335245E-1,8.785455E-1,1.5649103E0,1.5027652E0,0E0,7.9150224E-1,2.7049282E0,0E0,0E0,0E0,0E0,0E0,0E0],"parents":[2147483647,0,0,1,1,2,2,3,3,5,5,6,6],"right_children":[2,4,6,8,-1,10,12,-1,-1,-1,-1,-1,-1],"split_conditions":[1.5245008E-1,9.689214E-2,2.0658135E-1,7.5229354E-2,6.1317768E-2,1.9056262E-1,2.7949184E-1,5.0466936E-2,-5.2297443E-2,-4.5761853E-3,-6.4213686E-2,5.918448E-2,1.7375676E-3],"split_indices":[3,0,0,1,0,3,3,0,0,0,0,0,0],"split_type":[0,0,0,0,0,0,0,0,0,0,0,0,0],"sum_hessian":[1.852717E2,8.113034E0,1.7715866E2,3.6929905E0,4.420044E0,8.327435E0,1.6883122E2,1.8275745E0,1.8654159E0,4.269185E0,4.0582495E0,7.6399274E0,1.611913E2],"tree_param":{"num_deleted":"0","num_feature":"5","num_nodes":"13","size_leaf_vector":"1"}},{"base_weights":[-8.862377E-2,-6.681494E-2,-3.9400235E-1,-9.059291E-2,5.7884085E-1,-5.900631E-3,-4.879294E-2,1.6346058E-2,-1.172653E-2,7.910587E-2,4.9934005E-3],"categories":[],"categories_nodes":[],"categories_segments":[],"categories_sizes":[],"default_left":[0,0,0,0,0,0,0,0,0,0,0],"id":73,"left_children":[1,3,5,7,9,-1,-1,-1,-1,-1,-1],"loss_changes":[8.196322E-1,1.8910272E0,2.3118913E-1,8.0771595E-1,4.5314872E-1,0E0,0E0,0E0,0E0,0E0,0E0],"parents":[2147483647,0,0,1,1,2,2,3,3,4,4],"right_children":[2,4,6,8,10,-1,-1,-1,-1,-1,-1],"split_conditions":[2.96846E-1,2.6530612E-1,1.6819012E-1,1.8552875E-2,2.8014842E-1,-5.900631E-3,-4.879294E-2,1.6346058E-2,-1.172653E-2,7.910587E-2,4.9934005E-3],"split_indices":[4,4,0,4,4,0,0,0,0,0,0],"split_type":[0,0,0,0,0,0,0,0,0,0,0],"sum_hessian":[1.2602157E2,1.18759094E2,7.2624736E0,1.1536998E2,3.3891153E0,1.9469129E0,5.3155603E0,1.047429E1,1.0489569E2,2.0649354E0,1.3241799E0],"tree_param":{"num_deleted":"0","num_feature":"5","num_nodes":"11","size_leaf_vector":"1"}},{"base_weights":[2.0099273E-2,3.2107305E-2,-4.771961E-2,5.814029E-3,3.2028008E-1,4.3991846E-3,-4.7949266E-2,7.700058E-2,2.3353568E-3],"categories":[],"categories_nodes":[],"categories_segments":[],"categories_sizes":[],"default_left":[0,0,0,0,0,0,0,0,0],"id":74,"left_children":[1,3,-1,5,7,-1,-1,-1,-1],"loss_changes":[1.0738273E0,1.3166592E0,0E0,2.9945462E0,1.9224784E0,0E0,0E0,0E0,0E0],"parents":[2147483647,0,0,1,1,3,3,4,4],"right_children":[2,4,-1,6,8,-1,-1,-1,-1],"split_conditions":[9.835466E-1,9.745917E-1,-4.771961E-2,9.488117E-1,9.7074956E-1,4.3991846E-3,-4.7949266E-2,7.700058E-2,2.3353568E-3],"split_indices":[0,3,0,0,0,0,0,0,0],"split_type":[0,0,0,0,0,0,0,0,0],"sum_hessian":[1.7625844E2,1.7301611E2,3.242329E0,1.5948468E2,1.35314245E1,1.4869647E2,1.0788213E1,4.7475376E0,8.783887E0],"tree_param":{"num_deleted":"0","num_feature":"5","num_nodes":"9","size_leaf_vector":"1"}},{"base_weights":[3.8405668E-2,2.8762974E-2,5.6745518E-2,4.3295264E-2,-5.247609E-2,2.3827974E-3,4.936728E-2],"categories":[],"categories_nodes":[],"categories_segments":[],"categories_sizes":[],"default_left":[0,0,0,0,0,0,0],"id":75,"left_children":[1,3,-1,5,-1,-1,-1],"loss_changes":[9.3243337E-1,1.5004089E0,0E0,1.565759E0,0E0,0E0,0E0],"parents":[2147483647,0,0,1,1,3,3],"right_children":[2,4,-1,6,-1,-1,-1],"split_conditions":[9.8720294E-1,9.8548096E-1,5.6745518E-2,9.76234E-1,-5.247609E-2,2.3827974E-3,4.936728E-2],"split_indices":[0,3,0,0,0,0,0],"split_type":[0,0,0,0,0,0,0],"sum_hessian":[1.8497713E2,1.8270149E2,2.275632E0,1.7892574E2,3.775757E0,1.725215E2,6.404229E0],"tree_param":{"num_deleted":"0","num_feature":"5","num_nodes":"7","size_leaf_vector":"1"}},{"base_weights":[-8.33573E-2,-6.2280282E-2,-3.8546562E-1,-8.53373E-2,5.5114704E-1,-5.254811E-3,-4.811999E-2,3.0441436E-3,-1.4288425E-2,7.4872606E-2,4.932008E-3],"categories":[],"categories_nodes":[],"categories_segments":[],"categories_sizes":[],"default_left":[0,0,0,0,0,0,0,0,0,0,0],"id":76,"left_children":[1,3,5,7,9,-1,-1,-1,-1,-1,-1],"loss_changes":[7.7806973E-1,1.7293137E0,2.3039377E-1,7.7388215E-1,4.035772E-1,0E0,0E0,0E0,0E0,0E0,0E0],"parents":[2147483647,0,0,1,1,2,2,3,3,4,4],"right_children":[2,4,6,8,10,-1,-1,-1,-1,-1,-1],"split_conditions":[2.96846E-1,2.6530612E-1,1.6819012E-1,3.8961038E-2,2.8014842E-1,-5.254811E-3,-4.811999E-2,3.0441436E-3,-1.4288425E-2,7.4872606E-2,4.932008E-3],"split_indices":[4,4,0,4,4,0,0,0,0,0,0],"split_type":[0,0,0,0,0,0,0,0,0,0,0],"sum_hessian":[1.24963326E2,1.1794115E2,7.022178E0,1.1449836E2,3.4427884E0,1.9142469E0,5.107931E0,3.8171707E1,7.632665E1,2.1172037E0,1.3255847E0],"tree_param":{"num_deleted":"0","num_feature":"5","num_nodes":"11","size_leaf_vector":"1"}},{"base_weights":[1.8978056E-2,8.2928665E-2,-7.097701E-2,1.9089943E-3,7.540965E-1,-3.6025634E-1,4.7902737E-2,4.834052E-3,-6.0273606E-2,-3.9098736E-2,9.35141E-2,-1.2802652E-2,-5.3079244E-2,8.315504E-2,2.6372253E-4],"categories":[],"categories_nodes":[],"categories_segments":[],"categories_sizes":[],"default_left":[0,0,0,0,0,0,0,0,0,0,0,0,0,0,0],"id":77,"left_children":[1,3,5,7,9,11,13,-1,-1,-1,-1,-1,-1,-1,-1],"loss_changes":[1.0235866E0,5.646304E0,2.5637171E0,2.65907E0,2.6843128E0,7.908225E-1,1.890722E0,0E0,0E0,0E0,0E0,0E0,0E0,0E0,0E0],"parents":[2147483647,0,0,1,1,2,2,3,3,4,4,5,5,6,6],"right_children":[2,4,6,8,10,12,14,-1,-1,-1,-1,-1,-1,-1,-1],"split_conditions":[7.8610605E-1,7.785844E-1,8.4029037E-1,7.678245E-1,2.4118738E-2,8.080439E-1,8.318099E-1,4.834052E-3,-6.0273606E-2,-3.9098736E-2,9.35141E-2,-1.2802652E-2,-5.3079244E-2,8.315504E-2,2.6372253E-4],"split_indices":[0,3,3,0,4,0,0,0,0,0,0,0,0,0,0],"split_type":[0,0,0,0,0,0,0,0,0,0,0,0,0,0,0],"sum_hessian":[1.759089E2,1.02861206E2,7.304769E1,9.2676636E1,1.01845665E1,2.0684372E1,5.236332E1,8.6921844E1,5.7547965E0,1.2320951E0,8.952472E0,9.4993E0,1.1185073E1,1.9108967E0,5.0452423E1],"tree_param":{"num_deleted":"0","num_feature":"5","num_nodes":"15","size_leaf_vector":"1"}},{"base_weights":[3.5831783E-2,-7.151546E-2,8.240019E-2,-1.7248152E-1,3.1008837E-1,-2.1895198E-2,1.5562083E-1,-5.772053E-3,-5.2956797E-2,5.0442595E-2,1.3986496E-3,9.807601E-3,-6.488299E-2,7.387068E-2,1.0217194E-2],"categories":[],"categories_nodes":[],"categories_segments":[],"categories_sizes":[],"default_left":[0,0,0,0,0,0,0,0,0,0,0,0,0,0,0],"id":78,"left_children":[1,3,5,7,9,11,13,-1,-1,-1,-1,-1,-1,-1,-1],"loss_changes":[9.337464E-1,2.2377956E0,9.9551755E-1,1.8329237E0,6.9606996E-1,4.1600504E0,2.3071804E0,0E0,0E0,0E0,0E0,0E0,0E0,0E0,0E0],"parents":[2147483647,0,0,1,1,2,2,3,3,4,4,5,5,6,6],"right_children":[2,4,6,8,10,12,14,-1,-1,-1,-1,-1,-1,-1,-1],"split_conditions":[5.0092764E-2,9.7074956E-1,4.4058502E-1,9.528131E-1,9.8185116E-1,4.2649728E-1,4.6642467E-1,-5.772053E-3,-5.2956797E-2,5.0442595E-2,1.3986496E-3,9.807601E-3,-6.488299E-2,7.387068E-2,1.0217194E-2],"split_indices":[4,0,0,3,3,3,3,0,0,0,0,0,0,0,0],"split_type":[0,0,0,0,0,0,0,0,0,0,0,0,0,0,0],"sum_hessian":[1.846082E2,5.5692596E1,1.289156E2,4.447362E1,1.1218974E1,5.346339E1,7.545222E1,3.4536022E1,9.937597E0,6.3486643E0,4.8703103E0,4.558394E1,7.879451E0,5.2590656E0,7.019315E1],"tree_param":{"num_deleted":"0","num_feature":"5","num_nodes":"15","size_leaf_vector":"1"}},{"base_weights":[-7.8199014E-2,-2.049971E-1,-3.0644622E-2,-3.9328423E-1,-8.6985394E-2,5.84719E-2,-4.992077E-2,6.554158E-3,-4.4467673E-2,3.2797635E-3,-3.5093486E-2,-4.9724686E-4,-2.2260942E-2],"categories":[],"categories_nodes":[],"categories_segments":[],"categories_sizes":[],"default_left":[0,0,0,0,0,0,0,0,0,0,0,0,0],"id":79,"left_children":[1,3,5,7,9,-1,11,-1,-1,-1,-1,-1,-1],"loss_changes":[7.4698067E-1,7.1898115E-1,1.1207914E0,3.304031E-1,7.10901E-1,0E0,6.986625E-1,0E0,0E0,0E0,0E0,0E0,0E0],"parents":[2147483647,0,0,1,1,2,2,3,3,4,4,6,6],"right_children":[2,4,6,8,10,-1,12,-1,-1,-1,-1,-1,-1],"split_conditions":[4.954628E-1,1.5398887E-1,5.0816697E-1,3.8961038E-2,2.8014842E-1,5.84719E-2,1.0946196E-1,6.554158E-3,-4.4467673E-2,3.2797635E-3,-3.5093486E-2,-4.9724686E-4,-2.2260942E-2],"split_indices":[3,4,3,4,4,0,4,0,0,0,0,0,0],"split_type":[0,0,0,0,0,0,0,0,0,0,0,0,0],"sum_hessian":[1.239232E2,3.2896862E1,9.102634E1,1.1775895E1,2.1120968E1,1.8738103E0,8.915253E1,1.1584135E0,1.0617481E1,1.5130384E1,5.9905844E0,7.155628E1,1.7596249E1],"tree_param":{"num_deleted":"0","num_feature":"5","num_nodes":"13","size_leaf_vector":"1"}},{"base_weights":[1.7666398E-2,2.9092446E-2,-4.6858262E-2,3.746843E-3,3.0884016E-1,3.3109726E-3,-5.8695037E-2,7.4456125E-2,2.1405483E-3],"categories":[],"categories_nodes":[],"categories_segments":[],"categories_sizes":[],"default_left":[0,0,0,0,0,0,0,0,0],"id":80,"left_children":[1,3,-1,5,7,-1,-1,-1,-1],"loss_changes":[9.9427366E-1,1.2282681E0,0E0,2.794586E0,1.7865831E0,0E0,0E0,0E0,0E0],"parents":[2147483647,0,0,1,1,3,3,4,4],"right_children":[2,4,-1,6,8,-1,-1,-1,-1],"split_conditions":[9.835466E-1,9.745917E-1,-4.6858262E-2,9.5795244E-1,9.7074956E-1,3.3109726E-3,-5.8695037E-2,7.4456125E-2,2.1405483E-3],"split_indices":[0,3,0,0,0,0,0,0,0],"split_type":[0,0,0,0,0,0,0,0,0],"sum_hessian":[1.7550436E2,1.7239357E2,3.1107945E0,1.5900119E2,1.3392378E1,1.5237096E2,6.630237E0,4.6909766E0,8.701401E0],"tree_param":{"num_deleted":"0","num_feature":"5","num_nodes":"9","size_leaf_vector":"1"}},{"base_weights":[3.3337563E-2,3.4165666E-1,1.7593708E-2,-2.1063166E-2,5.946365E-2,-3.6596674E-1,3.8470384E-2,4.893101E-2,-5.1384132E-2,-4.9545886E-3,-6.2659495E-2,5.5826616E-2,1.0464698E-3],"categories":[],"categories_nodes":[],"categories_segments":[],"categories_sizes":[],"default_left":[0,0,0,0,0,0,0,0,0,0,0,0,0],"id":81,"left_children":[1,3,5,7,-1,9,11,-1,-1,-1,-1,-1,-1],"loss_changes":[8.922457E-1,8.3249366E-1,1.4323137E0,1.4177388E0,0E0,7.307619E-1,2.4525328E0,0E0,0E0,0E0,0E0,0E0,0E0],"parents":[2147483647,0,0,1,1,2,2,3,3,5,5,6,6],"right_children":[2,4,6,8,-1,10,12,-1,-1,-1,-1,-1,-1],"split_conditions":[1.5245008E-1,9.689214E-2,2.0658135E-1,7.5229354E-2,5.946365E-2,1.9056262E-1,2.7949184E-1,4.893101E-2,-5.1384132E-2,-4.9545886E-3,-6.2659495E-2,5.5826616E-2,1.0464698E-3],"split_indices":[3,0,0,1,0,3,3,0,0,0,0,0,0],"split_type":[0,0,0,0,0,0,0,0,0,0,0,0,0],"sum_hessian":[1.8404997E2,7.935937E0,1.7611404E2,3.6374047E0,4.298532E0,8.237586E0,1.6787645E2,1.79026E0,1.8471448E0,4.2580805E0,3.9795053E0,7.6145015E0,1.6026195E2],"tree_param":{"num_deleted":"0","num_feature":"5","num_nodes":"13","size_leaf_vector":"1"}},{"base_weights":[-7.340114E-2,-5.3500246E-2,-3.7024963E-1,-7.6133616E-2,5.353568E-1,-3.6890984E-3,-4.7069114E-2,-2.6776744E-2,-4.2549814E-3,7.209813E-2,5.099997E-3],"categories":[],"categories_nodes":[],"categories_segments":[],"categories_sizes":[],"default_left":[0,0,0,0,0,0,0,0,0,0,0],"id":82,"left_children":[1,3,5,7,9,-1,-1,-1,-1,-1,-1],"loss_changes":[7.123665E-1,1.6043901E0,2.3770916E-1,7.213469E-1,3.648473E-1,0E0,0E0,0E0,0E0,0E0,0E0],"parents":[2147483647,0,0,1,1,2,2,3,3,4,4],"right_children":[2,4,6,8,10,-1,-1,-1,-1,-1,-1],"split_conditions":[2.96846E-1,2.6530612E-1,1.6819012E-1,4.042934E-1,2.8014842E-1,-3.6890984E-3,-4.7069114E-2,-2.6776744E-2,-4.2549814E-3,7.209813E-2,5.099997E-3],"split_indices":[4,4,0,2,4,0,0,0,0,0,0],"split_type":[0,0,0,0,0,0,0,0,0,0,0],"sum_hessian":[1.2293887E2,1.16320885E2,6.6179895E0,1.1285393E2,3.466956E0,1.8489006E0,4.769089E0,1.5788642E1,9.7065285E1,2.1532233E0,1.3137327E0],"tree_param":{"num_deleted":"0","num_feature":"5","num_nodes":"11","size_leaf_vector":"1"}},{"base_weights":[1.6635815E-2,-2.1663152E-1,4.02067E-2,5.733095E-2,-4.812516E-1,6.5509665E-1,1.0410806E-2,-2.1650145E-2,6.770169E-2,-5.6484412E-2,-2.7496251E-3,7.37563E-2,2.8601026E-2,-6.131645E-2,3.2987762E-3],"categories":[],"categories_nodes":[],"categories_segments":[],"categories_sizes":[],"default_left":[0,0,0,0,0,0,0,0,0,0,0,0,0,0,0],"id":83,"left_children":[1,3,5,7,9,11,13,-1,-1,-1,-1,-1,-1,-1,-1],"loss_changes":[9.764923E-1,1.2099965E0,2.937475E0,1.6580162E0,3.03195E-1,1.4626503E-2,2.192431E0,0E0,0E0,0E0,0E0,0E0,0E0,0E0,0E0],"parents":[2147483647,0,0,1,1,2,2,3,3,4,4,5,5,6,6],"right_children":[2,4,6,8,10,12,14,-1,-1,-1,-1,-1,-1,-1,-1],"split_conditions":[2.3049001E-1,1.535649E-1,2.6873857E-1,1.4337568E-1,2.2361359E-1,2.0037106E-1,3.1034482E-1,-2.1650145E-2,6.770169E-2,-5.6484412E-2,-2.7496251E-3,7.37563E-2,2.8601026E-2,-6.131645E-2,3.2987762E-3],"split_indices":[3,0,0,3,2,4,3,0,0,0,0,0,0,0,0],"split_type":[0,0,0,0,0,0,0,0,0,0,0,0,0,0,0],"sum_hessian":[1.7501425E2,1.530995E1,1.597043E2,7.9070687E0,7.4028807E0,6.411234E0,1.5329306E2,5.9350586E0,1.9720101E0,6.044516E0,1.3583647E0,4.424339E0,1.9868951E0,4.4421473E0,1.4885092E2],"tree_param":{"num_deleted":"0","num_feature":"5","num_nodes":"15","size_leaf_vector":"1"}},{"base_weights":[3.0958518E-2,2.171341E-2,5.4473437E-2,3.5772163E-2,-5.1855322E-2,1.7394688E-3,4.7158834E-2],"categories":[],"categories_nodes":[],"categories_segments":[],"categories_sizes":[],"default_left":[0,0,0,0,0,0,0],"id":84,"left_children":[1,3,-1,5,-1,-1,-1],"loss_changes":[8.648945E-1,1.4036255E0,0E0,1.4227685E0,0E0,0E0,0E0],"parents":[2147483647,0,0,1,1,3,3],"right_children":[2,4,-1,6,-1,-1,-1],"split_conditions":[9.8720294E-1,9.8548096E-1,5.4473437E-2,9.76234E-1,-5.1855322E-2,1.7394688E-3,4.7158834E-2],"split_indices":[0,3,0,0,0,0,0],"split_type":[0,0,0,0,0,0,0],"sum_hessian":[1.8357649E2,1.8135536E2,2.221126E0,1.7766595E2,3.689415E0,1.7147511E2,6.1908417E0],"tree_param":{"num_deleted":"0","num_feature":"5","num_nodes":"7","size_leaf_vector":"1"}},{"base_weights":[-6.913036E-2,-5.3842876E-2,-4.450652E-2,-9.203244E-2,1.2264475E-1,-3.9640382E-2,-4.4795936E-3,3.6355373E-2,-9.6532656E-4],"categories":[],"categories_nodes":[],"categories_segments":[],"categories_sizes":[],"default_left":[0,0,0,0,0,0,0,0,0],"id":85,"left_children":[1,3,-1,5,7,-1,-1,-1,-1],"loss_changes":[6.832172E-1,8.1590235E-1,0E0,1.4014959E0,6.940259E-1,0E0,0E0,0E0,0E0],"parents":[2147483647,0,0,1,1,3,3,4,4],"right_children":[2,4,-1,6,8,-1,-1,-1,-1],"split_conditions":[3.9888683E-1,1.8552876E-1,-4.450652E-2,4.3302754E-1,2.0964749E-1,-3.9640382E-2,-4.4795936E-3,3.6355373E-2,-9.6532656E-4],"split_indices":[4,4,0,1,4,0,0,0,0],"split_type":[0,0,0,0,0,0,0,0,0],"sum_hessian":[1.2205006E2,1.1837936E2,3.6707025E0,9.7713905E1,2.0665447E1,1.2134244E1,8.5579666E1,6.7060432E0,1.3959404E1],"tree_param":{"num_deleted":"0","num_feature":"5","num_nodes":"9","size_leaf_vector":"1"}},{"base_weights":[1.590243E-2,1.265783E-1,-3.3678375E-2,2.1597704E-2,7.984852E-2,-3.674406E-1,4.99254E-2,1.2352473E-2,-5.1408928E-2,-6.8673864E-3,-5.801759E-2,6.5976314E-2,-3.5958576E-3],"categories":[],"categories_nodes":[],"categories_segments":[],"categories_sizes":[],"default_left":[0,0,0,0,0,0,0,0,0,0,0,0,0],"id":86,"left_children":[1,3,5,7,-1,9,11,-1,-1,-1,-1,-1,-1],"loss_changes":[9.677857E-1,3.8294501E0,3.4241118E0,2.6948814E0,0E0,1.5216932E0,5.181924E0,0E0,0E0,0E0,0E0,0E0,0E0],"parents":[2147483647,0,0,1,1,2,2,3,3,5,5,6,6],"right_children":[2,4,6,8,-1,10,12,-1,-1,-1,-1,-1,-1],"split_conditions":[4.4058502E-1,4.4101635E-1,7.4228674E-1,4.0402195E-1,7.984852E-2,5.2285194E-1,7.678245E-1,1.2352473E-2,-5.1408928E-2,-6.8673864E-3,-5.801759E-2,6.5976314E-2,-3.5958576E-3],"split_indices":[0,3,3,0,0,0,0,0,0,0,0,0,0],"split_type":[0,0,0,0,0,0,0,0,0,0,0,0,0],"sum_hessian":[1.7458824E2,5.353429E1,1.2105395E2,4.7192886E1,6.3414044E0,2.3568596E1,9.748535E1,4.029519E1,6.897697E0,1.0352414E1,1.3216181E1,1.1209295E1,8.627606E1],"tree_param":{"num_deleted":"0","num_feature":"5","num_nodes":"13","size_leaf_vector":"1"}},{"base_weights":[2.897491E-2,-2.3834717E-2,1.1455236E-1,-2.5164494E-1,5.77746E-2,6.4289844E-1,3.0170273E-2,2.292742E-2,-3.629071E-2,6.1962593E-2,-1.1785299E-3,7.629072E-2,3.2385677E-2,8.489256E-3,-2.5640428E-2],"categories":[],"categories_nodes":[],"categories_segments":[],"categories_sizes":[],"default_left":[0,0,0,0,0,0,0,0,0,0,0,0,0,0,0],"id":87,"left_children":[1,3,5,7,9,11,13,-1,-1,-1,-1,-1,-1,-1,-1],"loss_changes":[8.3514065E-1,2.1475177E0,3.1219382E0,1.7123386E0,3.3403454E0,1.22567415E-1,9.910128E-1,0E0,0E0,0E0,0E0,0E0,0E0,0E0,0E0],"parents":[2147483647,0,0,1,1,2,2,3,3,4,4,5,5,6,6],"right_children":[2,4,6,8,10,12,14,-1,-1,-1,-1,-1,-1,-1,-1],"split_conditions":[1.2244898E-1,7.678245E-1,1.4100185E-1,2.2504537E-1,7.8221416E-1,1.335807E-1,7.350272E-1,2.292742E-2,-3.629071E-2,6.1962593E-2,-1.1785299E-3,7.629072E-2,3.2385677E-2,8.489256E-3,-2.5640428E-2],"split_indices":[4,0,4,3,3,4,3,0,0,0,0,0,0,0,0],"split_type":[0,0,0,0,0,0,0,0,0,0,0,0,0,0,0],"sum_hessian":[1.8318958E2,1.1372911E2,6.9460464E1,2.9446487E1,8.428262E1,8.654249E0,6.0806213E1,5.333277E0,2.411321E1,8.41389E0,7.586873E1,5.2777557E0,3.3764932E0,5.1647697E1,9.158517E0],"tree_param":{"num_deleted":"0","num_feature":"5","num_nodes":"15","size_leaf_vector":"1"}},{"base_weights":[-6.509804E-2,1.6675746E-1,-8.819312E-2,-2.616392E-1,6.0213053E-1,-1.0225977E-1,2.649252E-1,-9.878325E-3,-4.5536976E-2,9.117223E-2,3.2344203E-2,-8.6708255E-3,-4.389259E-2,6.549837E-2,-1.3587057E-2],"categories":[],"categories_nodes":[],"categories_segments":[],"categories_sizes":[],"default_left":[0,0,0,0,0,0,0,0,0,0,0,0,0,0,0],"id":88,"left_children":[1,3,5,7,9,11,13,-1,-1,-1,-1,-1,-1,-1,-1],"loss_changes":[6.693096E-1,2.2874968E0,5.825616E-1,1.5861583E-1,2.1991968E-1,5.287825E-1,8.0227506E-1,0E0,0E0,0E0,0E0,0E0,0E0,0E0,0E0],"parents":[2147483647,0,0,1,1,2,2,3,3,4,4,5,5,6,6],"right_children":[2,4,6,8,10,12,14,-1,-1,-1,-1,-1,-1,-1,-1],"split_conditions":[1.8552875E-2,1.2987013E-2,9.891107E-1,9.276438E-3,1.4842301E-2,3.9888683E-1,9.909256E-1,-9.878325E-3,-4.5536976E-2,9.117223E-2,3.2344203E-2,-8.6708255E-3,-4.389259E-2,6.549837E-2,-1.3587057E-2],"split_indices":[4,4,3,4,4,4,3,0,0,0,0,0,0,0,0],"split_type":[0,0,0,0,0,0,0,0,0,0,0,0,0,0,0],"sum_hessian":[1.2124777E2,1.0419918E1,1.1082785E2,5.4531727E0,4.966746E0,1.0726529E2,3.562559E0,3.7829807E0,1.6701918E0,1.2768421E0,3.6899035E0,1.0373122E2,3.534074E0,1.4840544E0,2.0785043E0],"tree_param":{"num_deleted":"0","num_feature":"5","num_nodes":"15","size_leaf_vector":"1"}},{"base_weights":[1.4965128E-2,2.5806928E-2,-4.5918237E-2,8.479846E-3,4.1870406E-1,2.866569E-3,-5.4882467E-2,6.288676E-2,-2.4359818E-3],"categories":[],"categories_nodes":[],"categories_segments":[],"categories_sizes":[],"default_left":[0,0,0,0,0,0,0,0,0],"id":89,"left_children":[1,3,-1,5,7,-1,-1,-1,-1],"loss_changes":[9.122535E-1,1.1686517E0,0E0,1.882434E0,6.906084E-1,0E0,0E0,0E0,0E0],"parents":[2147483647,0,0,1,1,3,3,4,4],"right_children":[2,4,-1,6,8,-1,-1,-1,-1],"split_conditions":[9.835466E-1,9.8185116E-1,-4.5918237E-2,9.7074956E-1,9.798903E-1,2.866569E-3,-5.4882467E-2,6.288676E-2,-2.4359818E-3],"split_indices":[0,3,0,0,0,0,0,0,0],"split_type":[0,0,0,0,0,0,0,0,0],"sum_hessian":[1.741549E2,1.7118616E2,2.9687505E0,1.6493402E2,6.252141E0,1.6008424E2,4.8497667E0,3.956194E0,2.2959468E0],"tree_param":{"num_deleted":"0","num_feature":"5","num_nodes":"9","size_leaf_vector":"1"}},{"base_weights":[2.7214773E-2,1.8348668E-2,5.2637864E-2,3.1640057E-2,-5.0655026E-2,1.4202221E-3,4.5466032E-2],"categories":[],"categories_nodes":[],"categories_segments":[],"categories_sizes":[],"default_left":[0,0,0,0,0,0,0],"id":90,"left_children":[1,3,-1,5,-1,-1,-1],"loss_changes":[8.032987E-1,1.2824461E0,0E0,